Anderson Cooperembedding:
	0: 0.0018870463990611366
	1: 0.006305955503387983
	2: -2.591779681448409E-4
	3: 0.004427067116380379
	4: 0.0040028752485509285
	5: 0.005308757335816467
	6: 0.0028054784346803327
	7: -0.005499865028440433
	8: -0.002578887169349552
	9: -8.349544587905715E-4
	10: 0.0011223234622613047
	11: -0.0019449410206956205
	12: -4.253969965720008E-4
	13: -0.002825037745495195
	14: 0.0026661764833231377
	15: 3.891433386810555E-4
	16: -0.0010748171325715324
	17: 0.002965607775329667
	18: 0.0013164888249626045
	19: -0.003296460571554662
	20: 0.003712450055368941
	21: 0.002674331411953327
	22: 0.0011678238283198779
	23: -0.002161553882547792
	24: 2.0819335821840125E-4
	25: -0.0011357265950188696
	26: 0.001434847822988386
	27: 0.0013859476810199663
	28: -3.743328766249464E-4
	29: 0.004707278032865232
	30: -0.0033715076843046556
	31: 5.888310823959055E-4
	32: 3.1326095094220876E-4
	33: 0.002125080879630886
	34: -2.905361113100297E-5
	35: 1.2301586725856927E-4
	36: -0.0019920070602473788
	37: -0.0024065751277452777
	38: 0.0026722945624087333
	39: -0.00297016480437247
	40: -0.003549314733264227
	41: -0.002322472255637444
	42: -0.001330950880970578
	43: 6.935572153397456E-4
	44: -0.0030314920988179757
	45: -0.0011308128481196914
	46: -0.0023399146551839924
	47: 3.917730885139784E-4
	48: 0.002407171879272933
	49: -1.1955107424311043E-4
	50: -0.0014284651584609892
	51: 0.0020082448077166637
	52: -0.003966208258184435
	53: -0.003877177439571022
	54: -0.004354226194309341
	55: -2.662979397119377E-5
	56: -0.004228717980575043
	57: -0.006814881849194629
	58: -0.004934724432269635
	59: -0.0015930089660066366
	60: -0.004006854284480754
	61: -0.005487272609215751
	62: -0.004468849115222267
	63: 5.962336101499775E-4
	64: 0.0018032664079553028
	65: -0.003376546316014911
	66: -0.0023621535095994573
	67: -0.003996875370961954
	68: -5.630269503138939E-4
	69: 7.568279492566017E-4
	70: 0.0038238607104492802
	71: -0.0033555930523758207
	72: -0.0022902743709331177
	73: -3.324468122312718E-4
	74: -3.513196834334498E-4
	75: 5.728753375293777E-4
	76: -0.004030331814345956
	77: -0.0038868972671312636
	78: -0.001064898705486446
	79: -0.002986115426980656
	80: 0.003367096602640772
	81: 0.0030587886603099398
	82: -0.001401775019226612
	83: 0.0012801109485332377
	84: -0.0012030354872389906
	85: -5.790856113732965E-4
	86: -0.0013653713903442467
	87: -5.372033460437251E-4
	88: -0.0031436418044610047
	89: -8.751249815232039E-4
	90: -0.002612735451543259
	91: -0.002056651183214892
	92: 0.001318375932272868
	93: -0.003977236807501625
	94: 0.002872578998328749
	95: 0.0038032529349343097
	96: -0.004970522792038042
	97: 8.075527080779361E-4
	98: 0.0017614395657891276
	99: 0.002583900542582725
	100: -0.001514155978573986
	101: 7.744636842659514E-4
	102: -0.0012613895665952693
	103: 0.004029170147470448
	104: -0.001655973322466218
	105: 3.233523888590954E-4
	106: -4.094961943903638E-4
	107: 0.009036790475933816
	108: 1.994407837568215E-4
	109: -0.002835669257646292
	110: 7.590838131712675E-4
	111: -0.0018268148404349577
	112: -8.443840493722972E-4
	113: 0.001027761179969205
	114: 5.175166579373323E-4
	115: 0.0050384704600641966
	116: -0.001011915495070253
	117: 0.003291777887297119
	118: -0.00381006897485129
	119: -0.0020675024652880443
	120: -0.004368075604489555
	121: -0.005521772475657921
	122: -0.00384925783835216
	123: -0.0036574804030751378
	124: -0.0035589094822826186
	125: 2.129390601199693E-6
	126: 0.003066554241164813
	127: -0.001419074308242397
	128: 0.00113364150219134
	129: 0.001301567264676565
	130: -0.0027231237676510044
	131: 0.0015983575939956573
	132: 0.0028156415321796925
	133: -1.4318209206442387E-4
	134: 4.1025728658146193E-4
	135: -0.002855656328556558
	136: 0.0021181614543275876
	137: -6.137323876888618E-4
	138: 0.001146263353581915
	139: 0.0032936791020754365
	140: 0.0014646382181932034
	141: 0.002560104083858052
	142: -1.1438651352193144E-4
	143: 9.569161029682998E-4
	144: -0.0024143704137024814
	145: 0.0013427951689438408
	146: -4.1494349563820797E-4
	147: 0.0034423842304786966
	148: 0.0026931113858390475
	149: 0.003596838585136779
	150: -0.002243665227530757
	151: 7.173068196479824E-5
	152: -0.001117281227845191
	153: -2.765240369546392E-4
	154: -0.0012267513692401475
	155: -0.0017370145264620706
	156: -3.824347783739347E-4
	157: -4.1711740573481814E-4
	158: 0.0035527433985708626
	159: -0.002459164057762913
	160: -0.00640130553134396
	161: -8.100567891198905E-5
	162: 0.002300039640467749
	163: -0.0050271554667264805
	164: -5.720875132525292E-5
	165: 4.2725492823442597E-4
	166: 0.0028157447031438064
	167: 0.002180523720962424
	168: -0.0029763573760403835
	169: -0.001542593220618849
	170: -0.004787831281310719
	171: 7.525459414433361E-4
	172: 0.0014757425749586067
	173: 0.001989162792086687
	174: -0.0010248652376952437
	175: -0.0026335636691659876
	176: -0.005658828755839415
	177: -0.0036822442568987908
	178: -0.0046295355277775965
	179: -7.87483793552609E-6
	180: 7.363697721973186E-6
	181: -0.0016928336833539651
	182: -0.001555291101047902
	183: -0.0013755944059540086
	184: -0.003972370441968481
	185: -0.003220296805236602
	186: -0.002043820361745083
	187: 0.0014647492080051274
	188: 0.0020255154091733765
	189: -3.731870445791313E-4
	190: 0.002530955322018573
	191: -0.002580631331573681
	192: -0.0027579059460510038
	193: -0.0017689050114796966
	194: 0.002137602217530682
	195: -0.002075105457075647
	196: 6.368431262078753E-4
	197: -0.0010113935380081027
	198: -0.0027916747113232573
	199: -2.3130386308206368E-5
	200: -0.0036896125100405112
	201: -0.002759714241752963
	202: -0.0016096840470953375
	203: -0.0025220700350003077
	204: -1.8414961372501497E-4
	205: -0.0020466918799337676
	206: 0.0013194738919163466
	207: -0.0019571750979511973
	208: -0.0016763231476917813
	209: -0.0033562690796224526
	210: -0.0011992234749695506
	211: -0.002504911069164879
	212: -0.0027480597050573035
	213: -8.419672586397094E-4
	214: -1.147225348920509E-4
	215: -2.937174845940969E-4
	216: -0.0026564543087479056
	217: -0.004871744689527171
	218: -0.0031244295479080655
	219: -0.005413984761486079
	220: -0.002696215592705573
	221: -0.0029271525581537174
	222: -0.003064471964605035
	223: -7.902394965016217E-5
	224: -8.492115156479983E-4
	225: 0.0011616214755279853
	226: -0.0037846455952850683
	227: -9.894349380913706E-4
	228: -0.004029002134680509
	229: -0.0012940890740220914
	230: 0.0017063659899144241
	231: -0.0038082677144131733
	232: -0.001058657212635634
	233: -0.0028943673663931998
	234: -9.583321707657498E-4
	235: -0.0015295997259667897
	236: -5.241271330283672E-4
	237: 0.0017296724247413667
	238: -6.413429379463134E-4
	239: -0.002684769156836732
	240: -0.0021114179918797415
	241: 0.002793467268270099
	242: -2.572962404482535E-4
	243: -0.005849853888187676
	244: -0.0031666273444500353
	245: -0.0021674832053321506
	246: -5.468037015959244E-4
	247: -0.002898703798148088
	248: -0.0018411180014937486
	249: -0.0017806976111219676
	250: -9.422953633594982E-5
	251: 4.242657750033896E-4
	252: 5.498100515611469E-4
	253: 0.002419184082693004
	254: -0.0035768905501848106
	255: -0.004749526486319474
	256: -0.004649438620314509
	257: -0.0014056861811217291
	258: -5.580522596013069E-4
	259: -5.764809488944173E-4
	260: -0.003785669019133078
	261: -0.001931209312165412
	262: 3.0310941580223688E-5
	263: 0.0020165046149453925
	264: 0.0035452118704333976
	265: -0.002387746948412267
	266: -0.001408070991769111
	267: -0.0034241827874207545
	268: 0.00314564905794207
	269: 8.988151666448651E-4
	270: 0.002522376828179526
	271: 0.004622602440258469
	272: 0.002041115369356437
	273: -0.0032541616812172863
	274: 0.0018264413330431103
	275: 5.157396543968121E-4
	276: 0.002379630699851644
	277: 0.001899611530358642
	278: 0.0038135957626637186
	279: 7.109741280979425E-4
	280: 0.002892341415027118
	281: 6.421350061630483E-4
	282: -0.0010012950102832974
	283: 1.8053736672685194E-4
	284: 0.001984295860304615
	285: 1.7538667208078973E-4
	286: 0.0012202059546513534
	287: -3.17217753022169E-4
	288: 5.528575578028218E-4
	289: -7.261721264087987E-4
	290: 0.0014776653675487718
	291: -0.0032126478565242225
	292: -0.002293184649875964
	293: -0.0016251334060282197
	294: -0.0013840040223013135
	295: 1.0417029857945004E-4
	296: 0.0014499820853189293
	297: 0.0030366755979867378
	298: -0.0010594651560334406
	299: -0.0016969679402434783
	300: 0.0013900190893082747
	301: 0.0018333133226520444
	302: 3.152549963781424E-4
	303: -0.0029454707436196935
	304: 0.0020859240372133724
	305: -0.0029091304390675356
	306: -0.004714563960918516
	307: 0.002122425746152522
	308: 0.0033340805009785734
	309: 0.001433405177800593
	310: 0.0034751595709747855
	311: 2.199288249159273E-4
	312: 4.411116251985155E-4
	313: -0.003136235925123874
	314: -1.0707635619606456E-4
	315: 0.0013109798560653274
	316: 0.0020060125831696933
	317: 0.004244646879161175
	318: 0.004451534182059458
	319: -3.055184345039591E-4
	320: 7.532159409926424E-4
	321: 0.0014102164027043613
	322: 0.0037177553538150945
	323: -5.125114932083668E-4
	324: 0.00450394781285841
	325: 0.0020330081513816123
	326: 0.006768593932525054
	327: -0.00440816360651355
	328: -0.004646943734049987
	329: -0.0016391777026614305
	330: -0.0025962883395596334
	331: 6.848076649174653E-4
	332: -0.0018652904119751614
	333: 0.0010650840621469289
	334: -0.0032899507758539863
	335: 7.268201703938594E-4
	336: 0.0016854758723800916
	337: 0.0012615718325991636
	338: -3.095248259283861E-4
	339: -0.0018354856110547769
	340: -0.005536563447948843
	341: -0.0011310451621557012
	342: 0.0012176225242954296
	343: 6.407114289324577E-4
	344: 7.542935055785935E-4
	345: -0.0013423805863726906
	346: -7.181679499318594E-4
	347: 0.0015203402773259263
	348: 8.349964219443364E-4
	349: 0.001104912309770486
	350: 6.403862232281457E-4
	351: 0.0019179234288993969
	352: -1.349083640292671E-4
	353: -6.333552750390388E-4
	354: -0.0032158865595673914
	355: -0.0031204687662637716
	356: -0.003276844501250977
	357: 0.001537421592689947
	358: 8.939205515663371E-5
	359: -0.003394567347039983
	360: 0.0013950094794152937
	361: -0.0018372577723382712
	362: 5.467077170821399E-4
	363: -8.518168031962745E-4
	364: -0.004826824391214614
	365: -0.002513742557033173
	366: 0.0010095176276359308
	367: -0.002166468563934739
	368: -0.007607312734481424
	369: -6.296328719756496E-4
	370: -0.0034311412552186023
	371: -9.751894778440061E-4
	372: -0.003560391537979274
	373: -0.004236979097688924
	374: -0.005851202264811525
	375: -0.004521505325986531
	376: -0.001892206948061186
	377: -0.004966899352385573
	378: -0.0043403184824177855
	379: -0.005622244637005963
	380: -0.002151314885002143
	381: -0.005299787504392055
	382: -0.006426112655128718
	383: 6.847271820541005E-4
	384: 0.001464469515545214
	385: -0.0027461060952718606
	386: -0.0020286737452599964
	387: 0.003197239782627723
	388: -0.0012591010057408643
	389: 0.002832428939751294
	390: -9.563014852319304E-4
	391: -4.6933335282449765E-4
	392: 0.005892281285983945
	393: 0.0014567840030147064
	394: 0.0035532097116322894
	395: 0.0021416579167372637
	396: 0.0029888333036651917
	397: 0.0051013681690960325
	398: 0.001391093228801208
	399: -0.004096669623737009
	400: 0.008609864739875668
	401: -0.0012775231595597322
	402: -0.002028306105712055
	403: 0.0032063619763279204
	404: 0.0068395186331518835
	405: 0.0026289773573126072
	406: -6.435231413421816E-4
	407: 9.790485934426042E-4
	408: 0.0012230074020468322
	409: 0.0010730980357581417
	410: 0.0014423383566658878
	411: -0.0028005813547153113
	412: 0.0037524719808385877
	413: 0.00202801472045732
	414: -0.007078199462249481
	415: 7.48014145090814E-4
	416: 0.003520977427783989
	417: -5.353367244251912E-4
	418: 0.0021121031784699577
	419: 0.002113304374880567
	420: -0.002585217508773073
	421: 0.0016876765389482941
	422: -1.9642345953251573E-4
	423: 0.004371410615096903
	424: -0.0033972015028709028
	425: -1.7530351260216994E-4
	426: 8.760828920584969E-4
	427: 8.636991815405557E-4
	428: 0.002983294280265136
	429: -0.001992156901012232
	430: -0.0014908293145211601
	431: 0.001194231053470812
	432: 3.568401208628683E-4
	433: -3.2162974592098614E-5
	434: -0.0047292365646058225
	435: -0.003636119583923562
	436: 0.0011348764841639606
	437: -0.0022216809499798046
	438: 0.0039433278525639725
	439: 1.949588638051856E-4
	440: -0.0032177372233302285
	441: 6.800465408386753E-4
	442: -0.0027987089497312667
	443: -0.001038152344645099
	444: 0.001135444468602989
	445: -0.0125324794644286
	446: 0.004614354994937155
	447: -0.002635022537724796
	448: 2.1527043702478197E-4
	449: -6.23127879196975E-4
	450: -6.994880679394408E-4
	451: 0.007537366960744582
	452: 8.641907569720778E-5
	453: 0.0031536002325218736
	454: 9.752351404264545E-4
	455: -0.0027624937203170026
	456: -0.0034520002814082545
	457: 0.004417264285777607
	458: 1.5168510248216531E-4
	459: -0.009386076013358223
	460: -9.169270737601025E-4
	461: -0.002331643321692383
	462: 7.547809100883155E-4
	463: -0.001954192361527162
	464: 0.0015714991138515255
	465: 0.005772286824907046
	466: 0.005137461506061256
	467: -0.0033196472632305496
	468: 0.0023807287136980654
	469: -0.002200698694709178
	470: 0.002264562203732272
	471: 8.101171281424279E-4
	472: -8.385351360805543E-4
	473: 0.003264045472085912
	474: -0.00146017083323628
	475: 0.004202074380056158
	476: -0.010370998701845706
	477: 0.0021193295645680686
	478: 0.0041096019158815365
	479: 5.215081589367758E-4
	480: 0.004069517081399958
	481: 0.003373669161417077
	482: 0.0018896106196796653
	483: -7.308402104032388E-4
	484: -0.0011531653875546833
	485: 0.0026882022170933253
	486: -0.002628724721135128
	487: -0.0021812813781623606
	488: -0.005116244271706417
	489: -0.007189660739204638
	490: -0.004384219750359426
	491: -3.1405397361333574E-4
	492: 0.005196773927885743
	493: 0.008846720032320073
	494: -9.164850242991318E-4
	495: 0.0031977850766065664
	496: 1.1309740641129851E-4
	497: 1.6824081222389538E-4
	498: 0.004062660881840219
	499: 0.007126289481600113
	500: 0.0021977177864665512
	501: 8.027887740227205E-5
	502: 7.001830083310747E-5
	503: 3.3807830311602735E-4
	504: -0.0013947880756681138
	505: 0.0021200285263328913
	506: 0.0023450355142109794
	507: 1.403193491327337E-6
	508: 0.005738160079179345
	509: -0.0028239805679941537
	510: 0.00407173148597494
	511: -0.0019611422064665244
	512: -0.00340822673104108
	513: 2.76411234132378E-4
	514: -0.002163807904279023
	515: -0.0011627693551556966
	516: 0.0019178694279577038
	517: -0.0024401192280681457
	518: 0.0021236374405852287
	519: 0.004257715219247456
	520: 6.459486160408292E-4
	521: -7.716302848056855E-4
	522: 7.70420119963199E-4
	523: -0.005072362320686842
	524: 3.8438975411257155E-4
	525: -4.1627580859736124E-4
	526: 0.00618321573646628
	527: 0.008464588000565584
	528: -3.701151777818716E-4
	529: -4.898841488475846E-4
	530: 0.0032727611373283734
	531: -4.464484885746203E-4
	532: 0.0016390496561293451
	533: 2.463122100257406E-4
	534: 0.0026896683754003797
	535: -1.592389558086982E-4
	536: 3.96006391317673E-4
	537: -0.003544473749526488
	538: -2.3308402433721588E-4
	539: -0.0019317421794045851
	540: -0.0011372965645726357
	541: -0.004589512055497122
	542: -1.0105054203215494E-4
	543: 0.0034847049635390276
	544: -0.0021324653183539596
	545: -7.657407094578091E-5
	546: 0.0015155643376987631
	547: 0.004229034593352109
	548: 0.00713968218677258
	549: 0.005340892672005795
	550: -4.927305841528722E-4
	551: -0.004058292971475411
	552: -0.0060304994911011996
	553: 0.007450968241295121
	554: -0.0018697715804966385
	555: -0.002364634439255771
	556: 0.0039573959702313075
	557: -0.0045947028954863725
	558: -0.0019934523718199188
	559: 9.10387730394724E-4
	560: -2.1788289080551654E-4
	561: 0.0026893747412581105
	562: -0.004880133550535311
	563: -0.001581880677792926
	564: -0.0038215510186587437
	565: 0.004330557256145609
	566: -0.006699519195453791
	567: 2.307362944470802E-4
	568: -0.010021204073468182
	569: 0.0013946411853300047
	570: 0.004302296421532094
	571: -0.003109445390257045
	572: 8.933763004045992E-4
	573: -0.0033872486852534562
	574: 0.007850086222969245
	575: 8.344061065039933E-4
	576: -0.0020938241016355916
	577: -0.0032819621433108448
	578: -0.007335254319491392
	579: 0.002726051407033226
	580: -0.0029347659303923116
	581: 0.0029673116084911575
	582: -0.0029753844489321104
	583: 0.0012481648652619614
	584: -0.001017056237900175
	585: -0.004523015407025827
	586: 0.004242172125797591
	587: -0.002258273628242776
	588: 3.6412269194854613E-4
	589: -0.006892911757307573
	590: 0.0058065719090972315
	591: 0.004246569707148562
	592: 0.006636959776407641
	593: -9.868727379473312E-4
	594: -0.007591747089732143
	595: -9.805894859212804E-5
	596: -8.252783082575019E-4
	597: 0.003753601240788
	598: 0.008145463184527878
	599: 0.0026328855588333157
	600: -7.0331936894051E-4
	601: -0.0027555619117693607
	602: 0.001501095937704236
	603: -9.601422592879148E-4
	604: 0.0023207135889662446
	605: 0.001588973794279791
	606: -6.92213051450479E-4
	607: 4.6563129276380857E-4
	608: -0.0013661334341724073
	609: 3.4892950114123863E-4
	610: -0.006467393129874787
	611: 0.002128427884335823
	612: -0.0022634556791312076
	613: 0.0049318227750290876
	614: -0.002355464040682604
	615: 0.0075673113303565765
	616: -0.005340010180257575
	617: 0.0021029789713443775
	618: 5.274694600112833E-4
	619: 0.003985355663203263
	620: 0.006170205018345244
	621: 2.521838764765569E-4
	622: -0.0011614914428859488
	623: 0.003722701288475365
	624: 0.0010240996048846156
	625: -1.313736618265424E-4
	626: 0.0011235416926171822
	627: 0.0036785672471747986
	628: -0.001204740609938594
	629: -0.009473208124231223
	630: 0.0014962157607486836
	631: -0.0011885000604515382
	632: 0.006060607037500607
	633: -0.0025858358765796824
	634: 0.00123181209560963
	635: -0.0023054381259069155
	636: -0.0015032637987803998
	637: 0.0029177241952706824
	638: -0.008604111923387019
	639: -0.00851121143806283
	640: 0.0010410435471734218
	641: -1.231490656115801E-4
	642: 0.00302099238061724
	643: 8.84630777862303E-4
	644: 0.0017532425679679497
	645: -0.0073365641979318795
	646: 9.339461627874311E-4
	647: 0.0035965180647321605
	648: 0.001930828315738064
	649: 0.004231174820317175
	650: -9.638523321137848E-4
	651: 0.0059756124899532906
	652: 0.006234498793605979
	653: 0.0030238345458779236
	654: 0.002780649043375666
	655: -0.005112837754051813
	656: 0.0017686273231205542
	657: 0.004042581017720684
	658: -0.0012137679728743771
	659: 2.4130599743973888E-4
	660: 0.0029257732028992725
	661: 0.0011862217686577005
	662: 0.008423358967449486
	663: -6.503437842883784E-4
	664: 0.008459151481895372
	665: -7.180493160246222E-4
	666: 2.054792955084509E-4
	667: 0.0030307539119036344
	668: -0.0029892198427906957
	669: -1.59857503687485E-4
	670: -6.98249632255294E-4
	671: -0.0023873913456256934
	672: 0.0012504246476681758
	673: 0.005338960824514995
	674: 0.004064456005953601
	675: 0.007731856987710489
	676: -0.0030609393585777707
	677: 3.8605577101279826E-4
	678: -0.0022667608420322677
	679: -0.0036042984454220735
	680: 0.0022127116370349326
	681: 0.005307672031206162
	682: 5.894163619501215E-4
	683: -0.0018229104420230751
	684: 0.0029688208874552734
	685: 0.0042496668862719135
	686: 0.0030844483088101927
	687: 0.0013474733443202636
	688: 0.0027390788776825562
	689: -0.0024172246873934984
	690: -0.00149742342498919
	691: 0.005131323314243915
	692: 0.00337715436671765
	693: 0.001636097172697711
	694: -0.0025603915612966814
	695: -0.006541197503917617
	696: -0.0030506140801604426
	697: 0.0018304180808726737
	698: -9.33288797961119E-4
	699: -4.355142411302712E-4
	700: -2.1013735060139974E-4
	701: -9.835903259350733E-5
	702: 0.001634351460551701
	703: -8.322071791000872E-5
	704: 0.001270618085734637
	705: 0.005040514685949757
	706: -8.859614215448915E-4
	707: -7.320125959555239E-5
	708: 0.005986466592429939
	709: 0.003095500445445969
	710: 0.004720284319466953
	711: -0.003439751771716336
	712: 0.001454570905220752
	713: 0.009207865332207688
	714: 0.003915327821934502
	715: 0.004610387798942572
	716: -6.18949929982045E-4
	717: 0.001064830643027545
	718: -0.002676313755881587
	719: 0.002420746865751833
	720: 0.006169638762180935
	721: -0.0019507980208974868
	722: 0.005020925957369099
	723: 1.9253209733899828E-4
	724: -0.0019969027752470155
	725: 0.0016821209722446035
	726: 0.0038205018633908866
	727: 0.0022060355618573595
	728: 0.005663866258893486
	729: 0.005007849909195
	730: 0.002104616758714461
	731: -0.002455165107581059
	732: 0.0036865313337548044
	733: -0.005756807509752173
	734: 0.004707688371185806
	735: -0.003319020870476579
	736: 0.0033683900250546643
	737: -0.0036320330831391885
	738: -0.0012668890282585548
	739: -0.002884821315531166
	740: -8.490644784992566E-4
	741: 4.1785401925980333E-4
	742: 0.005900365586520616
	743: -1.2372907426103235E-4
	744: 0.0020845423496053225
	745: 0.005126056663879806
	746: -0.0039013226503024525
	747: -9.706771796442025E-5
	748: -0.0011216123185472356
	749: 0.00295152977703303
	750: -0.0024855292202200056
	751: 5.026179909013872E-4
	752: -3.786996102478254E-4
	753: 0.0029611249759256323
	754: 0.004299703998506289
	755: 5.946473496292096E-5
	756: 0.0017408488631598413
	757: 0.0018136926301028677
	758: -0.003936256343494587
	759: -0.0010310218444248103
	760: -2.690352773930723E-4
	761: 0.00466794213671569
	762: -0.004503180816424419
	763: -0.0010752012401180568
	764: -0.0026584633323052643
	765: 0.0020452286197501176
	766: 0.006551702345130381
	767: 0.00473431956624286
	768: 9.480015348512806E-4
	769: 0.004132662332677454
	770: -8.352579549235811E-4
	771: 0.00684516580901312
	772: -6.0212087965398744E-5
	773: 0.002372953639795441
	774: -0.0033983041242227354
	775: -0.005591166728993546
	776: -0.0015636899067707247
	777: 0.004528626257595224
	778: 9.27184954466972E-4
	779: 6.271837098888311E-4
	780: -0.003927270362090474
	781: 0.005291392432658436
	782: 0.00790011890830721
	783: -4.1157708062929083E-4
	784: 4.947955080037768E-4
	785: 0.0016758236636843027
	786: -0.002991484537335098
	787: 0.00121787964747066
	788: -0.006265231094795226
	789: -0.0014397793212042875
	790: -0.0030317901177036935
	791: -0.0038376644130932655
	792: 3.315116950430493E-4
	793: 0.003217305056681324
	794: -0.0034948944655992862
	795: -4.826713760077119E-5
	796: -0.003369667766383983
	797: 0.002495798913239478
	798: 0.008035697451842062
	799: 8.628971757648222E-4
	800: -0.0017418048533186141
	801: 3.9140548600685916E-4
	802: -0.0023303418586388173
	803: 0.002193304205411553
	804: 0.009460047029325208
	805: 0.0011662760383860421
	806: 5.478934882331563E-4
	807: 0.009188727660400558
	808: -0.002674743222699902
	809: -0.0014280164306504858
	810: 0.0066581268958288715
	811: 0.005379413313437429
	812: 0.0021739734839084277
	813: 0.003936312246886043
	814: 2.750912772593477E-4
	815: -0.002487007971843498
	816: -0.0036665777602587174
	817: 0.0027735221815210613
	818: 0.006609679856028918
	819: -0.0031763692272872373
	820: 8.050761315085744E-4
	821: -0.0015713546163828405
	822: 0.0033297920390060304
	823: -8.999211568319061E-4
	824: -0.00637484640647705
	825: 0.0016042019140476043
	826: -1.277472982739439E-4
	827: 0.002859096985770136
	828: 0.0013725254878166578
	829: 0.0012200209603749723
	830: 0.004597336277859486
	831: 9.671465759130416E-4
	832: -0.0020163027600314386
	833: 0.005142613681894841
	834: 0.011515465044553261
	835: 7.201552757647459E-4
	836: -0.004122766888440521
	837: -0.004918734373040929
	838: -9.437772214897901E-4
	839: -0.0023683203826055797
	840: 8.9023234594633E-5
	841: -0.00276868884830677
	842: 0.0013597131532439933
	843: -0.0038726810525315015
	844: 0.005900919933545742
	845: 1.642005396150223E-4
	846: 0.006385821346124881
	847: 0.002065192630826829
	848: 0.0033317443698573325
	849: -9.723493645109342E-4
	850: -0.004578704313990629
	851: 0.008131239684918044
	852: 0.001021072342229946
	853: -0.0033527107759103877
	854: 0.0021581806815798407
	855: -6.32036175783411E-5
	856: 0.0013529022516577693
	857: -0.0032514409680079715
	858: -0.004583884419789829
	859: 6.263756386284489E-5
	860: -1.8258313620419267E-4
	861: -3.594794153629969E-5
	862: 0.001358723660423556
	863: -0.0013165638396767947
	864: 0.0015016132981156922
	865: -0.0018205962951536334
	866: -8.376008860677204E-4
	867: 0.0068229793294514755
	868: -3.3015670318223283E-4
	869: 7.86433406038977E-4
	870: -9.991517072648975E-4
	871: 0.002091936831989684
	872: -2.7699488973813877E-4
	873: -7.726613590375416E-4
	874: 7.614098588880132E-4
	875: -0.0024231158078268384
	876: -0.00332312903305737
	877: 0.0022199804730598776
	878: 7.442861561914817E-4
	879: -0.006982655624590026
	880: -0.0017661439586319873
	881: 0.004585933399795156
	882: 9.197545838967936E-4
	883: 0.004236346583232611
	884: -0.002692984098476791
	885: -0.0010800039740561439
	886: 0.0026113089837678308
	887: 0.005191435228884077
	888: 0.0014324326022642567
	889: -0.005200477802413548
	890: -6.650690476831405E-4
	891: -0.0010142115855844684
	892: -0.0014167332447533275
	893: 0.0035346120891033687
	894: 0.0036605457965354694
	895: 0.006744098170293616
	896: -1.5795104880459752E-4
	897: -6.659651217183229E-4
	898: 5.74903541194362E-4
	899: -7.998147213352328E-5
	900: 0.00306515587090783
	901: 0.0010556726755038507
	902: 4.90744702607746E-4
	903: -0.001497943291865041
	904: 0.0026917949551520204
	905: 4.01812109008683E-5
	906: 0.012896743652530657
	907: -0.0016220873888584582
	908: 0.005984783996640493
	909: 0.002874729155314768
	910: 8.569299340166118E-5
	911: -0.0030715675866459743
	912: 1.7860374916439642E-4
	913: 9.930141568428375E-4
	914: 7.475129120944663E-4
	915: -5.93490224476645E-4
	916: 0.002715321292198212
	917: 3.9673131791031574E-4
	918: -4.6911438714925816E-5
	919: 9.258312266871164E-4
	920: 0.003411154535827904
	921: 0.0016108652768793176
	922: -0.0010399066886076728
	923: 6.880428850547754E-4
	924: -0.0027658119465910082
	925: -8.518456571145654E-4
	926: 5.953838459290191E-4
	927: -3.416820413749832E-4
	928: -0.0010901765549145152
	929: -0.0029721500515063367
	930: -6.182090541398948E-4
	931: -0.0016523939505698419
	932: -0.006415312457270215
	933: -0.003455409330897711
	934: -0.005823220103582623
	935: 0.0010288464157342774
	936: -8.315727064210954E-4
	937: 0.002637224875735646
	938: 4.6556325301562224E-4
	939: -0.0029964690375546355
	940: -0.0015804200207774038
	941: -7.427929905386895E-5
	942: -0.0037544196470927216
	943: 1.3637889564136382E-4
	944: 0.0029265890297581736
	945: -0.001693713296419451
	946: -1.6616162460714412E-4
	947: -0.0021176321421417193
	948: -2.5935011623466576E-4
	949: -0.002284914027104391
	950: -8.830684335208086E-4
	951: 0.0031726163787316073
	952: -5.948178403462956E-4
	953: -0.0019495726905769642
	954: -0.0023298669397187437
	955: -1.9888383675310952E-4
	956: 0.0016052875158482276
	957: -0.00446350639148044
	958: -0.006318645258817527
	959: -0.001932270747352809
	960: -0.003261330033487747
	961: -8.236901804674331E-4
	962: 5.789788306976739E-4
	963: -4.620220518937999E-4
	964: -5.555148633619671E-5
	965: 4.487417960261849E-4
	966: -0.003771753868876685
	967: -1.931803275595342E-5
	968: 0.002056266819998953
	969: -0.0031111323428897777
	970: 0.0011829948907486065
	971: -0.0036316091273320573
	972: -0.0012892987497941648
	973: -0.0020916949206291075
	974: 0.0024991911053393197
	975: -0.0035274273559580236
	976: 0.0010134657373496983
	977: -0.005593536414040318
	978: -0.0075024304780084315
	979: -0.0016381498299157383
	980: 0.0018611636969963733
	981: 0.0035788265131655585
	982: 3.1620111053533436E-4
	983: 0.0014460732026102675
	984: -0.0012027808680628318
	985: 0.0034688705088212817
	986: -2.114157415895489E-4
	987: -0.0011860860609252534
	988: -3.6107450954760324E-4
	989: -0.0017284596991639512
	990: -0.002055373531650867
	991: -6.393921426909117E-4
	992: 6.088430834465094E-5
	993: 0.0010039376642157153
	994: 8.3201794786833E-5
	995: -3.8762993724248365E-6
	996: -0.0024243697263634277
	997: -0.0037005444905641826
	998: 0.0011731093829032621
	999: 0.0036732048837681964
Miley CyrusBIAS:
	0: 5.340302629229616E-4
Scarlett JohanssonBIAS:
	0: -5.538203473313919E-5
BIAS:
	0: 1.0
Daniel CraigBIAS:
	0: 5.569818773288084E-4
Miley Cyrusembedding:
	0: -0.003161370350146332
	1: -0.0013587844435167737
	2: -0.004761439559990936
	3: -0.008066037919139594
	4: -0.009314621110679596
	5: -0.008759378036725189
	6: -0.005299600527095645
	7: 0.0051115988842584375
	8: 0.005878912651543154
	9: 7.65534682615116E-4
	10: -0.0032584725304277747
	11: -0.0019430202404535672
	12: -0.003217914008491031
	13: -0.0019928059497890164
	14: -0.002848276190136682
	15: -0.004867722632196844
	16: -0.0021002325238657976
	17: -0.00816882536702301
	18: -0.0035501393871791354
	19: -0.00296881870927777
	20: -0.008465046191134097
	21: -0.004212110922529779
	22: -0.005579710812097904
	23: 0.0032909339393176317
	24: -0.0021841005264483506
	25: 0.0038860827749645182
	26: 0.0028403234132177105
	27: -0.0019835508956425876
	28: 0.003460587502310615
	29: 0.004795494734017479
	30: 0.0032139403661561833
	31: 0.0012385373332192916
	32: 0.004107095945144438
	33: -0.003593319105146824
	34: -5.667840686099888E-4
	35: 0.0020378631530023703
	36: 6.182080580030749E-4
	37: 0.0029036880217130907
	38: 9.961898442756676E-4
	39: -7.462941395465591E-4
	40: -2.724120920521236E-4
	41: 0.003842739739248829
	42: -5.80676291992388E-4
	43: 0.008030768138944887
	44: 0.0040840419646582795
	45: 4.4566931756428356E-4
	46: 0.0019394521279946359
	47: 0.004017079034619584
	48: -1.6285668184895015E-4
	49: 0.002518362861030672
	50: -5.847076005351755E-4
	51: 0.004161881844818165
	52: 0.005925370042288858
	53: 0.0032234932171348817
	54: 0.005992868697798738
	55: 0.0017604014812963357
	56: 0.008710143458132516
	57: 0.006606212516581409
	58: 0.004146320179421293
	59: 0.0012867767271655985
	60: 0.007959462674347396
	61: 0.006503318186749401
	62: 0.008049431859096937
	63: 0.004979893048052086
	64: 0.0050043499150543135
	65: 0.0031469005674327416
	66: 0.00101752844898416
	67: 0.004122237074157752
	68: 0.006952725605761048
	69: -0.006849158167561389
	70: -0.005249635912633517
	71: 0.007357742270655036
	72: 0.0013971001359476883
	73: 0.004055003477907049
	74: 0.0023954012128999283
	75: 0.00404857757543577
	76: 0.009264161346029118
	77: 0.007315284980098167
	78: 2.2919537827893247E-4
	79: 0.004965861837975904
	80: -0.0021232228894474087
	81: -0.012620999762365796
	82: -3.4395078980147713E-4
	83: 0.001141959945673844
	84: 0.0013385639540229052
	85: -0.001621582635940295
	86: -0.0011564783482796732
	87: -0.009159639289124343
	88: -0.0010610829612440489
	89: -0.00806091089604395
	90: -0.0021541463251087524
	91: 0.0024796771650387236
	92: -0.0023501498613657423
	93: -6.640575772506285E-4
	94: -0.003585480126405731
	95: -0.004223317548837829
	96: 0.004307232737747018
	97: -0.004141054647123435
	98: -0.003431563630042986
	99: -0.005814611389170914
	100: 0.0015823546107244786
	101: -0.004766433901536079
	102: -4.698200943457921E-4
	103: -0.002068959914661722
	104: 1.5382666139142283E-4
	105: -0.006372503989556605
	106: -0.0052991974705389015
	107: -0.0036691161714890205
	108: 0.0039047338046299188
	109: 0.0010708181369353425
	110: -3.55607081114066E-4
	111: 0.007318875529623982
	112: -0.007098681439889849
	113: -0.004601340595626522
	114: 0.001489689731073686
	115: 2.041073898963165E-4
	116: -0.0011701976749040894
	117: -0.0024518364829179263
	118: -0.0021960977673924323
	119: -0.004063525434751193
	120: -0.0036323624782904768
	121: 0.0030705369605314096
	122: 0.003275019546702979
	123: 0.0016647055759466461
	124: -0.004716164972541416
	125: 0.0017809914807511964
	126: -0.004627309160214425
	127: -0.00911264848115201
	128: -3.8263443630857344E-4
	129: -0.006075830850003901
	130: -0.0027916977448808923
	131: -0.0028007813659018405
	132: -0.01095991524875102
	133: -4.5924104235095693E-4
	134: -0.007731490327400259
	135: 0.0011195274986968383
	136: 0.0011148602451308634
	137: 1.5483826833096292E-4
	138: -0.007017824422791803
	139: -0.0031278016276370738
	140: -0.004932459238602308
	141: -0.007353989076880412
	142: 9.206991408536224E-4
	143: -7.76563243379125E-4
	144: -0.012325781898378527
	145: -0.0026079954171129203
	146: -0.00575114965922149
	147: -4.0212782239484684E-4
	148: -0.004283974422538352
	149: -0.009818083046536906
	150: -0.0011963751904105634
	151: 0.004082217536156943
	152: 0.005851389476074018
	153: -0.00419588181742907
	154: 9.068779697771093E-4
	155: 0.0013268921668646632
	156: 0.007224799762022024
	157: 0.008648135648378385
	158: 0.0021761438811922214
	159: -0.002979120970695497
	160: 0.0048861413988448175
	161: -5.134546053155472E-4
	162: -0.0028250029731962324
	163: 9.650518117697103E-4
	164: 0.0035408121691801408
	165: 0.0017462058475134924
	166: -0.00418521641186968
	167: -7.674468947385383E-4
	168: -6.480553791512833E-4
	169: -0.003324925102595924
	170: 0.0011654691929721844
	171: -0.002799940598114821
	172: -0.004200692182635902
	173: 1.181819798349416E-5
	174: -0.0014283566208799232
	175: 0.005060982243202707
	176: 0.006634657995971361
	177: 0.005875004977511368
	178: -0.007366746268038679
	179: -0.005467885741986808
	180: -0.0039316900713216325
	181: -0.008549231663193834
	182: 0.0013958146815861105
	183: 0.007221288961219875
	184: 0.0036174700072866893
	185: 0.0016237144489209202
	186: 0.008025894199017461
	187: 0.012010732946349445
	188: 2.4836940572701326E-4
	189: 1.266444285799046E-4
	190: -0.005306403716005371
	191: 0.009874370141036351
	192: 0.0019750839462858594
	193: 0.009436912716388286
	194: 6.505973219743864E-4
	195: -0.0017098473123229006
	196: 0.0033471449098914645
	197: 0.00529660550451067
	198: 0.006803165821681419
	199: 0.006395751186398771
	200: 0.0038042607257425553
	201: 0.009749308703727953
	202: -0.0033213758806810213
	203: 2.9467181736318715E-4
	204: -0.005228616636957982
	205: 0.002729150718776643
	206: -0.003384398980576578
	207: 6.238954146488448E-4
	208: -0.0063561382906352415
	209: -0.006323917426307916
	210: 0.0016810439876291424
	211: -0.004570951728284896
	212: 0.001667449494229509
	213: 0.011297661001945401
	214: 0.008968174427100004
	215: 0.0029360037740660417
	216: -0.002126457504084634
	217: 0.007618637453028441
	218: 0.004563160079127528
	219: 0.01036056431190538
	220: 0.010401096022472101
	221: 0.005496008890383124
	222: -0.0038220381540072968
	223: -0.002136961069832084
	224: 0.006051731595743922
	225: 3.499142178167339E-4
	226: 0.004487570329724504
	227: 0.00245769409532171
	228: 0.002148838363032926
	229: -0.0018001296441287132
	230: 0.00795058216860333
	231: 0.005616482414514899
	232: 0.0017856027274839761
	233: 0.004681928820164941
	234: 0.003553850640948596
	235: 0.00587879350246967
	236: -0.003176597699765861
	237: 7.406531935837072E-4
	238: 0.0040184587283786585
	239: 0.008251000503175742
	240: 0.006113364312524674
	241: 0.007579541127501067
	242: -0.0047466784074053185
	243: -0.004533237454136689
	244: 0.002163064017978594
	245: -0.007071377230081855
	246: -0.004096433614243077
	247: -8.065435053331485E-4
	248: -0.004910629567906083
	249: -6.501922031369198E-4
	250: -0.003406140104282335
	251: -0.008128359367168138
	252: 0.0097161603352482
	253: -0.002680253523794989
	254: -0.004541615712684544
	255: 0.003638630329846272
	256: 0.0019529844271379381
	257: -0.007226832024063849
	258: -0.004405990598102396
	259: -1.0969807885869872E-4
	260: -0.0011126487722905038
	261: -4.2215226404841396E-4
	262: 9.602463939527333E-4
	263: -0.0012292592496689065
	264: 4.260307820150657E-4
	265: 0.002833626702595651
	266: 0.0038662496035221177
	267: -4.917196822020984E-4
	268: 1.702834835686983E-4
	269: -8.283928875675889E-4
	270: -0.006638926925503414
	271: 0.002930068470435686
	272: -8.351023870479463E-4
	273: -5.201792681764915E-4
	274: 8.477463974506868E-4
	275: 0.004352670030152392
	276: -0.0026132266182348355
	277: -2.812574902270381E-5
	278: -0.004330232440845757
	279: -0.009362170535335898
	280: -0.001101624873030969
	281: 0.001150251858470531
	282: -0.0010075266531866308
	283: -8.116718581026226E-4
	284: -0.00394952989411383
	285: -0.0028393961851716784
	286: -0.003068268896040924
	287: -0.002638008018363396
	288: 2.915140238645704E-4
	289: -6.014651144244089E-4
	290: -0.003083163748504275
	291: -5.333812191040432E-4
	292: 1.9960397287964682E-4
	293: 0.0032130671270361438
	294: -0.005611514745921017
	295: -0.0020387815905920036
	296: -0.012453874093453866
	297: 0.0015372142715354606
	298: 8.484865000711466E-4
	299: 9.836500932933088E-4
	300: 0.0024725241341622016
	301: -0.003141442355098206
	302: 0.004323153708881077
	303: 3.458597241033689E-4
	304: -0.004387176812466519
	305: -9.893852841367638E-4
	306: 0.0010292450121409098
	307: -0.0023808036046897635
	308: 0.003883623744110845
	309: 3.0078862234010265E-4
	310: -0.0021945760012981757
	311: -0.0031091671755669016
	312: -0.001635105465211047
	313: -0.0034991177726667283
	314: 0.002566465771429005
	315: -0.003450597422888142
	316: 0.0016027421451324216
	317: -0.0029327749956661988
	318: 0.001301040112194716
	319: 0.004665513817785682
	320: 0.0029611950228743116
	321: 0.0019298466393540827
	322: 0.0011540231392947735
	323: -8.220594259842863E-4
	324: -0.0054463205241392955
	325: 0.001322518454465273
	326: -0.003544298190267032
	327: 9.372621291926104E-4
	328: 0.0026679692672166968
	329: -4.5133226819025715E-4
	330: -8.960347343589573E-4
	331: 2.7601790177268033E-4
	332: -8.330578186960196E-4
	333: 6.799887078268777E-4
	334: -0.0013425408320566201
	335: 0.002443327445680909
	336: 5.5472586893316145E-5
	337: -0.00341277044338206
	338: 3.028484242116601E-4
	339: 0.004604680072121535
	340: -0.0017121284148717622
	341: -0.0035743458005033095
	342: -0.0028162931800530355
	343: -0.0055561525543182284
	344: -0.0030670578154955285
	345: 6.0507338897027095E-5
	346: -0.0020950953598607154
	347: -0.002999373759603476
	348: -0.004066081805900213
	349: 7.37184635989103E-4
	350: -4.844258133494964E-4
	351: 5.614869603576136E-5
	352: 0.0037316888776284364
	353: -2.2525659018697623E-4
	354: 0.002379302332543196
	355: 0.004206613893380234
	356: -0.0020610828799524483
	357: -0.001580349598801551
	358: -0.0029083508244952
	359: 0.004487927809530036
	360: -0.0029065132764495402
	361: 1.417589473192125E-4
	362: -0.004668379890539772
	363: 0.001287693647061013
	364: 0.004235380008355409
	365: 0.006292770387201123
	366: -0.0027123624652132306
	367: 0.01140302091303845
	368: 0.006939585698471639
	369: 0.011250347467984843
	370: 0.001992301050808273
	371: 8.341894319644059E-4
	372: 1.4427159726690302E-4
	373: -2.754037648051282E-4
	374: 0.003088339474763681
	375: 0.0032445654050093906
	376: 0.004914381184938925
	377: 0.005717694103840596
	378: 0.0043501356765853014
	379: 0.002178830055942705
	380: 0.003824839956686501
	381: 0.0035773958201978312
	382: 6.518564505829463E-4
	383: 0.0017529292105058032
	384: 0.0029072334823942547
	385: -1.9145797702571255E-4
	386: -0.005616679932185533
	387: -0.003885040878252051
	388: -0.0031023593653407423
	389: -0.006928892032316798
	390: 6.546548018917967E-4
	391: -0.011729416187854742
	392: 1.902130912469634E-4
	393: 0.002415311997578716
	394: -0.008001815916483539
	395: -0.004915069894715495
	396: -0.001999348953418642
	397: -0.008871687900646914
	398: 0.004185352019382756
	399: 0.0011298469306325895
	400: -0.01031745996194148
	401: -0.0023616677937220803
	402: 5.37283834690807E-4
	403: -0.006446129692129432
	404: -0.004537629477650522
	405: -0.006051921012329403
	406: 0.012307695608482367
	407: 0.0030182901602188467
	408: -0.0020637793021547387
	409: 0.0011868475115171977
	410: -0.011625972821038394
	411: 0.004410903982421414
	412: -0.007006896044717097
	413: 0.002120096229558285
	414: 0.0017629319408829847
	415: 0.0019303985642568802
	416: 5.911917527774047E-4
	417: 5.240612065117324E-4
	418: 0.0016443239169154356
	419: 0.003148901885344043
	420: 0.0010947286922764175
	421: -0.0029591630531870593
	422: 0.005612895899552308
	423: -0.015573043904817424
	424: -0.008968836103529398
	425: -0.008786353312022323
	426: 0.0014692296161240989
	427: -0.001134555762102602
	428: -0.0029205381221731022
	429: 4.923303293300902E-4
	430: -0.003300624527828025
	431: -0.0010831141143488447
	432: 0.002782858010790453
	433: -0.0075878814149556535
	434: -0.003636996965378795
	435: 0.0073422757413252535
	436: -9.524070190404802E-4
	437: -0.005283856161207492
	438: -0.006382247541841214
	439: -0.005645521255234872
	440: 0.0016527418341202428
	441: -0.008569427441726302
	442: 0.0011977637911725245
	443: -0.0038324272254768063
	444: 0.008211341538885886
	445: 0.015779368421400906
	446: 2.171168629651481E-4
	447: 0.006513056557738052
	448: 0.0015858792943273968
	449: -0.004669980929389418
	450: 0.0022614591870626657
	451: -0.0031551921814954513
	452: 0.0023442920948181876
	453: -0.0022660619514309533
	454: 0.0033093783252517066
	455: 0.00421439350756508
	456: 0.0012191322102728139
	457: -0.014999795064631937
	458: -7.882582201637314E-4
	459: 0.013610727008882146
	460: -0.0029336031529745626
	461: 5.404353733972657E-4
	462: 0.006089887118616402
	463: -0.002547652238972812
	464: 0.0033551852961235013
	465: -0.006057752680508925
	466: -0.003892023644128225
	467: 0.006746660882310102
	468: -0.002178225295557328
	469: 0.001475996030824113
	470: 0.0095684770815819
	471: -0.0025813472888503467
	472: -0.0038407317437950876
	473: -0.005488378665631368
	474: -2.1400670070879574E-4
	475: 6.306381484550782E-4
	476: 0.009801332219839967
	477: -4.724924557546891E-4
	478: -6.292885329943605E-4
	479: 5.026584973755584E-4
	480: -0.0013309710260034342
	481: 0.0036830643878048037
	482: -4.076961681429871E-4
	483: -9.90007301118597E-4
	484: -4.366959014137939E-4
	485: 0.0028494433994391776
	486: -0.004927616195999227
	487: 0.008349204459518639
	488: 0.006990854525927962
	489: 0.006083963532317329
	490: 0.0018884508221771673
	491: -0.0013351415945211994
	492: -0.0010599172168219094
	493: -0.005906067901660297
	494: 0.004253909697185012
	495: 0.0014948170218449426
	496: 6.235167798779773E-4
	497: -6.060320485999036E-4
	498: -0.004538158852968588
	499: -0.0034833132266781403
	500: 0.0011506688186856105
	501: -0.005245043880842033
	502: 0.012794865054862443
	503: -0.0035649713516035706
	504: 0.002097167532565373
	505: -5.770837612755496E-4
	506: 0.0014885106678923497
	507: 0.0028607884683498988
	508: -0.0033142984456591192
	509: 0.00841645700677395
	510: -0.004101494636735412
	511: -3.7057418329394624E-4
	512: 0.00230150464233038
	513: 0.001554459032362389
	514: 0.0027905890217059153
	515: -0.0011883641312266705
	516: 4.7882046570277124E-4
	517: -8.216562112949876E-4
	518: -0.004978821733415713
	519: -0.0019550911936802246
	520: -3.912275582811286E-5
	521: -0.0052143329092667594
	522: -0.003066922939676047
	523: 1.8333279569603432E-4
	524: -0.005543888376219936
	525: -0.004908788372144933
	526: -0.0028232386506706255
	527: -0.004157327723786704
	528: 0.0024073579511277587
	529: 0.0013856366398108022
	530: 0.0014489055944547908
	531: -3.939613303707436E-4
	532: 0.0013944305196177849
	533: 0.0014953784289885356
	534: 2.5155350990102994E-4
	535: 4.5425156408643227E-4
	536: -0.005440876175466875
	537: 1.1909038864954511E-4
	538: -0.00822462291243105
	539: -9.710433412033181E-4
	540: -0.0015533194020972516
	541: 2.814824243973389E-4
	542: 0.004668690824136045
	543: 0.005111970315180334
	544: -0.0020419739383835483
	545: -0.001128422876937841
	546: 0.0022739147851222738
	547: -0.007997665165515484
	548: -0.0014032021619345462
	549: -0.005846601531275609
	550: -0.0052654163631338955
	551: 0.010625321719996812
	552: 0.011245977085996698
	553: -0.010353405777074621
	554: -0.005884544027360038
	555: 0.004711519258115537
	556: 0.004393580609284874
	557: -0.005056838590158965
	558: 0.0025692913032446503
	559: -0.002048139749287159
	560: -0.005093553836768917
	561: -0.005430849930252752
	562: 0.006593484802130657
	563: -0.0014771534333514334
	564: 0.004609024837603492
	565: 6.935740245861608E-4
	566: 0.004741628742382075
	567: -0.005324618544889255
	568: 0.002495356838594075
	569: -0.00191791667812527
	570: -0.0055334128315420415
	571: 0.0012822501556547137
	572: 0.002541304347437406
	573: 0.0056264188017041104
	574: -0.008222260924025927
	575: -0.00108024452936095
	576: -5.387943266836355E-5
	577: 0.006695854360434539
	578: 0.008134456987651183
	579: -0.0025415968364920537
	580: -6.934442531245144E-4
	581: -0.007691500569006019
	582: 0.008039525974463283
	583: 0.002330569651893538
	584: 0.0063897510758900815
	585: 0.014948422921166066
	586: -0.0032076858769375972
	587: -0.001952878405970471
	588: 4.89107591918815E-4
	589: 0.011455174691334731
	590: -0.0023420012459334397
	591: -0.0013215071080336334
	592: 2.4269387439405943E-4
	593: 0.005409723587084491
	594: 0.010175521753018791
	595: 4.137668709948706E-4
	596: 0.005497583178685504
	597: -0.004476295708082827
	598: -0.004138498421992701
	599: -3.563353548578328E-4
	600: 0.0021261223292450334
	601: 0.00579493344931821
	602: 9.494530754814609E-4
	603: 4.526320131433769E-4
	604: 0.004715924270901314
	605: 0.004714627982270125
	606: -0.003095107212537439
	607: -0.003719370613091486
	608: 2.989033488474632E-4
	609: 0.0020196727453072987
	610: 0.0013834387554242948
	611: 0.0055844271923463
	612: 5.532700330409458E-4
	613: 0.0023322290636926786
	614: -2.2778380804123436E-4
	615: 0.0015355312017359746
	616: 0.00546021388855357
	617: -0.011674554425947597
	618: -0.0023467837631167697
	619: -0.0020486342448826425
	620: 0.0021373310910168686
	621: -0.003141137784467157
	622: 0.002995318122213014
	623: -9.19703072468905E-4
	624: 0.00416074892525736
	625: -0.002361802283916287
	626: 9.920602728300356E-4
	627: 0.008063275606758024
	628: -0.005941823707963172
	629: 0.01148917591550529
	630: 0.006812657911931171
	631: 0.007068301946448628
	632: -4.4175403902250613E-4
	633: 0.005157491570443115
	634: -0.0010088432896304686
	635: -0.0012444238615128933
	636: 0.004939402855834786
	637: -0.005005291944188087
	638: 0.010162750790206287
	639: 0.011509681644251491
	640: -0.006961577411653382
	641: 0.008655419441703479
	642: 0.004214324353160401
	643: 0.002389609224319421
	644: -0.0010855419138684256
	645: 0.004073837452426679
	646: 0.0015679870510102636
	647: -0.0026325519830134488
	648: -7.950286132498556E-5
	649: -0.005645111242142831
	650: 0.004931602416640302
	651: -0.001357317299107584
	652: -0.011007376794852055
	653: -4.8614670858820164E-4
	654: 0.002760193501879512
	655: 0.006173899149313181
	656: -0.0011272559733410072
	657: -0.004826530001403147
	658: -0.002776558477985507
	659: -0.0017811846858107497
	660: -0.0011534933115793283
	661: -5.558415650539248E-4
	662: 3.167875289262403E-5
	663: 0.002108902253305509
	664: -0.0012113322086214837
	665: 0.0034639885552801026
	666: -0.0025029600561584956
	667: -0.009770063037782419
	668: -0.0017436244448835968
	669: -3.731556901982814E-4
	670: 0.0021342585158997574
	671: 0.009024614316039866
	672: -5.921524141124815E-4
	673: -0.003631570359531947
	674: -0.004651875824222244
	675: -6.225530236536679E-4
	676: 0.0016032202528066034
	677: 2.723518196778264E-4
	678: -0.0024272373173718736
	679: 0.0038175383708239814
	680: -5.177315287580216E-4
	681: -0.005548170012408976
	682: 0.00117780454405596
	683: 0.003349234195418634
	684: 0.009737879730440522
	685: 0.0020795546033277857
	686: -0.0012902961640094595
	687: 3.1337025424154106E-4
	688: 0.005154567701415539
	689: 0.0042117006769783125
	690: -0.001529755902879343
	691: 0.00531925926490885
	692: 0.001211878365132406
	693: -0.0017229938376751785
	694: -0.0034007738422644116
	695: 0.00691460665552983
	696: 0.0024475944154378963
	697: 0.007568152998474579
	698: 0.0024111250798522685
	699: 0.008143401307915656
	700: -0.004533261064833609
	701: -0.005545811186880443
	702: -0.002992861886791547
	703: 0.0027512007335299513
	704: 3.4086401795783576E-4
	705: -6.801955605428639E-4
	706: 0.0011442157818264374
	707: -6.291743040260863E-4
	708: -0.006473029062736138
	709: 6.324752881059148E-5
	710: -0.0014838677172403125
	711: 0.007377064214002405
	712: 6.89160586812909E-4
	713: -0.0061679216181605104
	714: 0.0018620705121599767
	715: -0.013706337235792385
	716: -0.0022954416821350013
	717: -0.0014493828135486275
	718: -7.759279664962117E-4
	719: 0.0022353212842567915
	720: 0.003968498305389291
	721: 0.004873198371701984
	722: 3.6465410108258686E-4
	723: 0.0024580054511664008
	724: -0.0025241174854247627
	725: -0.0011290791227631096
	726: -0.005681780213834002
	727: -6.73945556306956E-4
	728: -0.0026479159624311337
	729: -0.003458917590107187
	730: 0.001533551557500886
	731: 0.006454169329084561
	732: 1.909059497228327E-5
	733: 0.0012390146065901994
	734: 0.0019470459446325626
	735: -0.0023945498276576565
	736: 0.005349180519019342
	737: 0.0012274746921203078
	738: -0.0010637621706807172
	739: 0.007958496340099815
	740: 0.0029208242081507053
	741: 0.0014296255897543314
	742: -0.005707426310949398
	743: -0.0020572466509106977
	744: 0.0030742909412227277
	745: 0.0056778088272925594
	746: -0.0010007484199852043
	747: 0.0018576267765767712
	748: 0.004673793408764244
	749: 0.0022286944984977602
	750: -9.016394010749179E-4
	751: -1.4804854386682515E-4
	752: 0.0011663845593134956
	753: -0.006176725911440173
	754: 0.0027206658074507522
	755: -0.01001018101611311
	756: -0.004474522548624033
	757: 5.734301869788886E-4
	758: -0.005546212526041913
	759: 0.00448428642833887
	760: -8.284151217736618E-4
	761: 0.0016358056683444054
	762: 0.005439165590398735
	763: -0.0017930724323971864
	764: -0.002155118818702698
	765: -0.00175237182286378
	766: -0.004755093612149351
	767: 0.0023152901091707807
	768: -0.004235316946442798
	769: 0.0010971998152047966
	770: -0.0016334986614768966
	771: -0.002790516868030756
	772: 0.007033899858765409
	773: 0.00367792575843525
	774: 0.01262080384697951
	775: 0.007872699342045528
	776: 0.0014122655564196686
	777: -0.0065610534874864235
	778: 0.0028662424954699686
	779: 0.0028328521628759626
	780: -0.00684123217652168
	781: -0.002808028339874408
	782: -0.0014147990964084374
	783: 0.004157163526020423
	784: -0.0024059817946824997
	785: 0.002250859936277785
	786: 0.006389438105849481
	787: -0.011417837542612995
	788: 0.007440746152739441
	789: -9.725527998223259E-4
	790: 0.0050321923247233155
	791: -7.541160639631324E-5
	792: -0.006383475504963164
	793: -0.005073413221340609
	794: 0.00673066088686638
	795: 0.001841348116067192
	796: -0.0013504320157809969
	797: 0.0042530122087060755
	798: -0.008543891399376283
	799: -0.0014123123065516265
	800: 0.005318072857446678
	801: 0.0033303633136418788
	802: -0.0017427046651393144
	803: -0.006952287013077486
	804: -0.005243487386505695
	805: -0.0033658580959353623
	806: 0.0023000217913102176
	807: -0.006901543157748913
	808: 0.0029109016433281104
	809: 0.0014582348267538898
	810: -0.0038715012016128938
	811: -0.007706727670894144
	812: 0.0013755031002438518
	813: -0.002287449910325308
	814: -0.007341901928575748
	815: 0.005074056435190535
	816: 0.005417630839082867
	817: -0.00450967086797722
	818: 2.8065776258402465E-4
	819: 0.0058987354212783885
	820: -0.005596982805220122
	821: 0.002329218826256942
	822: -0.003380702557984652
	823: 0.0012840250242771444
	824: 0.0021274640320905047
	825: -0.0031352836405506416
	826: 0.0010179247461949488
	827: -0.0053294930572742386
	828: -0.010237292867750632
	829: -5.544158635165625E-4
	830: -0.001309227497918318
	831: 0.003333293587745079
	832: -0.004355727745290305
	833: -0.004980500302396667
	834: -0.018955485455652316
	835: -4.0137558784675075E-4
	836: 0.011335568606241228
	837: 0.012869519130950056
	838: 3.9487538775147474E-4
	839: -6.789683509967853E-4
	840: 0.0014940991212769688
	841: -0.0051490348801753625
	842: -0.002303832243296911
	843: 0.007581268447653802
	844: -0.006072486716201676
	845: 8.754126201703728E-4
	846: 0.001564063730595968
	847: 0.0020732639478443188
	848: -8.096162618599899E-4
	849: 0.00516396895572876
	850: 4.099725664303937E-4
	851: -6.472002807826075E-4
	852: -5.305974356573736E-4
	853: 0.002658439438658841
	854: 0.0010528746244001664
	855: 0.002532851549843399
	856: 7.859175276180559E-4
	857: 0.0044291638635471356
	858: -0.0023775114955550845
	859: -0.004219475495204701
	860: 1.8353738873725696E-4
	861: -0.002899748591288492
	862: 0.0016379083534856541
	863: -0.001061813081778141
	864: -0.0011197441754771087
	865: 0.008375421344757704
	866: 0.0010114274743860839
	867: -0.007714044034020583
	868: 0.006082388769928548
	869: -0.00639041370221984
	870: 0.005592787669136526
	871: -0.005229270531887095
	872: 0.0028907240126004492
	873: -0.0018280485418311692
	874: -0.004494632680440567
	875: 0.0015230623146310833
	876: 0.008673604826599504
	877: -0.0033103205732573997
	878: 1.5396386527650078E-4
	879: 8.566588037849678E-4
	880: 0.008181320038540274
	881: -0.004901929684931677
	882: 0.0035977909769488755
	883: -2.1891475554474793E-4
	884: 0.0030428820841178583
	885: -3.9622937523354856E-4
	886: 0.0033830770892680096
	887: -0.011853346242222824
	888: -0.003064393110395228
	889: -0.0020719207273532285
	890: -0.0010502004077175666
	891: -6.912499452877886E-4
	892: 0.003672569071521604
	893: 0.0019472297300340447
	894: 0.0041944821164372785
	895: -0.009338481865042771
	896: -0.0042030947634866915
	897: 0.0012604927406968038
	898: -0.0014242978411476382
	899: 0.001281758895400649
	900: -0.009553312616257397
	901: -1.4056918034133467E-4
	902: 0.0010323876923634514
	903: 0.008534936122282835
	904: 0.002283926970651003
	905: -8.130304008609147E-4
	906: -0.014227990053653551
	907: -3.7969350676665816E-4
	908: -0.009307344400939464
	909: 2.5778357916186737E-4
	910: -0.00265528908567092
	911: -4.737028290494978E-4
	912: -0.0026748462767290804
	913: 4.5286234966951063E-4
	914: -0.006431560840113976
	915: -0.003156053439836766
	916: 0.003051181398203324
	917: 0.007217406355662831
	918: -0.004466756009131695
	919: -6.806108846027083E-4
	920: -2.862247525011571E-4
	921: 0.00354383337747784
	922: 0.01079270938805565
	923: 0.0012364513573635608
	924: 0.0011271867978802498
	925: -0.0026005478410040823
	926: 0.0027469833032535526
	927: -0.0036448130437922183
	928: -0.004229210268142803
	929: 0.0016268544403141192
	930: -0.004251958762404908
	931: -0.008167244877424788
	932: 0.004152681663377597
	933: -0.006012560553420785
	934: -0.003174840614397931
	935: -0.008446413502490724
	936: -0.001773738900243537
	937: -0.0028111774513007288
	938: -0.0017476479833521486
	939: -0.0022205472405556884
	940: 0.002198941712737196
	941: -0.0059952875329649475
	942: 0.006579387423419808
	943: -0.0012328350997132574
	944: -0.005055691950219554
	945: 0.002305141728276054
	946: 0.0037782056791481446
	947: 0.0025863821415618485
	948: 0.0053917266934243825
	949: -0.0023140653233224753
	950: -0.0029995338405075264
	951: -0.008202056150850076
	952: 0.002560839721583467
	953: -0.0022161485390290825
	954: -0.0042702871134823505
	955: 6.530667704704679E-4
	956: -0.0037675634445796333
	957: 9.74806767047134E-4
	958: 0.005369130493840212
	959: -0.0012634724880334536
	960: 0.001897262682805151
	961: -0.003506689913741192
	962: -0.004478308662008385
	963: -0.0029990367300352506
	964: -0.008905728304099964
	965: -0.002500714637651996
	966: 8.818533219961312E-4
	967: -0.003311944544556719
	968: -0.0031158619213934504
	969: 7.938139473294407E-4
	970: -0.0014339410473126859
	971: 0.005602249420098123
	972: 9.155744343027073E-4
	973: 0.003835117560322772
	974: -0.0034561635323071267
	975: -3.3195504476465833E-4
	976: -0.003933224694187301
	977: 0.005354576164665774
	978: 0.0028652740683657416
	979: 2.805440575602466E-4
	980: -1.6949078560963128E-4
	981: -0.010470118481151236
	982: -1.5786168038526738E-4
	983: 0.0012190901303494018
	984: -0.001654050382595408
	985: -0.007552049798102039
	986: 0.0014483462078428641
	987: 0.004222078575992438
	988: 0.005674590405927211
	989: -9.209614191289241E-4
	990: 0.0035857348417962865
	991: 0.002838971591972367
	992: 2.794209704206771E-4
	993: 0.002357547015391567
	994: 0.005643850152381495
	995: 0.0015961090291461578
	996: 0.0028174278144241388
	997: -4.246838586761727E-4
	998: 0.00507060778515514
	999: -0.0027586883542121683
Scarlett Johanssonembedding:
	0: -0.0024391341233856727
	1: 8.690247759391532E-4
	2: 8.717170646396808E-4
	3: 0.00435605186384628
	4: 1.8785461406060547E-4
	5: 0.002108018740539436
	6: -7.834345255040353E-5
	7: 7.332438434836881E-4
	8: -0.002774045181766295
	9: -0.003384803589475481
	10: -6.162625739762348E-4
	11: 0.005103132330701652
	12: -6.377696958422825E-4
	13: 0.0011578577172813222
	14: -4.3913738266183834E-5
	15: 7.07536527643264E-4
	16: 0.0030350723283065215
	17: 0.0053256168311022764
	18: 1.3693870643965078E-4
	19: 0.007581665998823967
	20: -5.322184167934968E-4
	21: 0.002435910363221772
	22: 0.0038299299266968856
	23: 0.0014725179390278514
	24: 0.004102554089470879
	25: -0.003875799656476086
	26: -0.005900164474684783
	27: -0.005256451311379477
	28: -0.002394508401928342
	29: -0.003046804601628964
	30: -0.003945005356702826
	31: -0.004950700753115628
	32: -0.0031553839353191376
	33: 1.8822343385933786E-4
	34: -0.0013385142810260278
	35: -0.003894994397884357
	36: -9.215088873947765E-4
	37: -0.002325782332054778
	38: -9.544721535204305E-4
	39: -0.001082789932110021
	40: -0.0021295491529249025
	41: -0.002983257267014568
	42: -0.001745421068148434
	43: -7.872841513793898E-4
	44: -0.0034494869909818342
	45: -0.0019425883252148668
	46: -0.0037652713259679737
	47: -0.0025910722604949948
	48: -5.018981086853693E-5
	49: -0.003767637420224203
	50: -0.006053394903455779
	51: 0.006005799757498502
	52: -0.00668359113153016
	53: -0.0035468752519448197
	54: -0.005448791796243787
	55: -0.004575138161443817
	56: -0.005365386993971
	57: -0.002955089307137832
	58: -0.004974074706772406
	59: -0.0058261603271661895
	60: -0.005489577095697283
	61: -0.005022426074861286
	62: -0.0047211927949645195
	63: -0.0056178739631910215
	64: -0.008782939482095513
	65: -0.005586660254634488
	66: -0.0032630266568510814
	67: -0.0035818772415994672
	68: -0.005704867749795692
	69: -0.0017448634723540575
	70: -0.0027876280448681542
	71: -0.002205807510512164
	72: 3.9555144644125404E-4
	73: -0.0021965069278479027
	74: -0.0033831513812048386
	75: -0.003033815639536803
	76: -0.007883339994286144
	77: -0.0045667903119218775
	78: -0.0036863174236338595
	79: -0.005156356945506775
	80: 0.0011956374224225837
	81: 0.006542448027918816
	82: 2.8865270857357875E-4
	83: 0.0010211103507916798
	84: -0.0032064307540272314
	85: 0.0032737811812773967
	86: 0.0016757453932340688
	87: 0.004828570567409148
	88: 0.0034788901830251364
	89: 0.004905562807109727
	90: 0.0012078366345185502
	91: -0.0025652376468110858
	92: -0.0018361361053236905
	93: 0.0025797405836871933
	94: 0.006258093460987886
	95: -0.004184988108166891
	96: 7.6418473137847E-4
	97: 0.00380040775549698
	98: 7.138314463218498E-4
	99: 0.0021749344404368835
	100: 7.735161227948795E-4
	101: -2.2394461191921873E-4
	102: -0.002992812027766017
	103: -0.004006661175571494
	104: -6.841901582234092E-4
	105: 5.849435321007233E-4
	106: 5.541370290767276E-5
	107: -0.002667564266927988
	108: 0.002643890403529678
	109: -0.00498707024721343
	110: 3.03812128014672E-4
	111: -0.006988683010253869
	112: 0.004525894446341497
	113: -0.0014499442706142544
	114: -0.006707579160970825
	115: -5.436547888033699E-4
	116: -0.0026058432177225787
	117: 0.0030355166065715055
	118: 2.472140630270879E-4
	119: -0.0031457165948140893
	120: 1.7161728222783433E-4
	121: -8.947901278001482E-4
	122: 4.4769299392150605E-4
	123: 5.039801728674973E-4
	124: -6.412409737394879E-5
	125: -1.978728591686672E-4
	126: 0.005399373963387383
	127: 0.008969028170841387
	128: -7.821382968562301E-4
	129: 0.004674771418779147
	130: 0.0032574888871868468
	131: -0.0015485275901619372
	132: 0.0027643785926069605
	133: -3.9330159277259244E-4
	134: -3.9636685802558954E-4
	135: -8.365490125334994E-4
	136: -0.0033746297106576322
	137: -2.032219853277904E-4
	138: 0.0017400240391198085
	139: -7.050114323189372E-4
	140: 7.493769576208795E-4
	141: 0.0025513275298030035
	142: -0.0049873683917273735
	143: -2.5849499322569663E-4
	144: 0.010018466103910134
	145: -0.001256894500978377
	146: 0.0026930751875337646
	147: -0.002269993268812957
	148: -0.0013413019807894415
	149: 9.185605507616867E-4
	150: 6.342719331260693E-5
	151: -0.001879640942448672
	152: -2.546466311252346E-4
	153: 0.008239889443339048
	154: 0.007758297110385822
	155: 0.0029794486667259487
	156: -0.0016855976084437286
	157: -0.0025338739990170265
	158: -0.004889399483726431
	159: 0.001996359290005251
	160: 0.006545534442288301
	161: 0.003049877750771597
	162: -5.37225821894549E-4
	163: 0.0036171142129402777
	164: 0.001041474263193011
	165: 0.001394727872490193
	166: 4.15715229014445E-4
	167: -0.002661615245927185
	168: 0.0039389733707055445
	169: 0.007568452548508857
	170: 0.0012910562367175879
	171: 0.0029707999337764365
	172: 0.001571584854872942
	173: -0.002490613018866315
	174: 0.004240534294328364
	175: 7.141830641818204E-4
	176: 0.008787040020383887
	177: -0.0021975322760979933
	178: 0.007926795263634266
	179: 4.563940077919338E-4
	180: 0.0019021323867882182
	181: 0.003280666734383527
	182: 0.0010294600248523052
	183: -0.005476479589731237
	184: -0.003293443596761474
	185: 1.474544764986605E-5
	186: -0.004306169646091812
	187: -0.006115257778117305
	188: -0.006149308637334485
	189: -0.00267120594286458
	190: 0.0016689297647244255
	191: -0.005132623358718797
	192: 8.824093111098607E-4
	193: -0.006897931527147755
	194: 0.002183699737457872
	195: 0.00236609991168896
	196: -0.0010146579389270147
	197: -0.0022172567759363793
	198: -0.0029029752817690906
	199: -0.0015355463858695813
	200: 0.0030437589804257056
	201: 5.148215195954046E-4
	202: 0.002957527571852431
	203: -0.0012173411966873433
	204: 0.006654931050639423
	205: 0.00151951613539967
	206: -8.736380977033664E-4
	207: 0.007176112260328272
	208: 0.009425200352808461
	209: 0.0015399339113437787
	210: -6.300562244356095E-4
	211: 0.0010342695805874403
	212: 0.006570464395205462
	213: -0.0057612433007378045
	214: -0.0028440336547949758
	215: -0.002344284347556694
	216: 0.005135716672665335
	217: -0.0012999184085082638
	218: -0.0032559991638949686
	219: 0.0039196301784017165
	220: -2.177796406358627E-4
	221: -0.0038991013230707827
	222: 0.010278418724824824
	223: -2.7995875968406903E-4
	224: -0.0027594072180215164
	225: 0.0013069162698588967
	226: 0.002531546050471788
	227: -6.766675068010289E-4
	228: 0.0013992352581882906
	229: 0.0022436862328346946
	230: -0.0036163550729516277
	231: -0.0018357570559710335
	232: 0.0013354900004713022
	233: -6.681950495515708E-4
	234: 1.744645019960825E-4
	235: 9.842646746311336E-4
	236: -8.901649765848061E-4
	237: -0.005092820375536078
	238: -0.004546244693535623
	239: -7.877060030312373E-4
	240: -0.0032491882955399745
	241: -0.004607908901532967
	242: 0.0011480687756370161
	243: 0.006318050676015094
	244: 0.0034622690723818046
	245: 0.0032529541542614536
	246: 0.008651560796850529
	247: 0.0033943156046775317
	248: 0.006152929123285459
	249: 0.004575406919028685
	250: 0.0032847100648318787
	251: 0.014199684598956572
	252: -0.005586160853615765
	253: -0.006372820896885088
	254: 0.0072777275712859685
	255: 7.979189168317967E-5
	256: 0.0030309522105931483
	257: 0.010865902371122421
	258: 0.005026039424642116
	259: 0.001553142013002661
	260: 0.0021493463402816565
	261: 0.0014910990850311
	262: -0.003829497738103827
	263: 0.0023545068956179775
	264: -0.0017610596390917174
	265: -0.001871086173807715
	266: 5.024793502072157E-4
	267: 0.0017559706840931898
	268: -0.0028034770125014864
	269: 0.001895700629027186
	270: 0.005812572851008662
	271: -0.001824021272871737
	272: 2.566840395936382E-4
	273: -0.0014097754282586773
	274: -0.005570406363220535
	275: -0.002749655184602114
	276: 0.0010451193374313417
	277: -0.004922766305199621
	278: -0.0010197818574664433
	279: 0.0023262496452141346
	280: -0.002885248594626271
	281: 0.0048905056776868796
	282: 0.0029509877607690614
	283: 0.0013835559454418165
	284: 0.0035158198876886317
	285: 0.007246947558243253
	286: 0.0032937207429406257
	287: 0.0024081272076622064
	288: -0.0011751693595694844
	289: 0.0012429367296496192
	290: 6.226402810703335E-4
	291: 0.0033998490688755636
	292: 0.0036640032971369447
	293: -3.6348632995524064E-4
	294: -0.0010238798715534294
	295: -0.0028169613325960755
	296: 0.010036200911905902
	297: -4.297833919554066E-4
	298: -2.179724089189912E-4
	299: 0.004345131735531284
	300: -0.0033463596619623076
	301: -0.005672909525447564
	302: -0.0029943501088348485
	303: 2.090322372275864E-4
	304: 2.982841081532266E-4
	305: -0.0012145374543449244
	306: 8.206278449411048E-4
	307: -3.573731231901165E-4
	308: -0.005019797272798664
	309: -0.00153262996500451
	310: -0.0035979809273745966
	311: 0.0034864517916160403
	312: 0.0012423775675883823
	313: -0.005950648272941879
	314: -0.0025185811476904746
	315: -2.7903710323299354E-4
	316: -0.004109447213195983
	317: -0.003201090307050313
	318: -0.004036812112836583
	319: -0.005173203801574577
	320: -0.003308642725312072
	321: -0.001482237495468193
	322: -0.004363978994063936
	323: 2.9236408777953157E-5
	324: 0.0030147852500547025
	325: -0.0029928320992202656
	326: -0.0027731540148871275
	327: -0.004975174368925005
	328: -0.004373339917572728
	329: -0.0023276481989251397
	330: 0.003053978431563298
	331: 1.1002104839676573E-4
	332: 0.0020883448726015945
	333: 0.0021388560497174634
	334: 0.002661161317680359
	335: -0.0032312491559248644
	336: -0.004660648101112205
	337: -0.004308090823677147
	338: -4.52786039264294E-4
	339: -0.0038940244794488143
	340: 0.005876751808896562
	341: -0.0028454331252253558
	342: -4.289939192458284E-4
	343: 0.003713233968141167
	344: -0.0023009612701707922
	345: -2.479403167632244E-4
	346: 0.0017819005788458824
	347: -0.0016068432208481995
	348: 1.097796569890326E-4
	349: -0.0012368015255890459
	350: 4.3371058332481035E-4
	351: 0.0025882972478282426
	352: 9.695583980548643E-4
	353: 0.0012025880654468269
	354: -6.326774938073866E-4
	355: 0.0018039589135909729
	356: -0.0017300977399274714
	357: -0.0024741702625297388
	358: -8.684576838941802E-4
	359: -0.0019529284941518306
	360: -5.391297394491339E-4
	361: 0.0011529889353688685
	362: 0.0079619725317071
	363: -0.002027887744007542
	364: -0.0018430187431069036
	365: 1.2829164787761337E-4
	366: 0.0029498456749791637
	367: -0.005036196925133946
	368: 0.0019361073229712134
	369: -0.003974213330231493
	370: -0.002084232102155744
	371: -0.0023714947830645104
	372: -8.023162774621517E-4
	373: -0.0015688658709336204
	374: 0.0010423601582355356
	375: 4.616935309589083E-4
	376: -0.006353930728693983
	377: -0.0025383923422208268
	378: -0.005097429832221014
	379: -0.002519859034861328
	380: -0.0037372174901873795
	381: -0.003843105718270641
	382: 2.775243846818744E-4
	383: 0.002632054423569732
	384: -0.0020726178222391345
	385: -0.0011648556191674636
	386: -7.549543496205961E-5
	387: -4.385376090878431E-4
	388: 0.002479201164198417
	389: -9.973108824039502E-4
	390: -0.0038113967412258423
	391: 0.005326130653189464
	392: 5.288437749776437E-4
	393: 0.0014055224788169663
	394: 0.003333460325594264
	395: -0.00226223262121987
	396: 0.0034135592494155672
	397: -0.0012533556182885664
	398: 4.201856223604627E-4
	399: 0.00463922849417219
	400: 0.0019430869103109207
	401: 0.005744482935467341
	402: 0.004977466106074292
	403: 0.0022427801442044346
	404: 2.2035812979547358E-4
	405: 0.001956669010070288
	406: -0.004164186476327146
	407: -0.0024380459351417984
	408: 1.3502118382939632E-4
	409: -0.002000150075157326
	410: 0.00903744330792607
	411: -0.002108288050955434
	412: 0.0049193240526905916
	413: -0.001896191996675695
	414: 0.00447722566333547
	415: -0.001786192181446781
	416: 0.0012094462947397138
	417: -7.145015348762204E-4
	418: -0.001463059761988898
	419: -0.005328077340853077
	420: 0.0013689958271372088
	421: 2.4255640644975593E-4
	422: -0.0039579760808124975
	423: 0.009283033650931739
	424: 0.0037848987286365106
	425: 0.006626979023317452
	426: 2.1929407378580796E-5
	427: -8.826064187261514E-4
	428: 0.0028829708753367743
	429: -0.004246806570144732
	430: -0.0011682640342255675
	431: 0.0019266093671935084
	432: 0.0016239420204804933
	433: 0.002578446318439708
	434: 0.004570309482794634
	435: -9.112997648088883E-4
	436: 2.8971308976057645E-4
	437: 0.003090100136307452
	438: 0.0012846172113597611
	439: 0.005750000143432587
	440: -0.0016043119382602143
	441: 0.0012672840527673123
	442: 0.0012262798170558319
	443: -0.005504117745983306
	444: -0.0040382789541461035
	445: 1.7791404646330653E-4
	446: 3.7706915635505537E-4
	447: -0.0034407554126048073
	448: 0.0023846930179259596
	449: 5.09630383661381E-4
	450: 5.674272875614423E-5
	451: -0.007584886062130105
	452: 0.0025069804960432497
	453: -0.0016924245902051143
	454: -0.0032000179497683134
	455: -0.004395309732928008
	456: 2.2814055619099855E-4
	457: 3.937159955665517E-4
	458: 0.00231589596525494
	459: -0.0013560239128406557
	460: -0.0017025124720162208
	461: 0.0058784172795040696
	462: -0.001037958963450788
	463: 0.003549384489506732
	464: -0.001259090231377064
	465: -0.0025070431632153475
	466: -0.001579170148898019
	467: -5.344282094663069E-4
	468: 0.003189788501976947
	469: 0.004850055869597868
	470: -0.004997618351327482
	471: 0.001976047199353504
	472: 4.7438438461198473E-4
	473: 0.005421945606307988
	474: -0.0016509431378093074
	475: -0.0012168086348730946
	476: 6.0777566284693844E-5
	477: 0.003602308267991376
	478: -9.237933512423012E-4
	479: 0.0019394630058370936
	480: -0.002325203278705241
	481: -0.0021216627652484612
	482: -9.354216754005065E-4
	483: 0.0010598194923832612
	484: -0.0012077000276157555
	485: -0.0019794096080445675
	486: 0.007325422169111528
	487: -0.006147443786219664
	488: -0.002866034794113047
	489: -0.004164670419192256
	490: 0.0016059889420808086
	491: 0.007909276416237766
	492: 0.001598430747961322
	493: 0.0020368543536555504
	494: -0.0012113781462552383
	495: -0.0014300292024317705
	496: 0.004345985842069286
	497: -0.0012181541932927635
	498: 0.00392570105609259
	499: -0.001645797751875165
	500: -0.0018010432984524375
	501: 0.008099318064352651
	502: -0.005413138955192407
	503: 0.003769072746054918
	504: -1.1598418331520144E-4
	505: 0.0038062676935694466
	506: -0.00452592507514713
	507: 0.00376624339279106
	508: -0.0012664812156566799
	509: -0.004464033556387788
	510: -0.004129644455467064
	511: 1.9432460753801708E-4
	512: 0.007958109636995907
	513: 0.003382592460745892
	514: 0.0034097181856618305
	515: -6.827913506618775E-5
	516: 0.0018810919406084998
	517: 0.003240224676786247
	518: 0.00618912529255944
	519: 0.0011633311288281232
	520: -8.485011964447416E-4
	521: 0.0049537998938279865
	522: -0.0044405583584287605
	523: -0.00603118668002227
	524: 0.010429960127473981
	525: -5.473970779319453E-4
	526: 0.002064907300869219
	527: -0.0026436574723899034
	528: 0.002397624066896294
	529: -0.001993305061104717
	530: -0.0020978010106600126
	531: -0.0032454696516351434
	532: 5.950876728587775E-4
	533: -0.002588522722739564
	534: 0.0023943527723540277
	535: 0.0029419508966650643
	536: -0.0027311952304356017
	537: 0.007583654840040047
	538: -6.332015307118984E-4
	539: 0.003232684629874839
	540: -0.0016714542812462283
	541: 0.005137090166614303
	542: -0.0032108559462331273
	543: -0.0039013002985691333
	544: 0.0010558871494506482
	545: -0.003070369459538865
	546: 0.006509517789688173
	547: 0.003971151746196403
	548: -0.0032123139759484315
	549: -0.003169808547788146
	550: 0.013433570165039866
	551: -0.0034146583704713963
	552: 0.003942961141276074
	553: 4.38336155718629E-4
	554: 0.003519038051268421
	555: 6.396336111807934E-4
	556: -0.007902952519228958
	557: 0.004853220373403784
	558: 7.027203997178973E-4
	559: 0.0011933484201355354
	560: 0.005101819258276519
	561: 0.00658873358772533
	562: -3.9324340595749005E-4
	563: 0.005028546265134419
	564: 0.0024051999907128683
	565: -0.001247091602458564
	566: 0.0018049469729939432
	567: 0.0026322634950478162
	568: 0.004750825479555416
	569: 0.002675022952765785
	570: 0.00842312398321195
	571: 0.005561116586722771
	572: -4.751803311810487E-4
	573: 3.9828213324154347E-4
	574: -0.0014027099806934906
	575: -0.0057720347976664655
	576: -6.958658443057138E-4
	577: -7.02823725304863E-4
	578: 0.0021600643927847368
	579: 0.0017226591059117504
	580: -0.004530737435044105
	581: 0.0020821130162232055
	582: -0.007617769083223918
	583: 7.411861119692377E-4
	584: -0.004286114156372124
	585: -0.0014322637151125148
	586: 0.004302178676243073
	587: 9.196763239420644E-4
	588: 0.00149976578620761
	589: 0.0013372677065906246
	590: -0.007365835179189226
	591: -0.004407100030730684
	592: -6.152712582768431E-4
	593: 8.089296762953885E-4
	594: 5.540819496217229E-4
	595: 0.0025493686156001817
	596: -0.002442693146904855
	597: 0.007156123345614204
	598: -7.168853281721549E-4
	599: -0.002478955545070421
	600: -4.6524467365951486E-4
	601: -1.793084570023866E-4
	602: -0.0032960138069827406
	603: 0.002229879159911938
	604: -0.001513393694638218
	605: -0.00819718995705863
	606: 0.005432095453625195
	607: 0.0035276590667178854
	608: -1.2912027362240117E-4
	609: -5.287429153934376E-4
	610: 1.7018028039163268E-4
	611: -0.0032480847719186853
	612: 0.006008595594970475
	613: 0.002149257833158686
	614: 0.0028789454071246287
	615: -0.0011478543241197927
	616: 9.304220305590537E-4
	617: -0.003880168399043
	618: 0.0019135468090318256
	619: 7.632823223670288E-4
	620: -0.00711043263122966
	621: 0.006302170275030089
	622: -0.0010909048585548693
	623: 8.496153943023332E-4
	624: -0.009202208591077439
	625: -0.0020890068310529166
	626: 0.002361497379969377
	627: -0.009510724039448065
	628: 7.013507399114519E-4
	629: 0.00547189187339652
	630: -0.003452841527465908
	631: -0.002844648807130056
	632: -0.002506221815812354
	633: 0.0035763239055816133
	634: -0.0010962880954340265
	635: -0.0012571157582259857
	636: 0.0025438488532782805
	637: 0.0024408690891848635
	638: -3.4878413767054254E-4
	639: -0.0016651904043374652
	640: 7.991327994794925E-4
	641: -0.00439930701981935
	642: -0.0017154722117541114
	643: 0.005967471232846647
	644: 0.001390129272756275
	645: -5.152244185294727E-4
	646: -0.005866065433292093
	647: -0.0026897568520421362
	648: -0.0018462658442538196
	649: -0.0020832546025647525
	650: 6.394795777870625E-4
	651: 8.260634674158355E-4
	652: 5.702971324659621E-4
	653: 0.0013766083600329642
	654: -0.008291996484785784
	655: 0.0043659483764098925
	656: -0.0027286028297074817
	657: 3.46352887190605E-4
	658: -0.0011998261555614062
	659: 4.864506183471685E-4
	660: 0.0010566550391845426
	661: -1.1495584252033231E-4
	662: -0.004957544013217323
	663: 5.278794539461659E-4
	664: -0.0038986779382815355
	665: 0.0064708756312356255
	666: 0.003926400133596342
	667: 2.7116671158840066E-4
	668: 0.0014751041976749845
	669: -6.66880669791218E-4
	670: 0.0032251935575607514
	671: -0.0017827251805909322
	672: 1.1116152849871505E-4
	673: 0.002898418079307576
	674: 0.005805803521141433
	675: -0.0015514573916479914
	676: 0.006260081919506962
	677: -0.0064187758538154695
	678: -0.0021816183322820736
	679: -0.001475937318255746
	680: 0.001363827073775756
	681: -0.0025383422983150227
	682: -0.0030893354693522427
	683: -0.0017775867573102265
	684: -0.008516346616401852
	685: -0.004234974728333258
	686: 0.0034700140738659073
	687: -0.0015426910083601367
	688: -0.003034538294292608
	689: 0.004162913520911008
	690: 0.0030233481117117387
	691: 9.896476873926402E-4
	692: -0.0031466684648731266
	693: -0.004378195134387088
	694: 0.004350109973316355
	695: -0.002472373157597138
	696: -8.835876076951493E-4
	697: -0.0029443450411205056
	698: 0.0012252206698231836
	699: 8.145992554701711E-5
	700: -3.7282148029729186E-4
	701: 2.9780434815151324E-4
	702: -5.170550399453736E-4
	703: -0.0022921642945495906
	704: 6.25314416081312E-4
	705: -0.002319838770808935
	706: -0.002785716058695831
	707: 0.001476033084793352
	708: 0.006811810398782758
	709: -6.363181945615973E-4
	710: 0.006729303057495343
	711: 0.007573628743739832
	712: -0.004679741816489328
	713: 0.002010922259066158
	714: -0.006055017711915788
	715: 0.01045892248052361
	716: -0.005297018470837622
	717: 0.004488333138490514
	718: -0.006891201372436563
	719: -4.1323735622164187E-4
	720: -0.0016519870990721777
	721: -5.627810604915018E-4
	722: -0.0080105526710278
	723: -0.00411806548495899
	724: 1.6496711578180645E-4
	725: 0.00264222983886775
	726: 0.005439437561523818
	727: -0.0032448247017965843
	728: 0.0020397440563131516
	729: 0.0016697333597665961
	730: 1.891694088686027E-4
	731: -0.00213465609879553
	732: 0.003183435241310868
	733: -0.0018607570913504313
	734: -0.004684184609673417
	735: 0.005704848126520459
	736: -0.0023218950406000425
	737: -7.31032886857606E-4
	738: 0.0019777602403479306
	739: 0.0047161137295759275
	740: 0.002080441479507414
	741: 0.0028308274899688625
	742: 0.0018992525205928925
	743: -0.005574541657901944
	744: -8.912549725986747E-4
	745: 0.0013529972877755706
	746: -0.002444988031833068
	747: 2.8456458205347465E-4
	748: 3.2935806446639113E-4
	749: 0.0022362828095287123
	750: 0.0018731913265808973
	751: 4.5646668867851324E-4
	752: -0.0064420742249215405
	753: 0.005794933504517786
	754: -0.0020949791787891188
	755: -2.6231173157174984E-4
	756: 0.0025553507588994425
	757: -7.682538143651232E-5
	758: 0.0024748382679287374
	759: 6.793526432199015E-4
	760: 0.0018498720712449492
	761: -0.005511661065966077
	762: 4.2803099844721014E-4
	763: 0.004695042692843705
	764: 0.0030438499444308265
	765: 0.006376525822044318
	766: 0.0014554376934478462
	767: -0.004959542911169359
	768: -0.002306370349229617
	769: -0.005756048932490713
	770: 0.0027842637646739014
	771: 0.0017719289025374693
	772: -0.005933941591133052
	773: -6.916274174359936E-4
	774: -0.002701467544018862
	775: -8.846655473352842E-5
	776: 0.007160007028541188
	777: 0.0036522095723773977
	778: -0.0024583514924814416
	779: -0.002719114513427412
	780: 0.0018354096543301732
	781: -0.004679994077209247
	782: -0.0018663533710357642
	783: -0.003956262094573498
	784: 0.001851318342487782
	785: -4.895169987415635E-5
	786: 0.0031555750015020948
	787: 0.0052951925632691195
	788: 0.0014569937183432904
	789: -0.002653894834118598
	790: 0.0013357412392628891
	791: 0.0036146282048563736
	792: 0.0034257933670724995
	793: 9.374088468528732E-4
	794: -0.001928699808298826
	795: -0.0023874107278147576
	796: 0.007489156156741628
	797: -0.0018741907939904196
	798: -0.0032986426856263765
	799: -0.003615849563840362
	800: -7.931669657688004E-5
	801: -6.923159531163844E-4
	802: 0.0029621932671837024
	803: 0.007419230634524834
	804: 0.0051346072479807854
	805: -0.00564126844608588
	806: -8.642252302832686E-5
	807: -0.004573813537803998
	808: -0.006886358783214883
	809: -2.9326684304169866E-4
	810: -7.876175022319186E-4
	811: 0.004953913976930623
	812: 0.002542456599205922
	813: 3.092714836373694E-4
	814: 0.0027686355402617084
	815: -0.004711941937292918
	816: -7.611797716301337E-4
	817: 0.0032751572775383537
	818: 0.0015540646105019294
	819: -0.005489949046352963
	820: 0.006991046275694181
	821: -0.0023898118631405546
	822: 0.0023128388525471373
	823: -0.005590460431439735
	824: 0.0013722633517297678
	825: -8.059662393468492E-4
	826: -0.004764935119125325
	827: 0.004325707478711142
	828: 0.004394394100429019
	829: -0.0011245960624377317
	830: -0.0014581811261373534
	831: 0.0035838501214182205
	832: 0.0032787992549244025
	833: 2.691888666725104E-5
	834: -0.003540666878565708
	835: 0.0012431935649865687
	836: -0.005369226355260943
	837: -0.00493261572255822
	838: -0.003114681698828275
	839: -0.0055481233611317
	840: 0.005703875914932613
	841: -3.592114822967156E-4
	842: -0.0012045170940619065
	843: 4.033636442273523E-4
	844: 0.0034011903968165086
	845: 0.003003583254205325
	846: 0.0016459777353012
	847: 0.003860328386275988
	848: 2.2659412619367204E-6
	849: 0.0010091703552736668
	850: 0.002720273352336974
	851: -0.0029226265429452016
	852: -0.0034485886606240553
	853: -0.004519741347252156
	854: 0.0034037397359638374
	855: 5.364249296127519E-4
	856: 0.0013927982405606493
	857: 0.00928423789712317
	858: -0.0022879929682984297
	859: 0.003741276383868332
	860: -0.0018323420309081266
	861: -4.30075981590284E-4
	862: -0.004872383378422975
	863: 0.008133828157368536
	864: -0.0013160097859751612
	865: -9.119273356775806E-4
	866: 0.002042284852388801
	867: 0.0017452394635277956
	868: -0.004076275208873919
	869: 0.003903207157836545
	870: 0.0031346733349026075
	871: 0.001745831069635475
	872: -0.0011578801301269281
	873: 0.0019333242698670486
	874: 0.0019504021355499562
	875: 0.003966972251562744
	876: -0.001467478306187044
	877: -0.0048909313459187176
	878: -7.458889533728011E-4
	879: -0.0015169734403228672
	880: -4.8352281478475107E-4
	881: 0.004681528213973132
	882: 0.0024950617196005205
	883: -1.5879205543572103E-4
	884: -0.001979842353414394
	885: 0.0025914592634678404
	886: -0.0036817676802314873
	887: 0.004704961382010941
	888: -0.0038417685122384563
	889: 0.00594283278742766
	890: -4.384421978149009E-4
	891: 0.004452101056463981
	892: -0.001624576740712661
	893: -0.0034335803234557655
	894: -0.002238778141524233
	895: 0.0021137745961025698
	896: 0.006634045098740774
	897: 0.0020891847569331273
	898: 3.9760799826707556E-5
	899: -0.003288320622531021
	900: 9.755516178853188E-6
	901: 3.296257071875413E-4
	902: 0.002424902297492509
	903: 8.008683108374814E-4
	904: -0.008591531583017916
	905: 3.6074290028206764E-4
	906: -0.00899814930911835
	907: -7.887245139482293E-4
	908: 0.0015928018722282393
	909: 0.001548213099556171
	910: 3.2500758845770416E-4
	911: -0.004066530299255203
	912: -0.005214423008685468
	913: -0.003191469919253486
	914: -0.001896461664559343
	915: -7.424122051544965E-4
	916: -0.006532352383396314
	917: -0.002528557189574351
	918: 0.0032203371732978585
	919: -0.00213768579352274
	920: 0.001857771239377336
	921: -0.0016104913566093487
	922: -0.005776009865393625
	923: -8.367871673707506E-4
	924: -0.002483030832440831
	925: 0.0020952042969594993
	926: 0.001703740648996257
	927: 0.0015871445192318526
	928: 0.0016926453333319228
	929: 0.003218217333464745
	930: 0.002690569422707746
	931: 0.0019325926151128386
	932: -2.064745135068079E-4
	933: 0.008481282628422656
	934: 0.0031271826187120673
	935: 0.00527625330047798
	936: 0.001160266825489661
	937: 0.0037473752738559334
	938: 0.0013964278648209286
	939: -0.0021874897401164576
	940: 9.934177060293558E-4
	941: 0.0028609067090002815
	942: -0.002876635220642799
	943: 7.723044253691158E-4
	944: 0.0012690705665037605
	945: 0.0014202385928533355
	946: -0.0014661834351741027
	947: -0.0048910149780127254
	948: -0.006496843490705721
	949: 0.0037701385764170093
	950: -0.0014241572221982102
	951: 0.0011826645001812785
	952: -0.007188469266094432
	953: 0.0031737536096854532
	954: 0.0019125890254613005
	955: -0.0022684552416962194
	956: 0.0011278339101660146
	957: -0.0014855833772945866
	958: 4.2490578776807554E-4
	959: 0.0055488096967260935
	960: 0.0015387872075741744
	961: 0.005152414878746114
	962: 0.0014801512311430783
	963: 1.1647667763363275E-4
	964: 0.004985405220805399
	965: 0.0020148807739695145
	966: 3.7375602298240926E-4
	967: 0.003317324745948607
	968: 0.0046954216988150934
	969: 0.0045480933080876895
	970: -0.005095116009908806
	971: 0.0028896355478295757
	972: -0.002269109903858889
	973: -0.004144025302157637
	974: -6.355787675132126E-4
	975: -0.0028166822270590517
	976: -0.002300737808364695
	977: -0.007203503187937854
	978: -0.005347755913969156
	979: -0.0026349164440598845
	980: -0.004102540110174957
	981: 0.002386943261389148
	982: -0.003928293861190887
	983: 4.6257976591994484E-4
	984: -0.002079437854411531
	985: 0.005788435640996809
	986: -0.0028508088722984486
	987: -9.063037331841089E-4
	988: -0.006903983683130227
	989: -8.698902883680776E-4
	990: -0.003401472365007259
	991: -0.001810469053336585
	992: -0.0012881634187949958
	993: -0.007039399086802411
	994: -0.006384569783652078
	995: -0.007599082614035605
	996: -0.0031592694978485425
	997: -0.004111033249333492
	998: -0.0037547874197007922
	999: -0.0011290342072514154
Daniel Craigembedding:
	0: 0.003714077067835948
	1: -0.005816372562372727
	2: 0.004147765682188607
	3: -7.170355913629609E-4
	4: 0.005123848913114708
	5: 0.0013426883800345543
	6: 0.002572515763172949
	7: -3.275288037015555E-4
	8: -5.25251767439982E-4
	9: 0.0034541756421800737
	10: 0.0027520571971595548
	11: -0.0012151562972184066
	12: 0.0042808345260866385
	13: 0.003659807745336348
	14: 2.2591889002372041E-4
	15: 0.003771053623852761
	16: 1.4006926590751957E-4
	17: -1.224678937923875E-4
	18: 0.0020966916801032974
	19: -0.0013164278089751397
	20: 0.005284721583994182
	21: -8.980707350543344E-4
	22: 5.821112442914207E-4
	23: -0.002601070452764366
	24: -0.0021264532161131187
	25: 0.0011254821878496871
	26: 0.0016249424649668464
	27: 0.005854874428254677
	28: -6.917167488906142E-4
	29: -0.006456040033462966
	30: 0.004102632109772245
	31: 0.0031232523620010185
	32: -0.0012651187878327944
	33: 0.001279983255974742
	34: 0.0019343993560337757
	35: 0.0017341771018362336
	36: 0.0022971020470231554
	37: 0.0018288498139315142
	38: -0.0027140936190005924
	39: 0.0047996901138933285
	40: 0.005951201412491919
	41: 0.0014629672019975443
	42: 0.003657063572332988
	43: -0.0079358890108923
	44: 0.0023969459156879245
	45: 0.0026277980292143876
	46: 0.004165625676181677
	47: -0.0018177598824100668
	48: -0.0021940257190253653
	49: 0.0013689239382497925
	50: 0.008066863984308517
	51: -0.012175230722634212
	52: 0.004724193554261079
	53: 0.0042002635022035635
	54: 0.0038101402381269145
	55: 0.0028412128561771093
	56: 8.840456638855485E-4
	57: 0.003163908080993383
	58: 0.005762554118799109
	59: 0.006132413409718994
	60: 0.0015370276709853624
	61: 0.0040064932881639405
	62: 0.0011412533632428098
	63: 4.174064804665256E-5
	64: 0.001974266422073972
	65: 0.0058171408729960844
	66: 0.004607686027373732
	67: 0.003456704747741666
	68: -6.84778302917831E-4
	69: 0.007837281358351468
	70: 0.004213323726442115
	71: -0.001796417644635471
	72: 4.976242260050675E-4
	73: -0.0015259818323999307
	74: 0.0013390517439233571
	75: -0.0015876422578731265
	76: 0.0026494642829637607
	77: 0.0011385842271590685
	78: 0.004522018714787044
	79: 0.003176537507911585
	80: -0.002439428563112873
	81: 0.003019739673276902
	82: 0.0014572112766960126
	83: -0.0034430527911801295
	84: 0.0030709198942950747
	85: -0.0010729867339587316
	86: 8.461955855994185E-4
	87: 0.004867894762799143
	88: 7.26166022888352E-4
	89: 0.004030419190641599
	90: 0.0035589945915619078
	91: 0.00214231198737448
	92: 0.0028678650448890433
	93: 0.0020617329410259283
	94: -0.005545272956590362
	95: 0.004604871599705097
	96: -1.0060218547907711E-4
	97: -4.668304523078626E-4
	98: 9.563339006905373E-4
	99: 0.0010557725763412579
	100: -8.415545381901104E-4
	101: 0.004216013188201612
	102: 0.00472345415390548
	103: 0.002046546512939176
	104: 0.002186442251959119
	105: 0.0054637530519398465
	106: 0.005653183302160714
	107: -0.002700296082708742
	108: -0.006747501019897722
	109: 0.006751896182618691
	110: -7.072390452138555E-4
	111: 0.0014965395052585096
	112: 0.0034171528787241847
	113: 0.0050061605818725735
	114: 0.004700632070979624
	115: -0.004698882953598303
	116: 0.004788009194673855
	117: -0.0038754231558996884
	118: 0.005759356946119887
	119: 0.009277014513961089
	120: 0.007828793830306194
	121: 0.003349649365834886
	122: 1.2659068828213592E-4
	123: 0.0014889448957092356
	124: 0.008339020514938879
	125: -0.0015844547915890286
	126: -0.003838493316079717
	127: 0.0015627947336854422
	128: 3.118474874627098E-5
	129: 9.948907879621571E-5
	130: 0.002257295034350377
	131: 0.0027509594600085736
	132: 0.005379818118728746
	133: 9.9577171736778E-4
	134: 0.00771753507988542
	135: 0.002572837505002643
	136: 1.4163224249074638E-4
	137: 6.621711816614925E-4
	138: 0.004131513465427338
	139: 5.39154011711869E-4
	140: 0.0027183820688048274
	141: 0.002242553637322515
	142: 0.004181027380233392
	143: 7.8178049412486E-5
	144: 0.004721738019066626
	145: 0.002522086308254501
	146: 0.0034730041032856847
	147: -7.702100434053657E-4
	148: 0.0029322925291114885
	149: 0.005302660474979605
	150: 0.0033768798242709936
	151: -0.0022742847020363085
	152: -0.004478579429248634
	153: -0.003767271878735039
	154: -0.0074384298662938456
	155: -0.0025690819142500107
	156: -0.0051564974721232315
	157: -0.0056951398092121176
	158: -8.430963326474133E-4
	159: 0.0034421939751217287
	160: -0.005030282978973497
	161: -0.0024535667317627584
	162: 0.0010561597469415551
	163: 4.453968771537123E-4
	164: -0.004524851716632367
	165: -0.0035674145222761747
	166: 9.536044795621384E-4
	167: 0.0012484685585724229
	168: -3.136887152389888E-4
	169: -0.0027006271147979005
	170: 0.002331637419408221
	171: -9.234069932662116E-4
	172: 0.0011500342555112078
	173: 4.895961530616127E-4
	174: -0.001787199457106483
	175: -0.003140628118780048
	176: -0.009762537794584669
	177: 7.946155840088225E-6
	178: 0.004069529208556558
	179: 0.005019346113440092
	180: 0.0020230184662960063
	181: 0.00696142860614088
	182: -8.696908491948178E-4
	183: -3.6872387763034654E-4
	184: 0.003648690865128438
	185: 0.0016039191671473215
	186: -0.0016754981332737899
	187: -0.007359909655946414
	188: 0.003875454855611428
	189: 0.0029179222367420837
	190: 0.0011066394965166043
	191: -0.0021609205682567856
	192: -9.880396905983037E-5
	193: -7.699371516375357E-4
	194: -0.004971809734525106
	195: 0.0014177480999645463
	196: -0.0029689591277321124
	197: -0.0020674857901294297
	198: -0.0011079879293022835
	199: -0.00480710077513968
	200: -0.003155318970338253
	201: -0.007502908957444796
	202: 0.001973947102681183
	203: 0.0034448350893811295
	204: -0.0012420616082912978
	205: -0.0021755212147631015
	206: 0.0029397831138999477
	207: -0.005842710527634488
	208: -0.0013916265363153142
	209: 0.008140032562308623
	210: 1.4896121094781453E-4
	211: 0.006041653354407425
	212: -0.005489252962146762
	213: -0.004693634749061172
	214: -0.006004832771623569
	215: -2.9754550489825593E-4
	216: -3.52233722687061E-4
	217: -0.0014417932790775547
	218: 0.0018177043790148725
	219: -0.00886558879387658
	220: -0.007486453310943956
	221: 0.0013315739558325938
	222: -0.0033919179407117203
	223: 0.002491788410872991
	224: -0.0024373786291672765
	225: -0.0028183347583694562
	226: -0.00323388476888451
	227: -7.899264958893155E-4
	228: 4.8128628553155726E-4
	229: 8.505139569870373E-4
	230: -0.006040337328733705
	231: 2.774881934628022E-5
	232: -0.002062181644913383
	233: -0.0011182452571255103
	234: -0.00276793280513333
	235: -0.005333070865552785
	236: 0.004593746635823866
	237: 0.0026223760334165296
	238: 0.0011692304605140022
	239: -0.004777176628112818
	240: -7.524882888156342E-4
	241: -0.005764884940826187
	242: 0.0038559761992747843
	243: 0.004065511585939294
	244: -0.0024579217474275062
	245: 0.005985405770567918
	246: -0.004008023777929195
	247: 3.1107802313797635E-4
	248: 5.987768687848901E-4
	249: -0.002144502887511438
	250: 2.1551448741670835E-4
	251: -0.00649560005408927
	252: -0.004679414290322379
	253: 0.006633876285333655
	254: 8.408999896914631E-4
	255: 0.0010313780782845183
	256: -3.335106632692242E-4
	257: -0.002233413814876011
	258: -6.204230832380193E-5
	259: -8.665257133721472E-4
	260: 0.002749135325073906
	261: 8.623809912964048E-4
	262: 0.002839173762291091
	263: -0.003142180782932157
	264: -0.0022101885274283233
	265: 0.0014254021026207794
	266: -0.002959634458768684
	267: 0.0021700696729062825
	268: -5.128384891787744E-4
	269: -0.0019659891251403456
	270: -0.0016960374370207643
	271: -0.00572858605214691
	272: -0.0014626917298913708
	273: 0.0051842376352148195
	274: 0.002896197864039848
	275: -0.002118652644860538
	276: -8.11473318870393E-4
	277: 0.003051198198164605
	278: 0.0015363565933929823
	279: 0.006324877068682903
	280: 0.0010945188687885839
	281: -0.00668273134384457
	282: -9.416870947124674E-4
	283: -7.519382675144567E-4
	284: -0.0015513260693400847
	285: -0.004582603851520695
	286: -0.0014456174265849954
	287: 5.471618049792693E-4
	288: 3.308736658081555E-4
	289: 8.473880208940957E-5
	290: 9.828900209107928E-4
	291: 3.4642469255955226E-4
	292: -0.001569855258892379
	293: -0.0012241969423706545
	294: 0.008019451690475484
	295: 0.004751627124961551
	296: 9.677140059190808E-4
	297: -0.004143959307342809
	298: 4.289958134460826E-4
	299: -0.0036313569988158773
	300: -5.16206585287017E-4
	301: 0.006980889915362861
	302: -0.0016439690296260318
	303: 0.0023906344238218704
	304: 0.002002921897123402
	305: 0.005113074726575555
	306: 0.0028645583596751466
	307: 6.157219960442118E-4
	308: -0.002197833437685465
	309: -2.0151813902646908E-4
	310: 0.002317387890584896
	311: -5.972310443479094E-4
	312: -4.8530094597257834E-5
	313: 0.012585392913938906
	314: 5.863480163341804E-5
	315: 0.0024074855147350185
	316: 5.006590821152019E-4
	317: 0.001889137131318686
	318: -0.0017158007683883644
	319: 8.131744970662773E-4
	320: -4.058187647606166E-4
	321: -0.0018577409641402035
	322: -5.078403413337385E-4
	323: 0.0013053874820692483
	324: -0.0020725625148080534
	325: -3.627660300191538E-4
	326: -4.512071783459775E-4
	327: 0.008446102060129062
	328: 0.006352375520298894
	329: 0.004419926515101791
	330: 4.3848334176566187E-4
	331: -0.0010707345162697685
	332: 6.427665131452383E-4
	333: -0.003884341260645117
	334: 0.001971546648754396
	335: 6.114374664397956E-5
	336: 0.0029196976710894416
	337: 0.006459037200725118
	338: 4.5981698497807387E-4
	339: 0.0011248194938780287
	340: 0.0013721647239805976
	341: 0.0075503208980924035
	342: 0.0020277161529701363
	343: 0.0012023224079862477
	344: 0.004613738155081364
	345: 0.001529879201715752
	346: 0.0010314966764333224
	347: 0.0030859061080363162
	348: 0.003121346946945684
	349: -6.051640353868166E-4
	350: -5.896101320508948E-4
	351: -0.004562258028505332
	352: -0.0045662861856343925
	353: -3.440808370908239E-4
	354: 0.0014710254413528088
	355: -0.002881113026682207
	356: 0.007068136503507626
	357: 0.002517076553718746
	358: 0.003687387356252488
	359: 8.596247189427356E-4
	360: 0.0020507281409184687
	361: 5.428251734573309E-4
	362: -0.0038403257220269754
	363: 0.0015936235245024237
	364: 0.002435614674681115
	365: -0.0038853551339871673
	366: -0.0012468800679228936
	367: -0.004199286598096271
	368: -0.0012673461603029113
	369: -0.006646207340503289
	370: 0.0035231965240964847
	371: 0.002512527126199527
	372: 0.004218688050466466
	373: 0.006081483326546446
	374: 0.0017207442295167443
	375: 8.155622190883235E-4
	376: 0.003331435715908298
	377: 0.001788834884107721
	378: 0.005087487195384088
	379: 0.005963410960685359
	380: 0.00206346468968352
	381: 0.005565700319813138
	382: 0.005496797255280466
	383: -0.005069654428177463
	384: -0.002299094406230642
	385: 0.004102634508854158
	386: 0.007720848358761762
	387: 0.0011263364097468436
	388: 0.001882260437979894
	389: 0.005094764797813118
	390: 0.004114397640157393
	391: 0.006872913764567865
	392: -0.006611368225870734
	393: -0.005277560274011729
	394: 0.00111599239285693
	395: 0.005035614717024231
	396: -0.004403012041878365
	397: 0.005023027437247324
	398: -0.00599685782046172
	399: -0.0016723686298482881
	400: -2.3566488016963716E-4
	401: -0.002105257877374902
	402: -0.0034950977984594283
	403: 9.970258296122547E-4
	404: -0.0025222931133193453
	405: 0.0014662624890718525
	406: -0.007498937115055147
	407: -0.0015592669614013681
	408: 7.058093715155453E-4
	409: -2.5998681194819176E-4
	410: 0.0011458817331135886
	411: 4.980019356267917E-4
	412: -0.0016645885511358983
	413: -0.002251568312233241
	414: 8.380893056899446E-4
	415: -8.920087658334372E-4
	416: -0.005321914199080674
	417: 7.25686407079653E-4
	418: -0.0022939989336500793
	419: 6.573321543689191E-5
	420: 1.2155591890555898E-4
	421: 0.001028741245134796
	422: -0.001458603120752687
	423: 0.0019186362042676673
	424: 0.00858092918312601
	425: 0.0023347165750444926
	426: -0.0023589581533977584
	427: 0.0011535265332320254
	428: -0.002945357798945063
	429: 0.005746476593216025
	430: 0.0059595656087446484
	431: -0.002038449356162768
	432: -0.0047637163052710926
	433: 0.005041351444712448
	434: 0.0037958263333428225
	435: -0.002794865605281157
	436: -4.721100719234585E-4
	437: 0.004415474501540957
	438: 0.0011540620212332374
	439: -2.994677019704048E-4
	440: 0.003169247983565179
	441: 0.006621809218848819
	442: 3.88865360028521E-4
	443: 0.010374536588766966
	444: -0.005308369142442706
	445: -0.00342487619828942
	446: -0.005208506277918742
	447: -4.3729626347403935E-4
	448: -0.004184755047491044
	449: 0.004783481180459823
	450: -0.001618514619512485
	451: 0.0032025085651932877
	452: -0.004937699101906805
	453: 7.836483034389815E-4
	454: -0.001084184691923429
	455: 0.0029431839338126364
	456: 0.0020046890716532624
	457: 0.010188677024089867
	458: -0.0016788178941635815
	459: -0.0028686034811861885
	460: 0.005553046506798644
	461: -0.00408706994121456
	462: -0.005806687772437832
	463: 9.524648278540967E-4
	464: -0.003667615327555435
	465: 0.002792480842458187
	466: 3.3368514979470427E-4
	467: -0.002892239776648173
	468: -0.0033922592852800295
	469: -0.004125725831555469
	470: -0.006835352045177575
	471: -2.046993588666567E-4
	472: 0.004204863729221776
	473: -0.0031977090782261395
	474: 0.003325111781217847
	475: -0.0036188244804104446
	476: 5.087919213370218E-4
	477: -0.0052501939332514
	478: -0.0025567181691108624
	479: -0.00296364546299206
	480: -4.141435381945616E-4
	481: -0.004935153682465348
	482: -5.449383863115806E-4
	483: 6.611086667794012E-4
	484: 0.0027975782650978827
	485: -0.0035584861997627715
	486: 2.30940660917634E-4
	487: -2.0528183088579783E-5
	488: 9.914148433727854E-4
	489: 0.005269758671322519
	490: 8.898005382675109E-4
	491: -0.006260987853122863
	492: -0.00573454251595496
	493: -0.004977508464919845
	494: -0.00212627604848327
	495: -0.003262632727478126
	496: -0.005082547512983123
	497: 0.0016559912757996124
	498: -0.0034501522760454163
	499: -0.00199731968736749
	500: -0.0015473087500016643
	501: -0.002934533670631811
	502: -0.007451333903489161
	503: -5.422294176601136E-4
	504: -5.864798077516726E-4
	505: -0.005349768787251176
	506: 6.920423603459132E-4
	507: -0.006628902525057033
	508: -0.0011597763493733054
	509: -0.0011286778498137222
	510: 0.004159363210553055
	511: 0.0021375788200210808
	512: -0.006851428364673591
	513: -0.0052134344765904965
	514: -0.004036346999424377
	515: 0.00241935607778895
	516: -0.004277869602773982
	517: 2.1669214250187655E-5
	518: -0.0033338996634810457
	519: -0.0034660361033548043
	520: 2.4145655375386356E-4
	521: 0.00103200191819423
	522: 0.006736680791712843
	523: 0.010920164197929521
	524: -0.005270249470048188
	525: 0.005872386248816685
	526: -0.0054247686439144885
	527: -0.0016634171759580968
	528: -0.004434870978902436
	529: 0.0010975077193498175
	530: -0.002624489459993694
	531: 0.0040855703811049715
	532: -0.003628540668610396
	533: 8.474346289502463E-4
	534: -0.00533715047867063
	535: -0.0032368570025812413
	536: 0.0077760279564694276
	537: -0.004157919217624392
	538: 0.00909081462223589
	539: -3.3123189127674194E-4
	540: 0.004362096185363772
	541: -8.290942522155642E-4
	542: -0.0013568600015518171
	543: -0.004695512837985975
	544: 0.003118470640913302
	545: 0.004262311531450796
	546: -0.010300059576689256
	547: -2.0253034639284095E-4
	548: -0.002524179394113902
	549: 0.003675073676822131
	550: -0.007675587358977231
	551: -0.003152494726708697
	552: -0.00915834308540582
	553: 0.0024634132545175128
	554: 0.004235225862860322
	555: -0.0029862826179123778
	556: -4.476165079528062E-4
	557: 0.004798335059922371
	558: -0.0012785656488603899
	559: -5.582594160820834E-5
	560: 2.096253880391089E-4
	561: -0.003847195324932232
	562: -0.0013033587418448081
	563: -0.001969118025205938
	564: -0.0031923608109761374
	565: -0.0037770583984652792
	566: 1.5299282245233927E-4
	567: 0.0024613297111567446
	568: 0.0027750942462217497
	569: -0.0021516362244462846
	570: -0.007191979645542464
	571: -0.0037336802174915205
	572: -0.0029596313224914657
	573: -0.0026360619771565244
	574: 0.0017702827078826843
	575: 0.006017743572154003
	576: 0.002842020521495208
	577: -0.0027111573127152765
	578: -0.0029591848031072857
	579: -0.0019071058433577548
	580: 0.008158372211137204
	581: 0.002642075632140102
	582: 0.002553138963786856
	583: -0.004306971615751362
	584: -0.0010865945221581281
	585: -0.008993109246066009
	586: -0.00533655035482371
	587: 0.003291425159629285
	588: -0.002352992776681302
	589: -0.005899529418288329
	590: 0.003900888528292925
	591: 0.0014818439584343929
	592: -0.006264436922436831
	593: -0.005231763162915891
	594: -0.0031378603630409507
	595: -0.00286495678606413
	596: -0.002229580357461186
	597: -0.006433486369852542
	598: -0.0032900429663197082
