Anderson Cooperembedding:
	0: 5.545165969582244E-4
	1: 7.992955117634815E-4
	2: 6.280119696047053E-4
	3: 0.0011931088695191756
	4: 7.51413417700557E-4
	5: 8.620877590564162E-4
	6: 8.700888441530926E-4
	7: -3.509444358188601E-4
	8: 1.0647157363132402E-4
	9: 0.0011533058721923631
	10: 5.916598146195305E-4
	11: 6.981387191116064E-4
	12: 4.371590909933384E-4
	13: 8.06903240069282E-4
	14: 7.24993367786607E-4
	15: 8.256490677569886E-4
	16: 5.055881891650871E-4
	17: 9.940612808484078E-4
	18: 7.032920478205127E-4
	19: 6.187660593601535E-4
	20: 0.001044859551953597
	21: 3.3309502115458974E-4
	22: 3.566938201000891E-4
	23: 2.5835731758545454E-4
	24: 4.8325409642238214E-4
	25: 5.699187533080884E-4
	26: 8.148471667515111E-4
	27: 3.2544240908035613E-4
	28: -2.401317051159222E-4
	29: 0.0012328003637910232
	30: 5.245955863670916E-4
	31: 7.054436751618928E-4
	32: 5.214411126330768E-4
	33: 0.0012382626090612172
	34: 5.73690159467283E-4
	35: 9.16844886654991E-4
	36: 1.9539743646650916E-4
	37: 5.09311714167914E-4
	38: 7.045365864558903E-4
	39: 3.687831302499274E-4
	40: 4.3376136564111586E-4
	41: 6.939055455222277E-4
	42: 8.100383390532774E-4
	43: 3.271602214090256E-4
	44: 5.118386881358683E-4
	45: 3.808011455728988E-4
	46: 1.7136303103522306E-4
	47: 4.988327678028247E-4
	48: 0.0012521787025022157
	49: 8.824850593586468E-4
	50: 4.792364846123735E-5
	51: 3.2084686610470815E-4
	52: 7.86410958686665E-5
	53: -2.00944617619763E-4
	54: -5.8800119665153416E-5
	55: 6.284566531195506E-4
	56: -9.588738199780041E-6
	57: 4.1070905023917636E-4
	58: 5.074350139984215E-4
	59: -2.1741284375180098E-4
	60: -9.797653146654225E-4
	61: -9.893348399190106E-4
	62: -7.781946639076102E-4
	63: -3.818356033885315E-4
	64: 2.305734074629887E-4
	65: 2.3552579169785936E-4
	66: 6.156870881845143E-4
	67: -1.718400940109266E-4
	68: 8.433090416664179E-4
	69: 7.279642784153903E-4
	70: 4.2924193508476403E-4
	71: -3.5747431195302243E-4
	72: 7.136031331391548E-5
	73: 2.725856450157609E-4
	74: 3.812386967147526E-4
	75: 6.28831902114171E-4
	76: -5.841607366648799E-4
	77: 1.0641849047398473E-4
	78: 3.30983067423765E-4
	79: -3.2599805412614105E-4
	80: 0.0010132127338213128
	81: 0.0012998546867140658
	82: 8.002071167140769E-4
	83: 8.572278832833838E-4
	84: 9.272383880799823E-4
	85: 7.533335672871404E-4
	86: 8.699811312706708E-4
	87: 2.450535885927662E-4
	88: -7.721911018368509E-5
	89: 3.2298240467005417E-4
	90: 5.34407234231856E-4
	91: 3.3637134408971004E-4
	92: 0.0010150077408722636
	93: 6.47885692003693E-4
	94: 2.8582279329602964E-4
	95: 8.5536770950473E-4
	96: 3.109151086052782E-4
	97: 0.0011530662403980195
	98: 0.0011575672631348485
	99: 7.735414957435795E-4
	100: 9.681335021613923E-4
	101: 7.351153892674504E-4
	102: 3.1666208130525734E-4
	103: 5.701869041311367E-4
	104: 1.4314485271799352E-4
	105: 4.065226595714423E-4
	106: 4.6269561494698456E-4
	107: 2.279842743219662E-4
	108: 5.592095894618018E-4
	109: 5.472589452055419E-4
	110: 8.644910001783354E-4
	111: 6.05032394314046E-4
	112: -9.550314256090733E-4
	113: 3.24973873003736E-4
	114: 3.399570391248746E-4
	115: 5.687825714022094E-4
	116: 4.331940799346541E-4
	117: 6.837287056637745E-4
	118: -5.012290299902145E-4
	119: -1.3142846074649592E-4
	120: 3.486983523254933E-4
	121: -7.01980186054271E-4
	122: -6.534215306023398E-4
	123: -7.692909938433035E-4
	124: -8.778155740848625E-4
	125: 1.1488502820650732E-4
	126: -1.900116248091505E-5
	127: 6.446503194023251E-4
	128: 7.758985605279869E-4
	129: 7.92402876100868E-4
	130: 7.613480538901469E-4
	131: 6.725164633560824E-4
	132: 8.172379032789578E-4
	133: 7.020916861552293E-4
	134: 9.101663652839239E-4
	135: 3.921688467145618E-4
	136: 9.523585351131446E-4
	137: 0.0015460355468022457
	138: 0.0012747018320399968
	139: 7.63260738383949E-4
	140: 8.321313793359109E-4
	141: 0.0016482850981773952
	142: 9.880745839065883E-4
	143: 0.001308736695654227
	144: 0.00124658039024028
	145: 8.545239961137983E-4
	146: 9.277965076705449E-4
	147: 0.0016488105904514504
	148: 9.093784797642534E-4
	149: 0.0012690222609779832
	150: 9.232516679696756E-4
	151: -9.162500829556134E-4
	152: 2.515316648304723E-4
	153: 1.9742424731780783E-4
	154: 4.216266907266815E-4
	155: 2.9449651252279427E-4
	156: -3.292396062493437E-5
	157: -2.249095208599083E-4
	158: -1.0938198644092588E-4
	159: -1.9325990375591113E-4
	160: -3.332027411393829E-4
	161: -1.4962234119887135E-4
	162: 2.4839840445482856E-4
	163: 5.156814173450535E-5
	164: 5.097801127284097E-4
	165: -1.645724820124779E-5
	166: 2.604113719104589E-4
	167: 5.895651502955864E-4
	168: 4.443156397725939E-4
	169: 4.3807110725884433E-4
	170: 8.172614756949361E-4
	171: -5.022118699530875E-4
	172: 7.813423717813865E-5
	173: -2.813805174251781E-5
	174: 0.0012704954300743903
	175: 8.158213842409291E-4
	176: 2.2263213567042176E-4
	177: 3.0473222278768066E-4
	178: -4.074608750598911E-5
	179: 1.4960244898878176E-4
	180: 1.7505870335533883E-4
	181: 3.715233281390152E-4
	182: 6.043055595578165E-4
	183: 1.308311658050767E-4
	184: 8.979227470565545E-5
	185: 3.190945039957582E-5
	186: -3.317810186773329E-4
	187: -7.110643738372496E-4
	188: 3.65746906194757E-5
	189: 4.938997067740592E-4
	190: 4.3019010536976895E-4
	191: 8.305215445116353E-4
	192: 3.9612997796688396E-4
	193: -3.9381475574933236E-5
	194: 0.0012904649802160915
	195: -1.0825206984958023E-5
	196: 5.825012682646241E-4
	197: 4.116421992073351E-4
	198: 2.7831195814526473E-4
	199: -1.8544264556376078E-4
	200: 3.854484440395424E-4
	201: 3.952375986811762E-5
	202: 6.388553835685965E-4
	203: -5.095176649202763E-5
	204: 3.550467145754072E-4
	205: -2.4049297913064314E-5
	206: 2.6757323460062864E-4
	207: 4.274812855423248E-4
	208: -1.1015890077737353E-5
	209: 4.4193868812411743E-4
	210: 3.161712314852028E-5
	211: -3.9041400364073594E-4
	212: 6.535332499011676E-4
	213: -2.2909284790831324E-4
	214: -1.9955837787531919E-4
	215: -1.0483140874381798E-4
	216: -4.900087081127262E-5
	217: 9.089833932987027E-5
	218: -2.033134967424618E-5
	219: -1.6968208640266654E-4
	220: -3.0010089318234366E-4
	221: 2.730953042920033E-4
	222: 6.653033318453381E-4
	223: -2.2317624012201632E-4
	224: 1.2502271798265553E-4
	225: 6.014155500348248E-4
	226: 9.230543130452567E-4
	227: 2.524068927312373E-4
	228: 6.60324677027653E-4
	229: 0.0010630838086022254
	230: 3.209230778479828E-4
	231: 6.730922053207865E-4
	232: 4.696891999086898E-4
	233: 4.291700362855814E-4
	234: 5.3498144527517404E-5
	235: 4.1846887325582634E-4
	236: -1.3205519710920752E-4
	237: -1.9287643418648215E-4
	238: 8.453278743494803E-5
	239: 4.4023882305975227E-4
	240: 4.8350361213913194E-5
	241: 5.877960227058665E-5
	242: 1.7173398259561116E-4
	243: 4.272521571678206E-4
	244: 4.8085781330344733E-4
	245: 2.9695851604871336E-4
	246: 3.7853277701996774E-4
	247: 8.241227539545272E-4
	248: 8.276623022066312E-4
	249: 9.26987667445648E-4
	250: 8.328601044427529E-4
	251: 3.458856257641893E-4
	252: 2.3937874968781546E-4
	253: -3.407488648364807E-4
	254: 1.5684168735844396E-4
	255: 8.192093392840473E-4
	256: 6.212258287295974E-4
	257: 0.0011216054120456558
	258: 8.481734033504095E-4
	259: 4.928957876498747E-4
	260: 8.878296992347449E-4
	261: 0.0011665187665131924
	262: -3.5734472050723746E-5
	263: 7.986784101521267E-4
	264: 6.191460735419118E-4
	265: -5.898359824723403E-4
	266: -1.3836270191660486E-4
	267: 2.0707347281875713E-4
	268: 3.3901971936948746E-4
	269: 8.525007956541666E-4
	270: 0.0010031754660397823
	271: 0.0010401169176633286
	272: 0.0010084804890138294
	273: 3.2726754887358505E-4
	274: 0.0011372562424397156
	275: 0.0010547412408444653
	276: 0.0015552198408284425
	277: 7.666919123101642E-4
	278: 0.0011447946744053894
	279: 0.0013229862636144902
	280: 0.0012031034327770883
	281: 4.890573300962622E-4
	282: 2.6255244334450926E-4
	283: 2.669085306639424E-4
	284: 4.5046723825994923E-4
	285: 5.212633850317333E-4
	286: 0.0010662791508246267
	287: 8.139588303183009E-4
	288: 7.183775759855985E-4
	289: 0.001360416792553842
	290: 8.667234632297429E-4
	291: 9.513272865841688E-4
	292: 2.9879493182206245E-4
	293: 6.361301215710276E-4
	294: 0.0010519027356035234
	295: 3.873297592707966E-4
	296: 0.0015843780656745747
	297: 0.0010049421103291397
	298: 0.001266290276245206
	299: 9.328458273335354E-4
	300: 1.5741685858336463E-4
	301: 4.253047416979989E-4
	302: -2.491098498120746E-5
	303: -3.3453398106580393E-4
	304: 5.662152418355529E-4
	305: 3.423775660185103E-4
	306: -6.331954116054258E-4
	307: 2.6015336213624737E-4
	308: -2.827408431184955E-4
	309: -1.9123300773499102E-4
	310: 1.054193950646109E-4
	311: 3.5904923624475733E-4
	312: 3.3672067915708467E-4
	313: -7.601425652294374E-4
	314: -4.8699619123056026E-4
	315: -2.2482219117151634E-4
	316: 5.010785411243547E-4
	317: 4.262046599726231E-4
	318: 4.601948679833729E-4
	319: 4.430777294236622E-4
	320: 3.121898757574187E-4
	321: 2.255608088653838E-4
	322: 2.2436053403289294E-4
	323: -8.19394813916966E-5
	324: 7.964294419048787E-5
	325: 1.0965086832436823E-4
	326: 6.556718431424792E-4
	327: -1.9394777145477076E-4
	328: -1.5028041464116215E-4
	329: 2.440134682788825E-4
	330: 5.401787877817727E-4
	331: 5.389180098562829E-4
	332: -1.7766603163486526E-4
	333: 5.887606640718068E-4
	334: 9.182516339706914E-4
	335: 0.0010716171458297066
	336: 0.0010118971974968657
	337: 6.638049066771598E-4
	338: -4.21171042539932E-4
	339: 1.8506919321167179E-4
	340: 4.5458358868626916E-4
	341: 5.430809156771896E-4
	342: 8.789442429160653E-4
	343: 0.0011446265734072025
	344: 9.527917312854185E-4
	345: 7.287435851291103E-4
	346: 0.0011257809943504388
	347: 0.001133712645268915
	348: 8.64521718027531E-4
	349: 9.63687712618173E-4
	350: 4.6363381630364E-4
	351: 9.93636580047309E-4
	352: 7.868678792883832E-4
	353: 0.0010209512682575782
	354: 2.2350310777316407E-4
	355: 5.58717076236423E-5
	356: -4.7412707613756925E-4
	357: 6.870642695703763E-4
	358: -4.385221348880453E-4
	359: -3.496602299118908E-5
	360: 0.001054032970895838
	361: 8.103865806412052E-6
	362: 5.749286864270923E-4
	363: 6.857976300082601E-5
	364: 3.238779992453341E-4
	365: 4.4842456607459605E-4
	366: 7.147906721187131E-4
	367: -1.1248971089214845E-4
	368: 6.621051027626633E-4
	369: 6.794707253539517E-4
	370: 7.972389557713372E-4
	371: 9.005057442528949E-4
	372: 8.254651032492482E-4
	373: 7.314944296075197E-4
	374: 7.211764903257828E-4
	375: 5.893576320678292E-4
	376: 6.758814116992648E-4
	377: 4.583020468144844E-4
	378: -2.3797787000267437E-4
	379: 2.593165011712042E-4
	380: 1.753336251035598E-4
	381: 1.4174694868145286E-5
	382: 3.1033393099396604E-4
	383: 0.00124943413399033
	384: 9.431347674590247E-4
	385: 4.892933756931279E-4
	386: 9.185152590773444E-4
	387: 0.0011551047736465209
	388: 8.096022462230701E-4
	389: 1.9387486761763523E-4
	390: 3.22045242551642E-4
	391: 7.201347265394497E-5
	392: 0.0013106311282508794
	393: 9.07998883034244E-4
	394: 2.9310721324517317E-4
	395: 3.582104381098769E-4
	396: 7.031576920381417E-4
	397: 0.0011313268086951605
	398: -1.4758294583050015E-4
	399: -0.0018896638822617504
	400: -0.0014428979016389803
	401: -0.001395769859793758
	402: -6.23833885015547E-4
	403: 0.0014138085073981484
	404: 0.0018513252106336243
	405: 6.066978265766211E-4
	406: -3.2877534786573005E-4
	407: 3.316646573601266E-4
	408: 0.0013403495463228724
	409: -2.1070604237397248E-4
	410: 4.942154731044725E-4
	411: -0.0020270226375241414
	412: 6.104390131587376E-5
	413: -5.823049415068984E-4
	414: -0.001697537696196714
	415: -3.254294331571105E-4
	416: -2.5322849021626166E-4
	417: -7.888541950471414E-4
	418: -4.101401716693784E-4
	419: -0.0015166581851078196
	420: -0.0013340686551232945
	421: 4.4210073218938926E-4
	422: -3.8457143704781157E-4
	423: -9.731860519040042E-5
	424: -2.6712821306674566E-4
	425: 9.212129755153208E-4
	426: 2.4269078595808504E-4
	427: 4.871443064719763E-4
	428: -8.674059652187042E-7
	429: -8.035720098203123E-4
	430: -9.202889331713108E-4
	431: -5.004696173879762E-4
	432: -0.001488744085536042
	433: -4.995925992165604E-4
	434: -7.780936702008113E-4
	435: -3.6868315249418494E-4
	436: 3.7029898422481696E-4
	437: 6.299686171009813E-4
	438: -4.0789942414860543E-4
	439: -7.433016152384979E-4
	440: -2.2203917554715208E-4
	441: -2.617196515333035E-4
	442: 3.1555334990740643E-4
	443: -0.001568430619044099
	444: -2.0706207253443662E-4
	445: -0.001394634914154966
	446: -3.7074092561787867E-4
	447: -9.392639205776852E-4
	448: -4.4312812296557115E-4
	449: 0.0015948189225674118
	450: 1.142683452975794E-5
	451: -0.0020850497241077016
	452: -0.0024654465764757053
	453: 2.511608481855015E-4
	454: -4.0656003738391637E-4
	455: -5.136457453531661E-4
	456: -0.0014973031447433494
	457: -0.0026152013428021544
	458: 4.098524233898191E-5
	459: -0.001997727020713941
	460: 0.0011632418768768174
	461: -0.0015024694147088302
	462: -4.547082986495843E-4
	463: -9.343438085104777E-4
	464: -0.0011547276557185456
	465: -0.0012323103653248152
	466: 6.854475100763734E-4
	467: -1.3695346867676741E-4
	468: 5.683499723749311E-4
	469: 3.190205536498601E-4
	470: -7.163944011446022E-4
	471: 5.353891425519761E-4
	472: 5.216505010561207E-4
	473: -2.074413700100572E-4
	474: -0.0015998527779163834
	475: 2.7860216875081744E-4
	476: -7.331923381546747E-4
	477: -4.2357910831543476E-5
	478: -4.653268701118721E-4
	479: 5.324638307207203E-4
	480: 1.202790714000488E-4
	481: -4.500325095125433E-4
	482: -1.3425493090084243E-4
	483: 8.699526945340068E-4
	484: 0.0011261711941988255
	485: 2.672245918232162E-4
	486: -8.729310164980254E-4
	487: -0.0022109360589975804
	488: -0.0010384099204136267
	489: -6.51216851235606E-4
	490: -9.507621015037E-4
	491: -5.596681322826123E-4
	492: -4.477108168008871E-4
	493: 0.0010337217001815811
	494: -6.645769876827055E-4
	495: 3.8429356406306325E-4
	496: -8.329977711565013E-4
	497: 9.746106053531803E-5
	498: 4.3287791054092496E-4
	499: -0.0015907388617783704
	500: 6.91420390578016E-4
	501: -0.0021548731299352512
	502: -3.9416438561668454E-4
	503: -9.790048264614354E-4
	504: -6.6789110539865E-4
	505: -1.7413034673103398E-4
	506: 2.6516399249860225E-4
	507: 2.010117760177616E-4
	508: 1.1441239481695611E-4
	509: -2.677510613781686E-4
	510: 0.0015587929759218525
	511: 3.6363987531183226E-4
	512: -1.9962104627931318E-4
	513: -0.0017913955705876384
	514: -0.0011357899071928774
	515: -0.001763017518233784
	516: -4.7274122434853583E-4
	517: 5.235241412981473E-4
	518: -7.432582597405153E-4
	519: 2.711818584999117E-4
	520: -5.753703828292167E-4
	521: 2.010245199861752E-4
	522: -9.122145820970004E-4
	523: -0.0015344997356093741
	524: -0.0010148990465626828
	525: 9.944998148299319E-4
	526: 4.351520424085452E-4
	527: 3.5787660949731647E-4
	528: -6.637500675365315E-4
	529: -7.391905872655126E-4
	530: 3.754188894835491E-4
	531: -4.6397618524032715E-4
	532: 8.308463073918394E-4
	533: 2.3436159195560696E-6
	534: 2.094037886765454E-4
	535: 6.345713757158854E-4
	536: 0.0014703925568960174
	537: 4.415235240381692E-4
	538: 4.930917098406337E-4
	539: 9.899880525739121E-5
	540: 6.858592117813906E-4
	541: -0.0012646633046737913
	542: -0.0016276912100613797
	543: -4.8503578462773115E-4
	544: 3.924158295684266E-4
	545: -5.42509794988863E-4
	546: -8.821490624100402E-4
	547: 0.0014837669444439107
	548: 8.306240094698824E-4
	549: -8.806127529909813E-4
	550: 4.362288160161685E-4
	551: -4.683204999549046E-4
	552: -0.00214903399237192
	553: 5.57241790115932E-4
	554: 8.860699670792885E-4
	555: 4.802917752584264E-4
	556: 1.3296090434207413E-4
	557: 2.2790213731696402E-4
	558: -0.002541297212107075
	559: -5.46225122065853E-4
	560: -8.624299916950946E-4
	561: 9.674174104562887E-4
	562: -2.0642951321471576E-4
	563: -1.1752450762740552E-4
	564: 4.562536766328105E-4
	565: 0.0010292791901384047
	566: -0.001651176785907344
	567: -7.87436871609804E-5
	568: -0.0020327221773160154
	569: 6.615610735304604E-4
	570: -0.0014490053347262304
	571: 8.333119964755171E-5
	572: -5.807628182631232E-4
	573: -2.7888755336353063E-4
	574: -3.137239242707407E-5
	575: -3.960782223352665E-4
	576: -3.981774491456386E-5
	577: -7.962433176031527E-4
	578: -0.002020204564961987
	579: -4.424606072819917E-4
	580: -1.0510772418845772E-4
	581: 7.732822783588312E-4
	582: -2.036478003260666E-4
	583: 2.5300766043186076E-4
	584: -0.0015400702372504625
	585: -0.0021117107442872336
	586: 9.752331906050926E-4
	587: -0.0010094851609180572
	588: -8.941339469659942E-4
	589: -0.0011335944920846971
	590: -6.491018472322055E-4
	591: -0.0015306754501922004
	592: 8.349077809919401E-4
	593: -0.002208131157217788
	594: -8.330142373079667E-4
	595: 7.9583894891073E-4
	596: -9.493547705430909E-4
	597: -0.0010292613609974035
	598: 9.740013327784955E-4
	599: -1.4362701213899685E-4
	600: -4.275105180738009E-4
	601: -0.0016220195704155138
	602: -5.85726080389541E-4
	603: 6.309660805416824E-4
	604: -8.835130755075442E-4
	605: -0.0010893745477752032
	606: -7.805721292252581E-4
	607: 5.426134832692024E-4
	608: -0.0014591226965181086
	609: 0.0010463587795046824
	610: -0.00202012721145437
	611: -4.730129075632643E-4
	612: -7.51732655293367E-4
	613: -7.566866333833327E-5
	614: -0.002731259211521468
	615: -7.218984933766589E-4
	616: -5.62797817286901E-4
	617: -0.002039367146051276
	618: -7.392304611474404E-4
	619: -3.29697545269521E-4
	620: -9.47009976998023E-4
	621: 1.9127971937017268E-4
	622: -0.0010796571530989466
	623: -3.5998385054100213E-4
	624: -1.313763125534734E-4
	625: 0.0012605324320741655
	626: -5.643770466585608E-4
	627: -2.726734334783867E-4
	628: 8.560301913615869E-4
	629: -0.0014877632173597886
	630: -8.460808616538015E-4
	631: -0.0010185800312634537
	632: -4.288862023460999E-5
	633: -0.0010436009107994623
	634: 0.0016333624690289437
	635: 2.3428788480112664E-4
	636: -0.0019517066592166664
	637: 2.1913021032674942E-4
	638: -0.002053072160775978
	639: -0.0013797200247694533
	640: 0.001265145959226013
	641: -0.0021239224411477966
	642: -6.98600943324226E-4
	643: -0.001652928729630553
	644: -2.5377090327067807E-5
	645: -9.090882930855453E-4
	646: 2.2577374782791325E-4
	647: -9.182422869789892E-5
	648: 7.715718449121307E-4
	649: 8.651012692694955E-4
	650: -0.0021013292297151127
	651: 5.044044675756196E-4
	652: -0.0016078996150823933
	653: 2.0230755441065493E-4
	654: 2.655091484288793E-4
	655: -0.0017460579867863335
	656: 2.413553561438492E-4
	657: 8.810034427905853E-4
	658: -0.0011172675296730692
	659: 1.5190511120778723E-4
	660: 8.079499843053656E-4
	661: 3.567570929029751E-4
	662: 5.636148952132319E-4
	663: 6.901679144885914E-4
	664: -2.862227807103634E-4
	665: 8.425480520787643E-5
	666: 6.102251097113618E-4
	667: -0.0014776923484104006
	668: 6.962633844201285E-4
	669: 2.4050848911466745E-4
	670: -1.1959037070981503E-5
	671: 1.889122267643353E-4
	672: -6.86662768297823E-5
	673: -4.8544986157856955E-6
	674: 4.360686144800042E-5
	675: 9.698994392583145E-4
	676: -7.389867727033357E-4
	677: 3.0861216440300295E-5
	678: -0.0020418673172328265
	679: -8.542434016521862E-4
	680: -8.853048487902515E-4
	681: -0.0012033959286219136
	682: 2.4291314417710386E-4
	683: -0.0022058599396605765
	684: -0.001873221548986794
	685: 9.584763923907473E-4
	686: 0.0010951354310885298
	687: -5.804905933092231E-5
	688: 3.518279646731563E-5
	689: -0.0015153054299533628
	690: 6.335704362272616E-4
	691: -0.0014558626324375332
	692: -6.00353545546126E-4
	693: -5.626245606420202E-4
	694: 6.688784395628879E-4
	695: -4.941745036777563E-4
	696: -9.72230926056452E-4
	697: -0.0021392409940956284
	698: 6.21413928893408E-4
	699: -0.001735761044556897
	700: -9.484234176840703E-4
	701: -7.466033861328764E-4
	702: -3.347557344341335E-4
	703: -6.50221778682913E-4
	704: -2.205903500362092E-4
	705: 5.072510525131404E-4
	706: 0.0010017609155603695
	707: -4.8532372104740724E-4
	708: 3.5880344677219757E-4
	709: -5.222595975287206E-4
	710: -1.3967549401384296E-4
	711: -9.814083633093715E-4
	712: -2.0139803107212766E-4
	713: 2.4251923148353063E-4
	714: -0.001060113625109145
	715: -6.683934854618957E-5
	716: -0.0010999776666013145
	717: 9.487870205763034E-4
	718: 6.835921861564071E-4
	719: -5.481778095854296E-4
	720: -3.2374150082470273E-4
	721: -9.331239610766893E-4
	722: -0.0010238312213915555
	723: -6.826237294749901E-4
	724: 6.051029135307349E-4
	725: -9.02261558455226E-4
	726: 9.911705397505864E-4
	727: 3.035768442347857E-4
	728: -0.0013270799492151617
	729: 7.469956627986792E-4
	730: 7.689879455330873E-4
	731: -0.0015076240133011342
	732: -4.0551369579378514E-4
	733: -6.242921838017465E-4
	734: 8.313083588510245E-4
	735: -0.001747198963846156
	736: 1.0687613496404778E-4
	737: -3.5009325426348965E-4
	738: 3.6310908928637817E-4
	739: 3.7784767713500746E-4
	740: -4.4757498758837713E-4
	741: -5.960453125528576E-4
	742: -7.8932835914541E-5
	743: 2.487465490621573E-4
	744: 2.4091692639673895E-4
	745: -1.3397960794158227E-4
	746: -4.4469335882848084E-4
	747: -4.22264723410191E-4
	748: -0.001149601807599186
	749: -9.215181379696116E-4
	750: -6.018446168714903E-4
	751: 6.224199407895512E-4
	752: -0.001402635920825202
	753: 1.7756899004698888E-4
	754: 1.5730263579402475E-4
	755: 1.7263891407574603E-4
	756: 2.579509868350235E-4
	757: 6.932918666492755E-4
	758: -4.4788786787279214E-4
	759: -8.563994187494765E-4
	760: -6.147577325083516E-5
	761: -8.64352382060876E-4
	762: -2.558178949055823E-4
	763: -9.961254492989672E-4
	764: -8.11716109758841E-4
	765: -5.275385784185827E-4
	766: 4.519337317822119E-4
	767: -3.73572141495401E-4
	768: -7.922198114526771E-4
	769: -0.0011604496108694072
	770: -5.229898069855427E-4
	771: 6.274482346740564E-4
	772: -0.0012743873414324855
	773: -2.510597338329404E-4
	774: -0.0010461238606443008
	775: -0.0018245739851506422
	776: -0.0018096703988956862
	777: -3.4711705203631864E-4
	778: -3.3948964953229053E-4
	779: -7.256010906676611E-5
	780: 5.573268255938414E-4
	781: 1.2494806533368675E-4
	782: 8.838317979689521E-5
	783: 6.073219744571053E-4
	784: -6.030869846729114E-4
	785: -0.0013835231170355976
	786: -6.97572981672653E-4
	787: -5.837766128059528E-4
	788: -9.17652532451299E-4
	789: -4.026285138256422E-4
	790: -7.054830330871064E-4
	791: -4.283346579481524E-4
	792: -5.406723972819485E-4
	793: -0.0010069072667005271
	794: -4.416936624448247E-4
	795: -9.008892103264222E-4
	796: -5.257809644054733E-4
	797: -0.0013329863557861382
	798: -5.310583264680563E-4
	799: 5.871307898119676E-4
	800: -3.711948359974227E-4
	801: -9.164627493461122E-5
	802: 7.792990969938535E-4
	803: 0.0017748059849598226
	804: 4.5897546490291757E-4
	805: -0.0011189050699446086
	806: -3.9513503980169603E-4
	807: 3.622513631111233E-4
	808: -0.001532797501138722
	809: -1.619686882472085E-4
	810: 3.972278176068535E-4
	811: 4.982550442131742E-4
	812: 3.9066053400097373E-4
	813: -0.001330415829435369
	814: 0.0011356315258521858
	815: 3.25046556055168E-4
	816: -3.2554305292543603E-4
	817: 0.0010607379382068774
	818: -4.4573213788610597E-4
	819: -0.0019170541738268388
	820: 0.0011588586348839048
	821: 8.241747341981466E-4
	822: -8.831307380908486E-4
	823: -0.002578119588953788
	824: -0.002435557340349917
	825: 0.0010263201576729067
	826: -7.749335243984347E-4
	827: 0.0011057558979945471
	828: -3.681817001994339E-4
	829: 4.642266035956452E-4
	830: -5.498125031581108E-4
	831: 2.1839979007995402E-4
	832: 1.0460969838213474E-4
	833: 0.001676857102179041
	834: -0.0018824684280781647
	835: 1.2240415847317992E-4
	836: -0.001924372651213981
	837: -0.0019998250159382713
	838: -0.0010512697375925837
	839: 2.59502512095233E-4
	840: -6.910920207196726E-4
	841: -0.0022709089454431824
	842: -1.2997615083827806E-4
	843: -0.0012706814835589492
	844: 8.142965732560957E-4
	845: -0.0014344406881913923
	846: 5.043656290911983E-4
	847: 0.0010468016177927334
	848: -3.0091234424499286E-5
	849: -2.3980675166813435E-4
	850: -8.595742691137547E-4
	851: -5.842239655922519E-4
	852: -5.133445330250761E-4
	853: 7.695126176888485E-4
	854: -5.070279654286031E-4
	855: -1.5140260527250217E-4
	856: 7.801510088094608E-4
	857: -3.428751388815949E-4
	858: 3.966930091143535E-4
	859: -9.498407611575541E-4
	860: -1.0031812785966636E-4
	861: -5.313355919714478E-4
	862: -6.650586737688845E-4
	863: 4.501319560013398E-4
	864: 0.0010577603701827352
	865: -6.921028097296389E-4
	866: 2.3702273400120284E-4
	867: 0.0013193116271698984
	868: -9.442497373535197E-4
	869: -0.002221597535271756
	870: -9.018779434148852E-4
	871: 0.0014456436831102606
	872: -8.610269689796797E-4
	873: 3.6779146457670395E-4
	874: 0.0017541065388518536
	875: -0.0017168519914985741
	876: -2.6727759696633846E-4
	877: 2.7899984459977477E-4
	878: 2.88455937218173E-4
	879: -0.002001847557836592
	880: -4.262028725405317E-4
	881: -1.9876350576540915E-4
	882: -6.734725737703232E-4
	883: -4.585596261910144E-4
	884: 6.631278691361485E-4
	885: -0.002316972191326238
	886: 7.371947815662094E-5
	887: -0.0020032058123327376
	888: 0.0010016631189460313
	889: -0.0018675686547573295
	890: -8.976710477324875E-5
	891: 4.094544961257683E-4
	892: -3.084356800155128E-4
	893: -4.7684927069529707E-4
	894: -1.313918782833317E-4
	895: 9.589629419443937E-4
	896: 8.999287248684698E-4
	897: -3.6314883998796144E-4
	898: -0.001268631519456744
	899: -9.397376206536479E-4
	900: 1.587594449322587E-4
	901: 1.2143492035709525E-4
	902: -0.0022442673926969326
	903: -0.0024350759424665836
	904: -1.120244773395808E-4
	905: -5.092259396732963E-4
	906: -0.001894350865927196
	907: -4.959782172720866E-4
	908: 8.495950893738311E-4
	909: 1.8848817302866442E-4
	910: -0.0011702070229607218
	911: -0.0017675890238136637
	912: -1.5689887721756653E-4
	913: 0.0010699863420738503
	914: 8.593681365377544E-4
	915: 9.067192744530651E-5
	916: -6.222016014096664E-4
	917: -0.0014438657286367845
	918: -9.221418439971468E-5
	919: 3.413889768553293E-4
	920: 8.656447404474056E-4
	921: -8.571083462308446E-4
	922: -4.273076409044944E-4
	923: -1.502696558823773E-4
	924: 1.1846073931165453E-4
	925: 8.423011903124602E-4
	926: 6.57233100420964E-4
	927: 9.687791941070596E-5
	928: -8.993460972901081E-4
	929: -0.002231667203373058
	930: 8.202100041942114E-4
	931: 5.147382018118438E-4
	932: -0.0011382388146544628
	933: 6.502796889610126E-4
	934: -3.086354393988423E-4
	935: 5.240920543463691E-4
	936: -5.898287693024662E-4
	937: 1.4113838316640972E-4
	938: -5.042283997696018E-4
	939: 4.023498563986556E-5
	940: 7.941529384722589E-4
	941: 8.196538277279398E-4
	942: 6.29951650969016E-4
	943: -2.1270972310001687E-4
	944: 1.6540747903759554E-4
	945: 8.557792873915247E-4
	946: 1.181468729465226E-4
	947: 2.3617815676361563E-4
	948: -1.3183831218414052E-4
	949: 2.2248876748580116E-5
	950: 2.0881030775686814E-5
	951: 3.25298302299147E-4
	952: 5.4871918171432E-4
	953: -6.138542995374771E-4
	954: -3.344785568709794E-4
	955: 1.3822424685790656E-4
	956: -4.145483579387179E-4
	957: 4.2618687300369646E-4
	958: -6.268275245985233E-4
	959: 7.463908459149363E-4
	960: -7.371308930993544E-5
	961: 4.359735277802196E-4
	962: 6.499841984763014E-4
	963: 5.02294840756134E-4
	964: 0.0010485620982256538
	965: -4.504736395607811E-5
	966: -8.269134623571865E-4
	967: 1.2965415687888566E-4
	968: -5.303395132197404E-4
	969: -1.0358932013600591E-4
	970: 8.957770777568516E-5
	971: -0.00161162519763663
	972: 8.72768892052893E-4
	973: 6.284864354695825E-4
	974: 9.85388687181694E-4
	975: 3.883892136478913E-4
	976: 0.0012085779343822252
	977: -1.6327657531939592E-4
	978: 2.654750361329786E-4
	979: 0.0011643595208953499
	980: 5.264593832722511E-4
	981: -7.780657723763493E-4
	982: -0.002049429988935374
	983: -2.2300573507536705E-5
	984: -5.454966622760923E-4
	985: -9.116843167665021E-5
	986: 1.4156398096982876E-4
	987: -6.396097564423984E-4
	988: 9.762094222222112E-5
	989: 2.64557359159501E-4
	990: -3.0467752927558793E-5
	991: 6.871450087810954E-4
	992: 7.362960115196077E-4
	993: 2.4687115957121964E-4
	994: 2.525473811923652E-4
	995: 1.1766272789385482E-4
	996: 1.715101849669551E-4
	997: 3.2084575561780975E-4
	998: -9.136365100590583E-4
	999: -0.0010978631417911393
Miley CyrusBIAS:
	0: 7.430783828934026E-4
Scarlett JohanssonBIAS:
	0: -3.591774675095192E-4
BIAS:
	0: 1.0
Daniel CraigBIAS:
	0: -2.195459679518395E-5
Miley Cyrusembedding:
	0: -0.00399711610449587
	1: -0.003488095314323634
	2: -5.593264739404923E-4
	3: -0.0012589122516846398
	4: -0.0031549771521631755
	5: -0.0011342364866065728
	6: -0.0033070294460624547
	7: -3.4089910602022225E-4
	8: -0.0015926340189868716
	9: -0.0032009812857502267
	10: -0.0014493344169668584
	11: -0.001072772708325496
	12: -0.0012529512176727546
	13: -0.0019429663358801516
	14: -0.0028181635987033393
	15: -0.0016859261014178137
	16: -4.755467076457884E-4
	17: -0.0019720077489657714
	18: -8.822705886720172E-4
	19: -2.0041200890057116E-4
	20: -0.005116946133612528
	21: -0.0032072930063496105
	22: -0.0031915482402608704
	23: -6.913477753626996E-4
	24: -0.0020844271875061987
	25: -0.002224611392135141
	26: -0.0035295100970979417
	27: -0.006122958605764692
	28: -0.0017334051071866302
	29: -0.0028711325238081633
	30: -0.0018265509765299835
	31: -0.0030150807645668567
	32: -0.0015428640076899
	33: -0.0016025714077909068
	34: 4.978466641329177E-4
	35: -8.005654652217321E-4
	36: -0.0011173350285159699
	37: -9.344901331149307E-4
	38: -0.0021130452740054585
	39: -8.938746547061542E-4
	40: -0.003018986653492407
	41: -0.0018203548377592124
	42: -0.00191427726992345
	43: 0.003183621559130143
	44: -0.0024170289914547853
	45: -4.791537463767398E-4
	46: -0.002664373612168466
	47: -6.384347688176779E-4
	48: -4.0206754913369233E-4
	49: -0.0019307720453517613
	50: -0.00271948191338457
	51: 0.0016366114244297835
	52: -0.003563034296321305
	53: -0.002952531678670588
	54: -0.0017441855918168803
	55: -0.003760107878325906
	56: -0.0017718834776347383
	57: -0.0019491849573659262
	58: -0.0025796670251439476
	59: -0.00309900295591137
	60: 7.89200176042525E-4
	61: 0.003716687088161451
	62: 0.0017841608725660957
	63: 3.375424796246375E-4
	64: -0.0018312244515332904
	65: -8.393538906122163E-4
	66: -0.00175505459865229
	67: -5.453691344206619E-4
	68: -0.001419841851332758
	69: -9.848879296342223E-4
	70: -0.00475719017448181
	71: 8.086089489871671E-4
	72: -0.00115480936565289
	73: -5.553324764795134E-4
	74: -0.0031113347630260307
	75: -6.158480877578048E-4
	76: 5.779065655551412E-5
	77: 6.917451624214509E-4
	78: -0.003173440607463071
	79: -0.00178701094155663
	80: -0.0021155970436094584
	81: -0.005993369511170206
	82: -0.0022233996102305007
	83: -0.0014182514316523152
	84: -0.003066299088523196
	85: -0.0022168575686410826
	86: -0.0030898829314098823
	87: -0.001617687747928707
	88: -9.86063061886286E-4
	89: -0.004677769682461704
	90: -0.003281912855023789
	91: -4.467447407149682E-4
	92: -0.002904210044521015
	93: -0.0012050512173331872
	94: -0.0018043908114726088
	95: -0.0045093530395396405
	96: -2.556158430593546E-4
	97: -0.002643554176505088
	98: -0.0035621540659369765
	99: -0.006043682383883203
	100: -0.0023349863495269255
	101: 1.4287503909482323E-4
	102: -0.001415654008191245
	103: -0.002317076414117576
	104: -9.299560524944914E-4
	105: -0.0010546002233328662
	106: -0.001357610395175572
	107: 0.001173965110573126
	108: -5.226238055940377E-4
	109: -0.002139714375980017
	110: -0.001866620448293194
	111: -1.1623393118849E-4
	112: -2.0436965626865767E-4
	113: -0.004338158972493362
	114: -0.003914798656860363
	115: -0.0012370695763368061
	116: -2.4986066756901756E-4
	117: -5.386022936403462E-4
	118: 1.295103822536392E-4
	119: -0.0010088658053260713
	120: -0.0024272941860328683
	121: 0.002514415929300596
	122: 0.0020761322345596122
	123: 0.0024584147571140103
	124: -0.002493937413304774
	125: -9.531695486013693E-4
	126: -4.293214632831202E-4
	127: -0.004098784091758264
	128: -0.002595042187471785
	129: -0.002727281892330395
	130: -0.005431300913586659
	131: -0.004435339286305129
	132: -0.007972691548247004
	133: -0.0025635865328895798
	134: -0.005981521074064812
	135: -0.003034851747370022
	136: -0.0018923679113628544
	137: -0.0034216204640960227
	138: -0.005918783795270979
	139: -0.002874385358049643
	140: -0.002337927995530869
	141: -0.004091684933403391
	142: -0.0021754646108963585
	143: -0.003519319553102216
	144: -0.004847518777860309
	145: -0.0016040026920494926
	146: -0.0044411403577855795
	147: -9.302550721865653E-4
	148: 6.263597205932844E-4
	149: -0.0030517691788946376
	150: 0.0013312629890771081
	151: 0.001198490665039848
	152: -0.0025690518962308705
	153: -0.003209479042831081
	154: -0.0017941053612466863
	155: -9.115639336646471E-4
	156: -0.0019124982577360655
	157: -0.0014888399123119348
	158: -0.0019907469774802164
	159: -0.0010129071078967932
	160: 5.148511471661092E-4
	161: 7.277303655095676E-4
	162: -0.002556815010359702
	163: 9.345263794567834E-4
	164: 9.693162806742058E-4
	165: 0.0019668805051969904
	166: -0.003300592442569314
	167: -0.004433038856761956
	168: 3.2069631450794045E-4
	169: -0.0022561987178860506
	170: -0.0010675588697211667
	171: 0.0011213685989093114
	172: -0.0015589743804662584
	173: -0.0036900254790039975
	174: -0.0021016156614660146
	175: 6.299467714637717E-5
	176: -7.851252957767844E-4
	177: -4.6197392841645585E-5
	178: 5.952867792404012E-5
	179: -0.002144876046437662
	180: -0.0012735699887802322
	181: -0.004306632039549105
	182: -0.0011700667280615138
	183: 0.0012827451617917636
	184: -2.332856807784335E-4
	185: -6.972538097492774E-4
	186: 6.726571823548596E-4
	187: 0.0013131805234991626
	188: -0.005560878730410758
	189: -0.0011009803097022214
	190: -0.004026814105923402
	191: 2.241417983525592E-4
	192: -4.853175443559211E-5
	193: -1.1512147499708626E-4
	194: -0.00230929708232284
	195: -1.298545159109052E-4
	196: -0.0010759166501891444
	197: -5.080241095751943E-4
	198: -6.599650070714765E-4
	199: 7.459415481661083E-4
	200: -8.337239126937793E-4
	201: 8.241208213299214E-4
	202: -0.0016349247736269176
	203: -0.00202410012626973
	204: -0.0012376207429458904
	205: 0.001375996248497425
	206: -0.0021386550962409646
	207: -6.15018013075211E-4
	208: -0.0010701812249753943
	209: -0.0014010970937061021
	210: -0.001184235109391186
	211: -0.001977592392092947
	212: -0.002441454799815303
	213: 7.3781846768418E-4
	214: 0.003256089936664928
	215: -0.004492830470750855
	216: -0.00248053216115761
	217: -9.721287156093446E-5
	218: -0.0034376105225554414
	219: 0.0026775124087678585
	220: 0.0017446963302093742
	221: 0.0018061060718644556
	222: -0.0023361110532011268
	223: 7.613293309272628E-4
	224: 0.0015476683244633207
	225: 2.940199939369084E-4
	226: -7.059179494537611E-4
	227: 5.148385324442255E-4
	228: -0.0012285204403140642
	229: -0.003195739901602901
	230: -2.1880394145584826E-4
	231: -0.001340261263911062
	232: -0.0020589217184915545
	233: 2.448463436721264E-5
	234: 0.0023572620145491394
	235: 0.0014927911785469104
	236: 2.1107748344078098E-4
	237: 0.0010011048423034662
	238: 9.516876485777867E-4
	239: 9.618708564696562E-4
	240: -5.8960893678134246E-5
	241: 7.595562067499194E-4
	242: -9.264119942198008E-4
	243: -0.0013265133309372597
	244: 0.001967700718360004
	245: -2.951358979752884E-4
	246: -9.552374660382562E-4
	247: -0.0023573310503562338
	248: -0.0022279657335637303
	249: -0.0013172355548634821
	250: -0.0016591984109744452
	251: -4.1661756493045527E-4
	252: 2.8822717084715826E-4
	253: -0.0028245117096620015
	254: 7.870722636605827E-4
	255: -7.382227546505446E-4
	256: 7.943226408707135E-4
	257: -0.0038761699525469784
	258: -0.004522291060354777
	259: -0.00221192341725047
	260: -7.461610476567087E-4
	261: -5.110405948809869E-4
	262: -0.0011113519756445185
	263: -0.002301757107263315
	264: -0.0017878088521591168
	265: 5.025975885570546E-4
	266: 0.0014351898850076665
	267: -0.0010768494185956802
	268: -4.4649146116976864E-4
	269: -0.0020774987396431875
	270: -0.004047962165329833
	271: -7.146815728213946E-4
	272: -0.0028465924333239147
	273: -0.0012131735632091231
	274: -0.003156254633426071
	275: 1.624740555479767E-4
	276: -0.0014963562176612349
	277: -0.004071092518600926
	278: -0.0035454851475162615
	279: -0.005145120672251821
	280: -0.0019394949556259535
	281: 0.0010065576549928418
	282: -3.8541243981391604E-4
	283: -0.002191932891598498
	284: -0.001197105320157708
	285: -6.546972425624625E-4
	286: -8.543405477091793E-5
	287: -0.002899594318648174
	288: -0.0017245392453614033
	289: -0.002874299797468008
	290: -0.0024650100743324214
	291: 6.819744310386691E-6
	292: -0.0016676399399651164
	293: -5.08276455282267E-4
	294: -0.0026974737683079612
	295: -0.0022766086732923605
	296: -0.0030730641685290635
	297: -0.0018670739501389384
	298: -0.002466700143618254
	299: -0.0013407358610467367
	300: -0.0013719309526925483
	301: -0.006096242551319868
	302: -4.4087834451386466E-4
	303: -3.587001845812359E-4
	304: -0.004519444171099559
	305: -0.0025676121703322196
	306: 1.6526966698149679E-4
	307: -0.003386934247486931
	308: -5.767340356029278E-4
	309: -0.003322505900032599
	310: -0.00392518394505983
	311: -0.002174806062423309
	312: -0.0030829131929060224
	313: -0.0026247406866169378
	314: -3.24216548347815E-4
	315: -0.0030100880720805765
	316: -0.002886619437038716
	317: -0.003745278596385606
	318: -0.00288337602114808
	319: -7.539861236540258E-4
	320: -0.0012584400947917673
	321: -4.2411616057899416E-4
	322: -0.0030537362930415277
	323: -5.589291422485361E-4
	324: -0.0029087516211221084
	325: -0.002505745998271947
	326: -0.004405570127683378
	327: -4.8316120338359037E-4
	328: 2.1730237158752724E-4
	329: -0.0015429533146713705
	330: -0.0021630811089219026
	331: -0.002957221768570911
	332: -0.003969128267105907
	333: -1.1765853556936975E-4
	334: -0.0010116673926696483
	335: -0.0012265277389583796
	336: -0.003146699092301876
	337: -0.002552785511046406
	338: 8.573742965345294E-4
	339: 2.1702926527626928E-4
	340: 1.7371588261284025E-4
	341: -0.002288087573342358
	342: -0.00168862839306787
	343: -0.0011636419812330124
	344: -0.003318755773548158
	345: -0.002448598079325244
	346: -0.0014227140483736734
	347: -8.877177373637244E-4
	348: -0.0023682712985040938
	349: -9.092629892507662E-4
	350: -0.0013900863981451564
	351: -3.7864398820194525E-4
	352: -8.287366820611945E-4
	353: -0.0037460024231612877
	354: 0.004278163431188514
	355: 6.310928923503093E-6
	356: -0.002175492523884124
	357: -0.0016618946404317284
	358: -0.0017789227961506014
	359: 4.561331975815931E-4
	360: -7.144776811720922E-4
	361: -0.002337321343814393
	362: -8.538746889417498E-4
	363: -9.434536704194573E-4
	364: -0.0016529472637184092
	365: 0.0010885994937309084
	366: -0.0010918298733553881
	367: 0.0031101572869163016
	368: 6.331136295944038E-4
	369: 0.0010782328518807326
	370: 2.5764240168062134E-5
	371: -0.0013802179160274175
	372: 5.224886961452994E-4
	373: -0.001755196097871828
	374: -5.631614317384766E-4
	375: -5.464640232334026E-4
	376: -0.0025706582401431757
	377: 5.463664431567168E-4
	378: 8.834507119555559E-4
	379: -9.791477664151608E-4
	380: -0.001501437691637251
	381: 5.508731474394474E-4
	382: -9.460270414766664E-4
	383: -0.001595202338391646
	384: -0.0022106619976576163
	385: 0.0015838230078226501
	386: -0.0021369026592503323
	387: -0.003578315496071296
	388: -0.0018242487325951027
	389: -0.0017108564899998454
	390: -7.531754575963431E-4
	391: -0.0018509053055701709
	392: 3.820145212145447E-5
	393: -0.0022485964083163203
	394: -9.163976154715536E-4
	395: -0.001747035315566811
	396: -0.0010003513168475489
	397: -0.0049500047220184485
	398: 8.142276616905418E-4
	399: 0.007518656865471729
	400: 0.0012036905007247365
	401: 0.0038502599253309538
	402: 0.005351123102421691
	403: -4.481562287844869E-4
	404: -0.002574878202090291
	405: -3.254331699797031E-4
	406: 0.0033024086597642052
	407: 4.286806287823126E-4
	408: -4.920543988438991E-4
	409: 0.003315543467024016
	410: -0.00406096427079127
	411: 0.0017290989034890894
	412: 6.166437786513869E-4
	413: 0.0011994440805072084
	414: 0.006741343666826879
	415: 8.405134752002424E-4
	416: 0.001623563738071579
	417: 0.0020251167822780652
	418: 0.002975955468047496
	419: 9.743064485142695E-4
	420: 0.004557843658316995
	421: -8.297460061669151E-5
	422: 0.003348744610115956
	423: -6.859460435559883E-4
	424: -0.001059005412717715
	425: -0.0022443858655396436
	426: 4.4747355749022634E-4
	427: 0.0018276810806232835
	428: 6.275488349748196E-4
	429: -0.0025517437230145644
	430: 0.0019640958339104775
	431: 2.858906354430231E-4
	432: 0.005062711201618356
	433: 6.036037188549645E-4
	434: -3.514201354496106E-4
	435: 0.0017350097561206485
	436: -1.7117833409286675E-4
	437: -0.0018090711163753852
	438: -0.002276784951338758
	439: 0.0038875431564246456
	440: 4.013346978854543E-4
	441: -0.003199203665115507
	442: 7.958596824827155E-4
	443: -3.194517020808393E-5
	444: 0.004659356969715358
	445: 0.0063999641301879994
	446: 0.0035695096248025454
	447: 0.0011973902707394818
	448: 2.930834991332461E-4
	449: -0.0026408174293966356
	450: 0.0011096705094416344
	451: 0.002053447659859943
	452: 0.002221595526299805
	453: 0.0032727799647613654
	454: 0.0030993063411882053
	455: 0.001038515538180477
	456: 0.002776140992653011
	457: 3.2719984860561224E-4
	458: -3.77168996410182E-4
	459: 0.005638956866554353
	460: -0.001224751328016607
	461: 0.00596758272060726
	462: 0.002950890193092812
	463: 0.0021308061799855285
	464: 0.004383791991573587
	465: 0.0020117480516920042
	466: -0.0017799953946181816
	467: 0.00226993699222293
	468: 0.0013756745326425725
	469: 0.0033534706309223164
	470: 8.608963103724145E-4
	471: 7.71205478558983E-5
	472: 0.0011153781931213743
	473: 0.0015481941165193217
	474: 8.617005253715438E-4
	475: 8.85773602595985E-4
	476: 0.0037599645590536946
	477: 0.0027046775078519965
	478: 0.002000369025958098
	479: 0.001986913982660746
	480: 6.044148028294783E-4
	481: 0.0033261401090143774
	482: 0.0020439333517363076
	483: -6.267453876008189E-4
	484: -2.2375787376079215E-4
	485: 0.0022732436614932216
	486: 0.005565278673101669
	487: 0.002363311754692738
	488: 0.0032503096904269446
	489: 3.6642751695519285E-4
	490: 0.005403228705547371
	491: 0.002038557511921787
	492: 0.005262376951201138
	493: -0.0013524929473884006
	494: 0.0031015677730078938
	495: 0.0019925724842792428
	496: 0.0018303762148247982
	497: 0.0017136662449379954
	498: 0.00138556155099211
	499: 0.0032604717745025125
	500: -7.781744771653188E-4
	501: 0.0036909673034900767
	502: 0.00438362890953413
	503: 6.905363817679422E-4
	504: 3.741386034160338E-4
	505: 0.0024478205724228104
	506: -6.17907235674457E-4
	507: 0.0021267384044618837
	508: -9.778065200829252E-4
	509: 0.001339079522717721
	510: -0.0012542962833765668
	511: 0.0010951257153591271
	512: 0.0019783121930165826
	513: 0.00221079192768327
	514: 0.004887714613881393
	515: 0.001902243193949572
	516: 0.0010268648842653154
	517: 0.0018969179249740777
	518: 0.004715448687436553
	519: 0.001472724765345373
	520: 5.168537148769281E-4
	521: -3.9396458262049206E-4
	522: -0.0045128282032429225
	523: 0.0030060955060541308
	524: 0.006135126038069982
	525: -0.0034248875721961244
	526: 0.0025742849251948366
	527: 0.0014016009496173106
	528: 0.002093398012475286
	529: 1.536293512212978E-4
	530: -0.0011673045744323954
	531: 3.3915937368841236E-4
	532: -6.055976575988693E-4
	533: -3.748819769070597E-4
	534: 4.713032022028641E-4
	535: 0.003033530037449421
	536: -8.311010764821313E-4
	537: 0.0031044179615700913
	538: -0.0013422935090538974
	539: 0.0021920038188082305
	540: 3.877705348706269E-4
	541: 0.006027405688303732
	542: 0.006811569150625707
	543: 0.001876400754496965
	544: 2.2722331379683178E-4
	545: 0.0024521812647086616
	546: 0.0054596697082333065
	547: -0.0020307504529382962
	548: 2.6260828796974832E-5
	549: 4.425536673271665E-4
	550: 7.668650565109732E-4
	551: 0.004304236098348369
	552: 0.005513672724699968
	553: -8.486878012922715E-4
	554: -0.0017560536558547644
	555: 0.00208853375877726
	556: 0.001104923104176156
	557: -0.0012522034594070208
	558: 0.0044720441443291846
	559: 0.0029639768223983466
	560: 0.00201505065210059
	561: 4.5133683823579793E-4
	562: 8.843884129219433E-4
	563: 0.0024075603973439685
	564: 3.27050424254223E-4
	565: 8.475622353951751E-4
	566: 0.004956680359099963
	567: -0.001217383304539553
	568: 0.0044368974051047705
	569: -4.911831858355127E-4
	570: 0.004049057152658028
	571: 0.0024015734064086153
	572: -9.77045059977272E-4
	573: 0.002931851051130127
	574: -0.00505094728876475
	575: -2.4118143552745094E-4
	576: 0.004191264786438283
	577: 0.004381549240732942
	578: 0.002325149268068196
	579: 0.004410778166318025
	580: -0.003643122711290596
	581: 6.36884819796942E-4
	582: -0.0016202477064985077
	583: 0.0019495393755161968
	584: 0.002716713620215911
	585: 0.005789125449466292
	586: -4.631904216362182E-4
	587: 0.0011744045175809405
	588: 0.003088103647999533
	589: 0.0055580071278584576
	590: -0.0011173858694671515
	591: 1.3309530388345427E-4
	592: 0.0016657949172087896
	593: 0.0029134797592769027
	594: 0.003958616144749122
	595: 6.225464836199209E-4
	596: 0.002252850835490043
	597: 0.0023737221410844644
	598: 4.80097655925966E-4
	599: -5.866441230412116E-4
	600: 0.00246979351581137
	601: 0.002077671815508719
	602: 2.61571973112152E-4
	603: 0.001669681057619138
	604: 0.002652765075618241
	605: 0.0032286621857755635
	606: 0.004008522271922948
	607: -0.0010755679090150884
	608: 0.00466690284572314
	609: 4.141428365351402E-4
	610: 0.003173104358105966
	611: 0.003974858591345723
	612: 0.005391329327245511
	613: 0.003175990479555813
	614: 0.00457077041473461
	615: 0.003991351420064343
	616: 0.0015527433263305176
	617: -0.003565976272237369
	618: 8.051776603710385E-4
	619: 0.002196440059602946
	620: 0.003540862454732988
	621: -0.0013449187829342344
	622: -2.46771142408584E-4
	623: 0.0021331189923601704
	624: 4.7792585203812465E-4
	625: 3.5051948644697107E-4
	626: 5.300114425303578E-4
	627: 9.81999498845699E-4
	628: -0.0010965618102574447
	629: 0.004846874282414697
	630: 0.0017064914955313764
	631: 8.960648606934327E-4
	632: 0.0018834383640442388
	633: 0.0020147508419942305
	634: -0.001416606792078823
	635: -2.119291324942994E-4
	636: 0.00668699411360928
	637: -9.15816048160853E-4
	638: 0.007855904055718458
	639: 0.006972730685860577
	640: -0.0033112067213235887
	641: 0.00381319430840925
	642: 0.0035505415700917455
	643: 0.005720937470481429
	644: -5.83146966679801E-4
	645: 0.0012719477300007869
	646: -0.0021311529974144035
	647: -0.002500801331289276
	648: -9.54518901159453E-5
	649: -0.0031528566477932074
	650: 0.0054298598181004715
	651: -0.00134931177700451
	652: 0.0024123087161042546
	653: 6.89840281562142E-4
	654: -8.801540742109294E-4
	655: 0.008163677588220609
	656: -2.2261812527229504E-4
	657: -0.001853358491360891
	658: 2.427779334760102E-4
	659: -3.7869764466252215E-4
	660: -0.0019341964675037276
	661: 0.0013768141741287811
	662: -1.1641280688905081E-4
	663: 1.1145487227946733E-4
	664: 7.371161009328375E-4
	665: 0.003342525812445672
	666: -0.0011551035722534185
	667: -2.538460438271663E-4
	668: -3.2892097797863727E-4
	669: -0.0019948183632075415
	670: 0.003106490605392241
	671: 0.004721144478641686
	672: 0.0015676960889697946
	673: 0.0020881707424978777
	674: 0.001838675671173845
	675: -0.0016868670580617725
	676: 0.0030334116508456345
	677: 2.8025065005954033E-4
	678: 0.004061069514302818
	679: 0.001187610289713079
	680: -0.002336637483688804
	681: 4.492671392307832E-5
	682: -0.0013925086043635236
	683: 0.003537691101319184
	684: 0.001292687747212792
	685: -4.5655003810778186E-4
	686: -6.295115094110744E-4
	687: 7.41254952607621E-4
	688: 0.003321180459870457
	689: 0.0025799659230824504
	690: -4.8167401579003564E-4
	691: 0.004623572009432049
	692: 5.874977037423256E-4
	693: 0.003319519561344799
	694: 4.813163660873984E-4
	695: 0.0031983698202416836
	696: 0.0026141938509529894
	697: 0.002387199037543728
	698: -0.0015790710135282473
	699: 0.005012348956131375
	700: -1.4165262007977537E-4
	701: 0.0022833085732814444
	702: -3.3169937702794306E-5
	703: -0.0011923501225123065
	704: 0.001485520248471001
	705: -5.21073376103993E-4
	706: -0.0020597114308334957
	707: 0.0014843213311282767
	708: -0.0019343032234576732
	709: 0.0048948128737151455
	710: 0.0031548776833079384
	711: 0.003391563796661761
	712: -0.0018956009259799836
	713: 0.0016304893768923426
	714: 0.0038396261011671177
	715: 3.561549969366069E-4
	716: -0.0037872272498421693
	717: 4.6080975756424827E-4
	718: -8.39359361659902E-4
	719: 7.300450373472498E-4
	720: -0.0010899852812166358
	721: 0.0027113590589677074
	722: -2.8592370253958417E-4
	723: -7.766116480321658E-4
	724: 0.001933033134005822
	725: 0.0015072551832634989
	726: 1.1411394510183346E-4
	727: 0.0014564433863889182
	728: -2.440628838968482E-4
	729: 0.0012664755229010599
	730: 7.658146103747563E-4
	731: 0.0030940054308851808
	732: 0.0021789899916839113
	733: 0.0015624391093697712
	734: -7.327636463279519E-4
	735: 0.0037196432984292274
	736: 0.0035225006301939374
	737: 6.340195804374106E-4
	738: -0.002132367818899184
	739: 0.0013903640315016202
	740: 0.0014450619061198544
	741: 0.002932882713507594
	742: 0.0014963121670751752
	743: -9.12122886222877E-4
	744: 0.0012692255474664393
	745: 0.004233913966006969
	746: 0.0019255329942783042
	747: 0.0028617664194115575
	748: 0.004234866727156162
	749: 0.0025874145983873567
	750: 6.91320551998914E-4
	751: -0.0010051907503937888
	752: 5.457344072871043E-4
	753: 3.4891943377671244E-6
	754: 0.0015065346143673
	755: -0.001046733212287436
	756: -0.001821664778405312
	757: -3.5759057406988546E-4
	758: 0.0011456273245055591
	759: 0.0025071187888370144
	760: 0.0011531573061628912
	761: 6.732699925061239E-4
	762: 6.363424048070689E-4
	763: 0.0017172180134705861
	764: 0.0013166386016752881
	765: 5.594668934283381E-4
	766: -5.198773090231718E-4
	767: 0.0026494329969819507
	768: 1.4269120282021518E-4
	769: 0.001956611518355263
	770: 7.423124398681709E-4
	771: -3.5498127004330405E-4
	772: 0.003585750325375251
	773: 2.2470089386728774E-4
	774: 0.005950427880411496
	775: 0.005158407817846761
	776: 0.005498702025971468
	777: 0.0036705107817733345
	778: 9.750147457018378E-4
	779: 0.0010423535228570033
	780: -2.9477880426693353E-4
	781: -0.001981213020630367
	782: 7.28268161195911E-4
	783: 1.0323743687995039E-4
	784: 0.0010505090099054578
	785: 0.005218175730360221
	786: 0.005556238935685157
	787: 0.004719832232953406
	788: 0.004811284229521349
	789: 9.072985042685786E-4
	790: 0.0039599035174742
	791: 0.003045083236789558
	792: 0.0018256314656854527
	793: 8.21062318327878E-4
	794: 0.0015758230583146448
	795: 0.004035164476612906
	796: 0.004138990931390305
	797: 0.0028318546605988295
	798: -0.0016260339031114839
	799: -0.0013349364205499966
	800: 0.002725260936867086
	801: 0.00505861485383538
	802: 0.0010566213146855088
	803: -0.0030458789118760735
	804: -0.0012389030171681035
	805: -3.0733198491169695E-4
	806: 0.0018704248423307593
	807: -6.205806145894532E-4
	808: 0.0025044803820762087
	809: -6.216434709275347E-4
	810: -6.0048163211545344E-5
	811: -8.581542483547254E-4
	812: 0.001131585203873486
	813: 8.650788857934963E-4
	814: -0.0011036591605928544
	815: -0.0017038029993934737
	816: 0.0019164627699572421
	817: -8.55810723740766E-4
	818: 0.002871451908649854
	819: 0.0065057487969914524
	820: -7.272143562719947E-4
	821: 1.668143400990915E-4
	822: 0.004343734994568663
	823: 0.003222091039610511
	824: 0.006137363675035587
	825: -0.004074538802998559
	826: 7.471497159345047E-4
	827: -7.093343990867861E-4
	828: -9.286019136012411E-4
	829: -0.0010540544737129983
	830: 0.002116302849149564
	831: 0.0012265446658272822
	832: -0.0013244186666862372
	833: -0.0019084872924042787
	834: -9.467776807115482E-5
	835: -1.3505212006755191E-5
	836: 0.005630893073686938
	837: 0.005213290759202912
	838: -1.1560549081865411E-4
	839: -0.0017999615110092294
	840: 0.0032637861101230963
	841: 0.0011352622815527923
	842: 0.0021092247618218333
	843: 0.002300443401228127
	844: -4.812738176925193E-4
	845: 0.0025403468391945443
	846: 0.0019576526225677853
	847: 0.001152356098362372
	848: 0.0020186318309676427
	849: 0.0011837745166409775
	850: 1.4687009311081586E-4
	851: 0.003470781100185938
	852: -0.0032951011478431756
	853: -8.195522796028437E-4
	854: 0.003741548417627263
	855: 0.003167129333152559
	856: 0.0010832487621564282
	857: 0.005944061841765335
	858: -2.6402046393223785E-4
	859: 0.0038843334134849644
	860: 5.822547349946319E-4
	861: 0.0036654775972415937
	862: -0.002869462427391736
	863: 0.001825577118997963
	864: -8.93394817559388E-4
	865: 0.004286155057484927
	866: 4.918976890110516E-4
	867: -0.0015169247197776607
	868: 0.0018166175341892573
	869: 0.0034917246779956226
	870: 0.0029009320434406124
	871: -0.0016957408044855399
	872: 0.0026259542353883323
	873: -1.2168840706583824E-4
	874: -0.0025007463438543242
	875: 0.00441009082277853
	876: 0.002519077792868566
	877: -0.0020219121738222216
	878: 9.020176498971355E-4
	879: 0.0048066617319400505
	880: 0.004817802359339463
	881: 0.0013217075315740685
	882: 0.0032011406084639592
	883: 0.0013090698138376127
	884: 0.0012786871829116749
	885: 0.005256451946264837
	886: 0.001344526050121608
	887: 5.830662997717372E-4
	888: -0.002622127547341856
	889: 0.0038539516996398872
	890: -3.274114223966562E-4
	891: 0.0018340083361974614
	892: 0.003770463409440459
	893: 0.004767595330571783
	894: 0.0042729585698940194
	895: -0.0012169093386819082
	896: -6.559439763505326E-4
	897: 0.0029679881851666892
	898: 3.1948921348997597E-4
	899: 7.042473510290082E-4
	900: -0.0011114655455259552
	901: -3.6491545239928985E-4
	902: 0.0022340802128379667
	903: 0.007337485562617309
	904: -6.786671112859041E-4
	905: 6.32929555207122E-4
	906: -0.0016356986109135863
	907: 0.00115071343899851
	908: -1.420075813019919E-4
	909: 5.117905138927346E-4
	910: 0.001052523946693561
	911: 0.003563288948995908
	912: -0.004472117807615831
	913: 0.0012153524649549123
	914: -0.0022311750367329784
	915: -5.551525136199729E-4
	916: 0.0015921572496340084
	917: 0.007963534082747805
	918: -6.541576626582164E-4
	919: -0.0011310021114208906
	920: 3.8330521161269115E-4
	921: 0.003196586490273265
	922: 0.0021910275733994836
	923: -0.0015482347491302618
	924: -0.004175012422067702
	925: -0.002274608000878425
	926: 0.0014465766720985047
	927: -0.0025222367990158753
	928: 8.480150934677341E-4
	929: 5.859055685604542E-4
	930: -0.0014737740147510803
	931: -0.003967777220288061
	932: -5.003562825087124E-4
	933: -0.003623121719260484
	934: -0.0020713985920549874
	935: -0.004002004162318383
	936: -0.0026687774102474547
	937: -0.0051022050258000134
	938: -0.0018227487894704188
	939: -0.003802680034838035
	940: -0.0023800687570210144
	941: -0.0016158122488309043
	942: -6.499017071926556E-4
	943: -0.004001967645256947
	944: -0.002909088616245916
	945: -0.002726236869583266
	946: -0.0016959571996447425
	947: -0.002960752592979574
	948: -0.0031698142134745266
	949: -0.0026013972133902227
	950: -0.002475801459936956
	951: -0.004191383075444247
	952: -0.0021443363381499518
	953: 2.456354941387637E-4
	954: -0.0019450733860821167
	955: -0.001891722477426256
	956: -0.003645787745102969
	957: -0.0012237451003567958
	958: 9.486291014609558E-4
	959: -0.002033636386205431
	960: 0.0017005815332967232
	961: -0.002975964188150325
	962: -0.0010205691627773264
	963: -0.0019651761970708934
	964: -0.0036771902413195692
	965: -0.001713674988031297
	966: -0.0019795993246298823
	967: -6.996689159286431E-4
	968: 1.9315883768696962E-4
	969: -0.001181131510306352
	970: -0.0019037569217609338
	971: 0.001141565576479064
	972: -0.0025575061435757682
	973: 1.1155455901221695E-4
	974: -0.003776479918895051
	975: -0.0029300780496979133
	976: -0.0016506352732527318
	977: 0.0011444568519795677
	978: 0.0010311616630867824
	979: -0.003956188978228239
	980: -9.897935268679487E-4
	981: -0.0015389085023978157
	982: -1.50333986102273E-4
	983: 0.004196539983193262
	984: -0.003872658547178478
	985: -0.006023997881063487
	986: -0.005524320325734106
	987: -5.56146169741147E-4
	988: -0.00206865905951177
	989: -0.0035465717151570483
	990: -0.0036065637021096553
	991: -0.003641113246693895
	992: -0.004661775065619411
	993: -0.0036601315474745705
	994: -0.001936353686724235
	995: -0.002988734488032276
	996: -0.002667424244656709
	997: -0.004064746574984357
	998: -8.267768364457029E-4
	999: -7.726446123761864E-5
Scarlett Johanssonembedding:
	0: 5.545165969582244E-4
	1: 7.992955117634815E-4
	2: 6.280119696047053E-4
	3: 0.0011931088695191756
	4: 7.51413417700557E-4
	5: 8.620877590564162E-4
	6: 8.700888441530926E-4
	7: -3.509444358188601E-4
	8: 1.0647157363132402E-4
	9: 0.0011533058721923631
	10: 5.916598146195305E-4
	11: 6.981387191116064E-4
	12: 4.371590909933384E-4
	13: 8.06903240069282E-4
	14: 7.24993367786607E-4
	15: 8.256490677569886E-4
	16: 5.055881891650871E-4
	17: 9.940612808484078E-4
	18: 7.032920478205127E-4
	19: 6.187660593601535E-4
	20: 0.001044859551953597
	21: 3.3309502115458974E-4
	22: 3.566938201000891E-4
	23: 2.5835731758545454E-4
	24: 4.8325409642238214E-4
	25: 5.699187533080884E-4
	26: 8.148471667515111E-4
	27: 3.2544240908035613E-4
	28: -2.401317051159222E-4
	29: 0.0012328003637910232
	30: 5.245955863670916E-4
	31: 7.054436751618928E-4
	32: 5.214411126330768E-4
	33: 0.0012382626090612172
	34: 5.73690159467283E-4
	35: 9.16844886654991E-4
	36: 1.9539743646650916E-4
	37: 5.09311714167914E-4
	38: 7.045365864558903E-4
	39: 3.687831302499274E-4
	40: 4.3376136564111586E-4
	41: 6.939055455222277E-4
	42: 8.100383390532774E-4
	43: 3.271602214090256E-4
	44: 5.118386881358683E-4
	45: 3.808011455728988E-4
	46: 1.7136303103522306E-4
	47: 4.988327678028247E-4
	48: 0.0012521787025022157
	49: 8.824850593586468E-4
	50: 4.792364846123735E-5
	51: 3.2084686610470815E-4
	52: 7.86410958686665E-5
	53: -2.00944617619763E-4
	54: -5.8800119665153416E-5
	55: 6.284566531195506E-4
	56: -9.588738199780041E-6
	57: 4.1070905023917636E-4
	58: 5.074350139984215E-4
	59: -2.1741284375180098E-4
	60: -9.797653146654225E-4
	61: -9.893348399190106E-4
	62: -7.781946639076102E-4
	63: -3.818356033885315E-4
	64: 2.305734074629887E-4
	65: 2.3552579169785936E-4
	66: 6.156870881845143E-4
	67: -1.718400940109266E-4
	68: 8.433090416664179E-4
	69: 7.279642784153903E-4
	70: 4.2924193508476403E-4
	71: -3.5747431195302243E-4
	72: 7.136031331391548E-5
	73: 2.725856450157609E-4
	74: 3.812386967147526E-4
	75: 6.28831902114171E-4
	76: -5.841607366648799E-4
	77: 1.0641849047398473E-4
	78: 3.30983067423765E-4
	79: -3.2599805412614105E-4
	80: 0.0010132127338213128
	81: 0.0012998546867140658
	82: 8.002071167140769E-4
	83: 8.572278832833838E-4
	84: 9.272383880799823E-4
	85: 7.533335672871404E-4
	86: 8.699811312706708E-4
	87: 2.450535885927662E-4
	88: -7.721911018368509E-5
	89: 3.2298240467005417E-4
	90: 5.34407234231856E-4
	91: 3.3637134408971004E-4
	92: 0.0010150077408722636
	93: 6.47885692003693E-4
	94: 2.8582279329602964E-4
	95: 8.5536770950473E-4
	96: 3.109151086052782E-4
	97: 0.0011530662403980195
	98: 0.0011575672631348485
	99: 7.735414957435795E-4
	100: 9.681335021613923E-4
	101: 7.351153892674504E-4
	102: 3.1666208130525734E-4
	103: 5.701869041311367E-4
	104: 1.4314485271799352E-4
	105: 4.065226595714423E-4
	106: 4.6269561494698456E-4
	107: 2.279842743219662E-4
	108: 5.592095894618018E-4
	109: 5.472589452055419E-4
	110: 8.644910001783354E-4
	111: 6.05032394314046E-4
	112: -9.550314256090733E-4
	113: 3.24973873003736E-4
	114: 3.399570391248746E-4
	115: 5.687825714022094E-4
	116: 4.331940799346541E-4
	117: 6.837287056637745E-4
	118: -5.012290299902145E-4
	119: -1.3142846074649592E-4
	120: 3.486983523254933E-4
	121: -7.01980186054271E-4
	122: -6.534215306023398E-4
	123: -7.692909938433035E-4
	124: -8.778155740848625E-4
	125: 1.1488502820650732E-4
	126: -1.900116248091505E-5
	127: 6.446503194023251E-4
	128: 7.758985605279869E-4
	129: 7.92402876100868E-4
	130: 7.613480538901469E-4
	131: 6.725164633560824E-4
	132: 8.172379032789578E-4
	133: 7.020916861552293E-4
	134: 9.101663652839239E-4
	135: 3.921688467145618E-4
	136: 9.523585351131446E-4
	137: 0.0015460355468022457
	138: 0.0012747018320399968
	139: 7.63260738383949E-4
	140: 8.321313793359109E-4
	141: 0.0016482850981773952
	142: 9.880745839065883E-4
	143: 0.001308736695654227
	144: 0.00124658039024028
	145: 8.545239961137983E-4
	146: 9.277965076705449E-4
	147: 0.0016488105904514504
	148: 9.093784797642534E-4
	149: 0.0012690222609779832
	150: 9.232516679696756E-4
	151: -9.162500829556134E-4
	152: 2.515316648304723E-4
	153: 1.9742424731780783E-4
	154: 4.216266907266815E-4
	155: 2.9449651252279427E-4
	156: -3.292396062493437E-5
	157: -2.249095208599083E-4
	158: -1.0938198644092588E-4
	159: -1.9325990375591113E-4
	160: -3.332027411393829E-4
	161: -1.4962234119887135E-4
	162: 2.4839840445482856E-4
	163: 5.156814173450535E-5
	164: 5.097801127284097E-4
	165: -1.645724820124779E-5
	166: 2.604113719104589E-4
	167: 5.895651502955864E-4
	168: 4.443156397725939E-4
	169: 4.3807110725884433E-4
	170: 8.172614756949361E-4
	171: -5.022118699530875E-4
	172: 7.813423717813865E-5
	173: -2.813805174251781E-5
	174: 0.0012704954300743903
	175: 8.158213842409291E-4
	176: 2.2263213567042176E-4
	177: 3.0473222278768066E-4
	178: -4.074608750598911E-5
	179: 1.4960244898878176E-4
	180: 1.7505870335533883E-4
	181: 3.715233281390152E-4
	182: 6.043055595578165E-4
	183: 1.308311658050767E-4
	184: 8.979227470565545E-5
	185: 3.190945039957582E-5
	186: -3.317810186773329E-4
	187: -7.110643738372496E-4
	188: 3.65746906194757E-5
	189: 4.938997067740592E-4
	190: 4.3019010536976895E-4
	191: 8.305215445116353E-4
	192: 3.9612997796688396E-4
	193: -3.9381475574933236E-5
	194: 0.0012904649802160915
	195: -1.0825206984958023E-5
	196: 5.825012682646241E-4
	197: 4.116421992073351E-4
	198: 2.7831195814526473E-4
	199: -1.8544264556376078E-4
	200: 3.854484440395424E-4
	201: 3.952375986811762E-5
	202: 6.388553835685965E-4
	203: -5.095176649202763E-5
	204: 3.550467145754072E-4
	205: -2.4049297913064314E-5
	206: 2.6757323460062864E-4
	207: 4.274812855423248E-4
	208: -1.1015890077737353E-5
	209: 4.4193868812411743E-4
	210: 3.161712314852028E-5
	211: -3.9041400364073594E-4
	212: 6.535332499011676E-4
	213: -2.2909284790831324E-4
	214: -1.9955837787531919E-4
	215: -1.0483140874381798E-4
	216: -4.900087081127262E-5
	217: 9.089833932987027E-5
	218: -2.033134967424618E-5
	219: -1.6968208640266654E-4
	220: -3.0010089318234366E-4
	221: 2.730953042920033E-4
	222: 6.653033318453381E-4
	223: -2.2317624012201632E-4
	224: 1.2502271798265553E-4
	225: 6.014155500348248E-4
	226: 9.230543130452567E-4
	227: 2.524068927312373E-4
	228: 6.60324677027653E-4
	229: 0.0010630838086022254
	230: 3.209230778479828E-4
	231: 6.730922053207865E-4
	232: 4.696891999086898E-4
	233: 4.291700362855814E-4
	234: 5.3498144527517404E-5
	235: 4.1846887325582634E-4
	236: -1.3205519710920752E-4
	237: -1.9287643418648215E-4
	238: 8.453278743494803E-5
	239: 4.4023882305975227E-4
	240: 4.8350361213913194E-5
	241: 5.877960227058665E-5
	242: 1.7173398259561116E-4
	243: 4.272521571678206E-4
	244: 4.8085781330344733E-4
	245: 2.9695851604871336E-4
	246: 3.7853277701996774E-4
	247: 8.241227539545272E-4
	248: 8.276623022066312E-4
	249: 9.26987667445648E-4
	250: 8.328601044427529E-4
	251: 3.458856257641893E-4
	252: 2.3937874968781546E-4
	253: -3.407488648364807E-4
	254: 1.5684168735844396E-4
	255: 8.192093392840473E-4
	256: 6.212258287295974E-4
	257: 0.0011216054120456558
	258: 8.481734033504095E-4
	259: 4.928957876498747E-4
	260: 8.878296992347449E-4
	261: 0.0011665187665131924
	262: -3.5734472050723746E-5
	263: 7.986784101521267E-4
	264: 6.191460735419118E-4
	265: -5.898359824723403E-4
	266: -1.3836270191660486E-4
	267: 2.0707347281875713E-4
	268: 3.3901971936948746E-4
	269: 8.525007956541666E-4
	270: 0.0010031754660397823
	271: 0.0010401169176633286
	272: 0.0010084804890138294
	273: 3.2726754887358505E-4
	274: 0.0011372562424397156
	275: 0.0010547412408444653
	276: 0.0015552198408284425
	277: 7.666919123101642E-4
	278: 0.0011447946744053894
	279: 0.0013229862636144902
	280: 0.0012031034327770883
	281: 4.890573300962622E-4
	282: 2.6255244334450926E-4
	283: 2.669085306639424E-4
	284: 4.5046723825994923E-4
	285: 5.212633850317333E-4
	286: 0.0010662791508246267
	287: 8.139588303183009E-4
	288: 7.183775759855985E-4
	289: 0.001360416792553842
	290: 8.667234632297429E-4
	291: 9.513272865841688E-4
	292: 2.9879493182206245E-4
	293: 6.361301215710276E-4
	294: 0.0010519027356035234
	295: 3.873297592707966E-4
	296: 0.0015843780656745747
	297: 0.0010049421103291397
	298: 0.001266290276245206
	299: 9.328458273335354E-4
	300: 1.5741685858336463E-4
	301: 4.253047416979989E-4
	302: -2.491098498120746E-5
	303: -3.3453398106580393E-4
	304: 5.662152418355529E-4
	305: 3.423775660185103E-4
	306: -6.331954116054258E-4
	307: 2.6015336213624737E-4
	308: -2.827408431184955E-4
	309: -1.9123300773499102E-4
	310: 1.054193950646109E-4
	311: 3.5904923624475733E-4
	312: 3.3672067915708467E-4
	313: -7.601425652294374E-4
	314: -4.8699619123056026E-4
	315: -2.2482219117151634E-4
	316: 5.010785411243547E-4
	317: 4.262046599726231E-4
	318: 4.601948679833729E-4
	319: 4.430777294236622E-4
	320: 3.121898757574187E-4
	321: 2.255608088653838E-4
	322: 2.2436053403289294E-4
	323: -8.19394813916966E-5
	324: 7.964294419048787E-5
	325: 1.0965086832436823E-4
	326: 6.556718431424792E-4
	327: -1.9394777145477076E-4
	328: -1.5028041464116215E-4
	329: 2.440134682788825E-4
	330: 5.401787877817727E-4
	331: 5.389180098562829E-4
	332: -1.7766603163486526E-4
	333: 5.887606640718068E-4
	334: 9.182516339706914E-4
	335: 0.0010716171458297066
	336: 0.0010118971974968657
	337: 6.638049066771598E-4
	338: -4.21171042539932E-4
	339: 1.8506919321167179E-4
	340: 4.5458358868626916E-4
	341: 5.430809156771896E-4
	342: 8.789442429160653E-4
	343: 0.0011446265734072025
	344: 9.527917312854185E-4
	345: 7.287435851291103E-4
	346: 0.0011257809943504388
	347: 0.001133712645268915
	348: 8.64521718027531E-4
	349: 9.63687712618173E-4
	350: 4.6363381630364E-4
	351: 9.93636580047309E-4
	352: 7.868678792883832E-4
	353: 0.0010209512682575782
	354: 2.2350310777316407E-4
	355: 5.58717076236423E-5
	356: -4.7412707613756925E-4
	357: 6.870642695703763E-4
	358: -4.385221348880453E-4
	359: -3.496602299118908E-5
	360: 0.001054032970895838
	361: 8.103865806412052E-6
	362: 5.749286864270923E-4
	363: 6.857976300082601E-5
	364: 3.238779992453341E-4
	365: 4.4842456607459605E-4
	366: 7.147906721187131E-4
	367: -1.1248971089214845E-4
	368: 6.621051027626633E-4
	369: 6.794707253539517E-4
	370: 7.972389557713372E-4
	371: 9.005057442528949E-4
	372: 8.254651032492482E-4
	373: 7.314944296075197E-4
	374: 7.211764903257828E-4
	375: 5.893576320678292E-4
	376: 6.758814116992648E-4
	377: 4.583020468144844E-4
	378: -2.3797787000267437E-4
	379: 2.593165011712042E-4
	380: 1.753336251035598E-4
	381: 1.4174694868145286E-5
	382: 3.1033393099396604E-4
	383: 0.00124943413399033
	384: 9.431347674590247E-4
	385: 4.892933756931279E-4
	386: 9.185152590773444E-4
	387: 0.0011551047736465209
	388: 8.096022462230701E-4
	389: 1.9387486761763523E-4
	390: 3.22045242551642E-4
	391: 7.201347265394497E-5
	392: 0.0013106311282508794
	393: 9.07998883034244E-4
	394: 2.9310721324517317E-4
	395: 3.582104381098769E-4
	396: 7.031576920381417E-4
	397: 0.0011313268086951605
	398: -1.4758294583050015E-4
	399: -0.0018896638822617504
	400: -0.0014428979016389803
	401: -0.001395769859793758
	402: -6.23833885015547E-4
	403: 0.0014138085073981484
	404: 0.0018513252106336243
	405: 6.066978265766211E-4
	406: -3.2877534786573005E-4
	407: 3.316646573601266E-4
	408: 0.0013403495463228724
	409: -2.1070604237397248E-4
	410: 4.942154731044725E-4
	411: -0.0020270226375241414
	412: 6.104390131587376E-5
	413: -5.823049415068984E-4
	414: -0.001697537696196714
	415: -3.254294331571105E-4
	416: -2.5322849021626166E-4
	417: -7.888541950471414E-4
	418: -4.101401716693784E-4
	419: -0.0015166581851078196
	420: -0.0013340686551232945
	421: 4.4210073218938926E-4
	422: -3.8457143704781157E-4
	423: -9.731860519040042E-5
	424: -2.6712821306674566E-4
	425: 9.212129755153208E-4
	426: 2.4269078595808504E-4
	427: 4.871443064719763E-4
	428: -8.674059652187042E-7
	429: -8.035720098203123E-4
	430: -9.202889331713108E-4
	431: -5.004696173879762E-4
	432: -0.001488744085536042
	433: -4.995925992165604E-4
	434: -7.780936702008113E-4
	435: -3.6868315249418494E-4
	436: 3.7029898422481696E-4
	437: 6.299686171009813E-4
	438: -4.0789942414860543E-4
	439: -7.433016152384979E-4
	440: -2.2203917554715208E-4
	441: -2.617196515333035E-4
	442: 3.1555334990740643E-4
	443: -0.001568430619044099
	444: -2.0706207253443662E-4
	445: -0.001394634914154966
	446: -3.7074092561787867E-4
	447: -9.392639205776852E-4
	448: -4.4312812296557115E-4
	449: 0.0015948189225674118
	450: 1.142683452975794E-5
	451: -0.0020850497241077016
	452: -0.0024654465764757053
	453: 2.511608481855015E-4
	454: -4.0656003738391637E-4
	455: -5.136457453531661E-4
	456: -0.0014973031447433494
	457: -0.0026152013428021544
	458: 4.098524233898191E-5
	459: -0.001997727020713941
	460: 0.0011632418768768174
	461: -0.0015024694147088302
	462: -4.547082986495843E-4
	463: -9.343438085104777E-4
	464: -0.0011547276557185456
	465: -0.0012323103653248152
	466: 6.854475100763734E-4
	467: -1.3695346867676741E-4
	468: 5.683499723749311E-4
	469: 3.190205536498601E-4
	470: -7.163944011446022E-4
	471: 5.353891425519761E-4
	472: 5.216505010561207E-4
	473: -2.074413700100572E-4
	474: -0.0015998527779163834
	475: 2.7860216875081744E-4
	476: -7.331923381546747E-4
	477: -4.2357910831543476E-5
	478: -4.653268701118721E-4
	479: 5.324638307207203E-4
	480: 1.202790714000488E-4
	481: -4.500325095125433E-4
	482: -1.3425493090084243E-4
	483: 8.699526945340068E-4
	484: 0.0011261711941988255
	485: 2.672245918232162E-4
	486: -8.729310164980254E-4
	487: -0.0022109360589975804
	488: -0.0010384099204136267
	489: -6.51216851235606E-4
	490: -9.507621015037E-4
	491: -5.596681322826123E-4
	492: -4.477108168008871E-4
	493: 0.0010337217001815811
	494: -6.645769876827055E-4
	495: 3.8429356406306325E-4
	496: -8.329977711565013E-4
	497: 9.746106053531803E-5
	498: 4.3287791054092496E-4
	499: -0.0015907388617783704
	500: 6.91420390578016E-4
	501: -0.0021548731299352512
	502: -3.9416438561668454E-4
	503: -9.790048264614354E-4
	504: -6.6789110539865E-4
	505: -1.7413034673103398E-4
	506: 2.6516399249860225E-4
	507: 2.010117760177616E-4
	508: 1.1441239481695611E-4
	509: -2.677510613781686E-4
	510: 0.0015587929759218525
	511: 3.6363987531183226E-4
	512: -1.9962104627931318E-4
	513: -0.0017913955705876384
	514: -0.0011357899071928774
	515: -0.001763017518233784
	516: -4.7274122434853583E-4
	517: 5.235241412981473E-4
	518: -7.432582597405153E-4
	519: 2.711818584999117E-4
	520: -5.753703828292167E-4
	521: 2.010245199861752E-4
	522: -9.122145820970004E-4
	523: -0.0015344997356093741
	524: -0.0010148990465626828
	525: 9.944998148299319E-4
	526: 4.351520424085452E-4
	527: 3.5787660949731647E-4
	528: -6.637500675365315E-4
	529: -7.391905872655126E-4
	530: 3.754188894835491E-4
	531: -4.6397618524032715E-4
	532: 8.308463073918394E-4
	533: 2.3436159195560696E-6
	534: 2.094037886765454E-4
	535: 6.345713757158854E-4
	536: 0.0014703925568960174
	537: 4.415235240381692E-4
	538: 4.930917098406337E-4
	539: 9.899880525739121E-5
	540: 6.858592117813906E-4
	541: -0.0012646633046737913
	542: -0.0016276912100613797
	543: -4.8503578462773115E-4
	544: 3.924158295684266E-4
	545: -5.42509794988863E-4
	546: -8.821490624100402E-4
	547: 0.0014837669444439107
	548: 8.306240094698824E-4
	549: -8.806127529909813E-4
	550: 4.362288160161685E-4
	551: -4.683204999549046E-4
	552: -0.00214903399237192
	553: 5.57241790115932E-4
	554: 8.860699670792885E-4
	555: 4.802917752584264E-4
	556: 1.3296090434207413E-4
	557: 2.2790213731696402E-4
	558: -0.002541297212107075
	559: -5.46225122065853E-4
	560: -8.624299916950946E-4
	561: 9.674174104562887E-4
	562: -2.0642951321471576E-4
	563: -1.1752450762740552E-4
	564: 4.562536766328105E-4
	565: 0.0010292791901384047
	566: -0.001651176785907344
	567: -7.87436871609804E-5
	568: -0.0020327221773160154
	569: 6.615610735304604E-4
	570: -0.0014490053347262304
	571: 8.333119964755171E-5
	572: -5.807628182631232E-4
	573: -2.7888755336353063E-4
	574: -3.137239242707407E-5
	575: -3.960782223352665E-4
	576: -3.981774491456386E-5
	577: -7.962433176031527E-4
	578: -0.002020204564961987
	579: -4.424606072819917E-4
	580: -1.0510772418845772E-4
	581: 7.732822783588312E-4
	582: -2.036478003260666E-4
	583: 2.5300766043186076E-4
	584: -0.0015400702372504625
	585: -0.0021117107442872336
	586: 9.752331906050926E-4
	587: -0.0010094851609180572
	588: -8.941339469659942E-4
	589: -0.0011335944920846971
	590: -6.491018472322055E-4
	591: -0.0015306754501922004
	592: 8.349077809919401E-4
	593: -0.002208131157217788
	594: -8.330142373079667E-4
	595: 7.9583894891073E-4
	596: -9.493547705430909E-4
	597: -0.0010292613609974035
	598: 9.740013327784955E-4
	599: -1.4362701213899685E-4
	600: -4.275105180738009E-4
	601: -0.0016220195704155138
	602: -5.85726080389541E-4
	603: 6.309660805416824E-4
	604: -8.835130755075442E-4
	605: -0.0010893745477752032
	606: -7.805721292252581E-4
	607: 5.426134832692024E-4
	608: -0.0014591226965181086
	609: 0.0010463587795046824
	610: -0.00202012721145437
	611: -4.730129075632643E-4
	612: -7.51732655293367E-4
	613: -7.566866333833327E-5
	614: -0.002731259211521468
	615: -7.218984933766589E-4
	616: -5.62797817286901E-4
	617: -0.002039367146051276
	618: -7.392304611474404E-4
	619: -3.29697545269521E-4
	620: -9.47009976998023E-4
	621: 1.9127971937017268E-4
	622: -0.0010796571530989466
	623: -3.5998385054100213E-4
	624: -1.313763125534734E-4
	625: 0.0012605324320741655
	626: -5.643770466585608E-4
	627: -2.726734334783867E-4
	628: 8.560301913615869E-4
	629: -0.0014877632173597886
	630: -8.460808616538015E-4
	631: -0.0010185800312634537
	632: -4.288862023460999E-5
	633: -0.0010436009107994623
	634: 0.0016333624690289437
	635: 2.3428788480112664E-4
	636: -0.0019517066592166664
	637: 2.1913021032674942E-4
	638: -0.002053072160775978
	639: -0.0013797200247694533
	640: 0.001265145959226013
	641: -0.0021239224411477966
	642: -6.98600943324226E-4
	643: -0.001652928729630553
	644: -2.5377090327067807E-5
	645: -9.090882930855453E-4
	646: 2.2577374782791325E-4
	647: -9.182422869789892E-5
	648: 7.715718449121307E-4
	649: 8.651012692694955E-4
	650: -0.0021013292297151127
	651: 5.044044675756196E-4
	652: -0.0016078996150823933
	653: 2.0230755441065493E-4
	654: 2.655091484288793E-4
	655: -0.0017460579867863335
	656: 2.413553561438492E-4
	657: 8.810034427905853E-4
	658: -0.0011172675296730692
	659: 1.5190511120778723E-4
	660: 8.079499843053656E-4
	661: 3.567570929029751E-4
	662: 5.636148952132319E-4
	663: 6.901679144885914E-4
	664: -2.862227807103634E-4
	665: 8.425480520787643E-5
	666: 6.102251097113618E-4
	667: -0.0014776923484104006
	668: 6.962633844201285E-4
	669: 2.4050848911466745E-4
	670: -1.1959037070981503E-5
	671: 1.889122267643353E-4
	672: -6.86662768297823E-5
	673: -4.8544986157856955E-6
	674: 4.360686144800042E-5
	675: 9.698994392583145E-4
	676: -7.389867727033357E-4
	677: 3.0861216440300295E-5
	678: -0.0020418673172328265
	679: -8.542434016521862E-4
	680: -8.853048487902515E-4
	681: -0.0012033959286219136
	682: 2.4291314417710386E-4
	683: -0.0022058599396605765
	684: -0.001873221548986794
	685: 9.584763923907473E-4
	686: 0.0010951354310885298
	687: -5.804905933092231E-5
	688: 3.518279646731563E-5
	689: -0.0015153054299533628
	690: 6.335704362272616E-4
	691: -0.0014558626324375332
	692: -6.00353545546126E-4
	693: -5.626245606420202E-4
	694: 6.688784395628879E-4
	695: -4.941745036777563E-4
	696: -9.72230926056452E-4
	697: -0.0021392409940956284
	698: 6.21413928893408E-4
	699: -0.001735761044556897
	700: -9.484234176840703E-4
	701: -7.466033861328764E-4
	702: -3.347557344341335E-4
	703: -6.50221778682913E-4
	704: -2.205903500362092E-4
	705: 5.072510525131404E-4
	706: 0.0010017609155603695
	707: -4.8532372104740724E-4
	708: 3.5880344677219757E-4
	709: -5.222595975287206E-4
	710: -1.3967549401384296E-4
	711: -9.814083633093715E-4
	712: -2.0139803107212766E-4
	713: 2.4251923148353063E-4
	714: -0.001060113625109145
	715: -6.683934854618957E-5
	716: -0.0010999776666013145
	717: 9.487870205763034E-4
	718: 6.835921861564071E-4
	719: -5.481778095854296E-4
	720: -3.2374150082470273E-4
	721: -9.331239610766893E-4
	722: -0.0010238312213915555
	723: -6.826237294749901E-4
	724: 6.051029135307349E-4
	725: -9.02261558455226E-4
	726: 9.911705397505864E-4
	727: 3.035768442347857E-4
	728: -0.0013270799492151617
	729: 7.469956627986792E-4
	730: 7.689879455330873E-4
	731: -0.0015076240133011342
	732: -4.0551369579378514E-4
	733: -6.242921838017465E-4
	734: 8.313083588510245E-4
	735: -0.001747198963846156
	736: 1.0687613496404778E-4
	737: -3.5009325426348965E-4
	738: 3.6310908928637817E-4
	739: 3.7784767713500746E-4
	740: -4.4757498758837713E-4
	741: -5.960453125528576E-4
	742: -7.8932835914541E-5
	743: 2.487465490621573E-4
	744: 2.4091692639673895E-4
	745: -1.3397960794158227E-4
	746: -4.4469335882848084E-4
	747: -4.22264723410191E-4
	748: -0.001149601807599186
	749: -9.215181379696116E-4
	750: -6.018446168714903E-4
	751: 6.224199407895512E-4
	752: -0.001402635920825202
	753: 1.7756899004698888E-4
	754: 1.5730263579402475E-4
	755: 1.7263891407574603E-4
	756: 2.579509868350235E-4
	757: 6.932918666492755E-4
	758: -4.4788786787279214E-4
	759: -8.563994187494765E-4
	760: -6.147577325083516E-5
	761: -8.64352382060876E-4
	762: -2.558178949055823E-4
	763: -9.961254492989672E-4
	764: -8.11716109758841E-4
	765: -5.275385784185827E-4
	766: 4.519337317822119E-4
	767: -3.73572141495401E-4
	768: -7.922198114526771E-4
	769: -0.0011604496108694072
	770: -5.229898069855427E-4
	771: 6.274482346740564E-4
	772: -0.0012743873414324855
	773: -2.510597338329404E-4
	774: -0.0010461238606443008
	775: -0.0018245739851506422
	776: -0.0018096703988956862
	777: -3.4711705203631864E-4
	778: -3.3948964953229053E-4
	779: -7.256010906676611E-5
	780: 5.573268255938414E-4
	781: 1.2494806533368675E-4
	782: 8.838317979689521E-5
	783: 6.073219744571053E-4
	784: -6.030869846729114E-4
	785: -0.0013835231170355976
	786: -6.97572981672653E-4
	787: -5.837766128059528E-4
	788: -9.17652532451299E-4
	789: -4.026285138256422E-4
	790: -7.054830330871064E-4
	791: -4.283346579481524E-4
	792: -5.406723972819485E-4
	793: -0.0010069072667005271
	794: -4.416936624448247E-4
	795: -9.008892103264222E-4
	796: -5.257809644054733E-4
	797: -0.0013329863557861382
	798: -5.310583264680563E-4
	799: 5.871307898119676E-4
	800: -3.711948359974227E-4
	801: -9.164627493461122E-5
	802: 7.792990969938535E-4
	803: 0.0017748059849598226
	804: 4.5897546490291757E-4
	805: -0.0011189050699446086
	806: -3.9513503980169603E-4
	807: 3.622513631111233E-4
	808: -0.001532797501138722
	809: -1.619686882472085E-4
	810: 3.972278176068535E-4
	811: 4.982550442131742E-4
	812: 3.9066053400097373E-4
	813: -0.001330415829435369
	814: 0.0011356315258521858
	815: 3.25046556055168E-4
	816: -3.2554305292543603E-4
	817: 0.0010607379382068774
	818: -4.4573213788610597E-4
	819: -0.0019170541738268388
	820: 0.0011588586348839048
	821: 8.241747341981466E-4
	822: -8.831307380908486E-4
	823: -0.002578119588953788
	824: -0.002435557340349917
	825: 0.0010263201576729067
	826: -7.749335243984347E-4
	827: 0.0011057558979945471
	828: -3.681817001994339E-4
	829: 4.642266035956452E-4
	830: -5.498125031581108E-4
	831: 2.1839979007995402E-4
	832: 1.0460969838213474E-4
	833: 0.001676857102179041
	834: -0.0018824684280781647
	835: 1.2240415847317992E-4
	836: -0.001924372651213981
	837: -0.0019998250159382713
	838: -0.0010512697375925837
	839: 2.59502512095233E-4
	840: -6.910920207196726E-4
	841: -0.0022709089454431824
	842: -1.2997615083827806E-4
	843: -0.0012706814835589492
	844: 8.142965732560957E-4
	845: -0.0014344406881913923
	846: 5.043656290911983E-4
	847: 0.0010468016177927334
	848: -3.0091234424499286E-5
	849: -2.3980675166813435E-4
	850: -8.595742691137547E-4
	851: -5.842239655922519E-4
	852: -5.133445330250761E-4
	853: 7.695126176888485E-4
	854: -5.070279654286031E-4
	855: -1.5140260527250217E-4
	856: 7.801510088094608E-4
	857: -3.428751388815949E-4
	858: 3.966930091143535E-4
	859: -9.498407611575541E-4
	860: -1.0031812785966636E-4
	861: -5.313355919714478E-4
	862: -6.650586737688845E-4
	863: 4.501319560013398E-4
	864: 0.0010577603701827352
	865: -6.921028097296389E-4
	866: 2.3702273400120284E-4
	867: 0.0013193116271698984
	868: -9.442497373535197E-4
	869: -0.002221597535271756
	870: -9.018779434148852E-4
	871: 0.0014456436831102606
	872: -8.610269689796797E-4
	873: 3.6779146457670395E-4
	874: 0.0017541065388518536
	875: -0.0017168519914985741
	876: -2.6727759696633846E-4
	877: 2.7899984459977477E-4
	878: 2.88455937218173E-4
	879: -0.002001847557836592
	880: -4.262028725405317E-4
	881: -1.9876350576540915E-4
	882: -6.734725737703232E-4
	883: -4.585596261910144E-4
	884: 6.631278691361485E-4
	885: -0.002316972191326238
	886: 7.371947815662094E-5
	887: -0.0020032058123327376
	888: 0.0010016631189460313
	889: -0.0018675686547573295
	890: -8.976710477324875E-5
	891: 4.094544961257683E-4
	892: -3.084356800155128E-4
	893: -4.7684927069529707E-4
	894: -1.313918782833317E-4
	895: 9.589629419443937E-4
	896: 8.999287248684698E-4
	897: -3.6314883998796144E-4
	898: -0.001268631519456744
	899: -9.397376206536479E-4
	900: 1.587594449322587E-4
	901: 1.2143492035709525E-4
	902: -0.0022442673926969326
	903: -0.0024350759424665836
	904: -1.120244773395808E-4
	905: -5.092259396732963E-4
	906: -0.001894350865927196
	907: -4.959782172720866E-4
	908: 8.495950893738311E-4
	909: 1.8848817302866442E-4
	910: -0.0011702070229607218
	911: -0.0017675890238136637
	912: -1.5689887721756653E-4
	913: 0.0010699863420738503
	914: 8.593681365377544E-4
	915: 9.067192744530651E-5
	916: -6.222016014096664E-4
	917: -0.0014438657286367845
	918: -9.221418439971468E-5
	919: 3.413889768553293E-4
	920: 8.656447404474056E-4
	921: -8.571083462308446E-4
	922: -4.273076409044944E-4
	923: -1.502696558823773E-4
	924: 1.1846073931165453E-4
	925: 8.423011903124602E-4
	926: 6.57233100420964E-4
	927: 9.687791941070596E-5
	928: -8.993460972901081E-4
	929: -0.002231667203373058
	930: 8.202100041942114E-4
	931: 5.147382018118438E-4
	932: -0.0011382388146544628
	933: 6.502796889610126E-4
	934: -3.086354393988423E-4
	935: 5.240920543463691E-4
	936: -5.898287693024662E-4
	937: 1.4113838316640972E-4
	938: -5.042283997696018E-4
	939: 4.023498563986556E-5
	940: 7.941529384722589E-4
	941: 8.196538277279398E-4
	942: 6.29951650969016E-4
	943: -2.1270972310001687E-4
	944: 1.6540747903759554E-4
	945: 8.557792873915247E-4
	946: 1.181468729465226E-4
	947: 2.3617815676361563E-4
	948: -1.3183831218414052E-4
	949: 2.2248876748580116E-5
	950: 2.0881030775686814E-5
	951: 3.25298302299147E-4
	952: 5.4871918171432E-4
	953: -6.138542995374771E-4
	954: -3.344785568709794E-4
	955: 1.3822424685790656E-4
	956: -4.145483579387179E-4
	957: 4.2618687300369646E-4
	958: -6.268275245985233E-4
	959: 7.463908459149363E-4
	960: -7.371308930993544E-5
	961: 4.359735277802196E-4
	962: 6.499841984763014E-4
	963: 5.02294840756134E-4
	964: 0.0010485620982256538
	965: -4.504736395607811E-5
	966: -8.269134623571865E-4
	967: 1.2965415687888566E-4
	968: -5.303395132197404E-4
	969: -1.0358932013600591E-4
	970: 8.957770777568516E-5
	971: -0.00161162519763663
	972: 8.72768892052893E-4
	973: 6.284864354695825E-4
	974: 9.85388687181694E-4
	975: 3.883892136478913E-4
	976: 0.0012085779343822252
	977: -1.6327657531939592E-4
	978: 2.654750361329786E-4
	979: 0.0011643595208953499
	980: 5.264593832722511E-4
	981: -7.780657723763493E-4
	982: -0.002049429988935374
	983: -2.2300573507536705E-5
	984: -5.454966622760923E-4
	985: -9.116843167665021E-5
	986: 1.4156398096982876E-4
	987: -6.396097564423984E-4
	988: 9.762094222222112E-5
	989: 2.64557359159501E-4
	990: -3.0467752927558793E-5
	991: 6.871450087810954E-4
	992: 7.362960115196077E-4
	993: 2.4687115957121964E-4
	994: 2.525473811923652E-4
	995: 1.1766272789385482E-4
	996: 1.715101849669551E-4
	997: 3.2084575561780975E-4
	998: -9.136365100590583E-4
	999: -0.0010978631417911393
Daniel Craigembedding:
	0: 0.0028880466421012923
	1: 0.0018888603134190364
	2: -6.999734762811068E-4
	3: -0.001131058903712437
	4: 0.0016512445966829815
	5: -5.935038310143664E-4
	6: 0.001565554278714911
	7: 0.0010426642275540346
	8: 0.001379286160027149
	9: 8.920284194313529E-4
	10: 2.650549503233327E-4
	11: -3.2665028500602453E-4
	12: 3.780250634473388E-4
	13: 3.2729617766072926E-4
	14: 0.0013677258042527295
	15: 3.227487724250888E-5
	16: -5.394289080529007E-4
	17: -1.9077935254713214E-5
	18: -5.282028790117418E-4
	19: -0.001041329954751875
	20: 0.003027010107254583
	21: 0.0025406661087132203
	22: 0.0024780527684574744
	23: 1.7428407022080313E-4
	24: 0.001117418267156908
	25: 0.00108401340624196
	26: 0.0018991131297640186
	27: 0.005471353158995085
	28: 0.002209300945709704
	29: 4.0199833321716494E-4
	30: 7.76900861392668E-4
	31: 0.0016038323605812727
	32: 4.986902739758154E-4
	33: -8.780387571986677E-4
	34: -0.0016455567019876228
	35: -0.0010370434673428075
	36: 7.268546366733382E-4
	37: -8.706574664898104E-5
	38: 7.019136478924109E-4
	39: 1.552332839659794E-4
	40: 0.0021515910917612032
	41: 4.3100592068516345E-4
	42: 2.913043876831188E-4
	43: -0.003834715744587166
	44: 0.0013933460126006364
	45: -2.8346989520084526E-4
	46: 0.0023209707465976846
	47: -3.625128139060301E-4
	48: -0.0021047123094034897
	49: 1.6234001127610578E-4
	50: 0.002622035308625181
	51: -0.0022747963613507873
	52: 0.003402369368572473
	53: 0.003351289312635825
	54: 0.001858263604596747
	55: 0.0025031571638535104
	56: 0.0017898323559872643
	57: 0.0011277525424256314
	58: 0.0015646603397927116
	59: 0.003530849940492254
	60: 0.00117334032797967
	61: -0.001736829359038882
	62: -2.2431162398921218E-4
	63: 4.294008115886031E-4
	64: 0.001370067297521159
	65: 3.6714574136709123E-4
	66: 5.216933889298541E-4
	67: 8.908883250862764E-4
	68: -2.7040304005586244E-4
	69: -4.74672052201174E-4
	70: 0.0038985148881431667
	71: -9.07021458915494E-5
	72: 0.001011704885924797
	73: 8.479218205516354E-6
	74: 0.0023489007646099237
	75: -6.453527092870978E-4
	76: 0.001112601629864777
	77: -9.037227758548156E-4
	78: 0.0025113829937965103
	79: 0.0024350500263524643
	80: 8.565313093536023E-5
	81: 0.00339315867774499
	82: 6.211528861930431E-4
	83: -2.999398677673937E-4
	84: 0.0012104036432513145
	85: 7.086771634385808E-4
	86: 0.0013488783104044916
	87: 0.0011277197722968455
	88: 0.0011365894492305947
	89: 0.004031322335315212
	90: 0.002213068776842721
	91: -2.2904778725474625E-4
	92: 8.729555755733293E-4
	93: -9.353459535367616E-5
	94: 0.001232925799067226
	95: 0.0027985072373767008
	96: -3.6900778607051985E-4
	97: 3.3442396330825866E-4
	98: 0.001245236232721674
	99: 0.004496475770358429
	100: 3.951581070176723E-4
	101: -0.0016138117504863254
	102: 7.82162209794947E-4
	103: 0.001176074115073221
	104: 6.43694439270169E-4
	105: 2.394522588272491E-4
	106: 4.2994911225428844E-4
	107: -0.0016262166029278038
	108: -5.994855363216736E-4
	109: 0.0010441182917173787
	110: 1.343698695933315E-4
	111: -0.001096321482656952
	112: 0.0021162352178099343
	113: 0.0036879432315012656
	114: 0.003234663959207787
	115: 9.668254546268285E-5
	116: -6.197863546385657E-4
	117: -8.32526951076794E-4
	118: 8.747142137266571E-4
	119: 0.0012678317731699181
	120: 0.001730017277788395
	121: -0.0011084931204764289
	122: -7.66421787466117E-4
	123: -9.174562549254933E-4
	124: 0.004246470771543382
	125: 7.235934661580693E-4
	126: 4.6728670796948514E-4
	127: 0.0028093250177081983
	128: 0.001042053361758112
	129: 0.0011409199420091625
	130: 0.003908436292146349
	131: 0.003090324523928964
	132: 0.006338039761311824
	133: 0.0011591095005535404
	134: 0.004161084144381394
	135: 0.0022505852225137603
	136: -1.5723310203936382E-5
	137: 3.263442112290835E-4
	138: 0.0033688657186264227
	139: 0.0013473588821776741
	140: 6.720827606216288E-4
	141: 7.922254721425394E-4
	142: 1.9652831364427804E-4
	143: 8.994577840372339E-4
	144: 0.002353327369966206
	145: -1.0869834700112298E-4
	146: 0.002584927248467186
	147: -0.0023702061698799453
	148: -0.002446239155619825
	149: 5.103590301484175E-4
	150: -0.0031769406585552824
	151: 6.379820856972896E-4
	152: 0.0020658033476439065
	153: 0.002813978105627635
	154: 9.502143248475068E-4
	155: 3.206445633562515E-4
	156: 0.001976698797136501
	157: 0.001934912015470485
	158: 0.0022072614136688733
	159: 0.0013954135149488389
	160: 1.5285100239795395E-4
	161: -4.288441680820992E-4
	162: 0.0020599726841841522
	163: -0.0010370884922938884
	164: -0.001987139638737078
	165: -0.0019323802303914497
	166: 0.0027795470549151313
	167: 0.003253776958495364
	168: -0.0012104828907580196
	169: 0.00137916275812945
	170: -5.703923729787861E-4
	171: -1.1410803360207829E-4
	172: 0.0014020382342079902
	173: 0.0037437435462047424
	174: -4.433477680998331E-4
	175: -0.0016954797403709132
	176: 3.393322037435769E-4
	177: -5.633739368761414E-4
	178: 2.203238824975937E-5
	179: 0.001844842698348475
	180: 9.23644191745549E-4
	181: 0.0035633230825301166
	182: -4.203621653887291E-5
	183: -0.0015422134912868718
	184: 5.3456783095007796E-5
	185: 6.34114896324079E-4
	186: -6.321071120591942E-6
	187: 1.1253109924606395E-4
	188: 0.0054825051414751835
	189: 1.1055564096340475E-4
	190: 0.003166246055340033
	191: -0.0018861437204210996
	192: -7.457453400350805E-4
	193: 1.9404195408589348E-4
	194: -2.755693997641552E-4
	195: 1.5151292664877957E-4
	196: -9.226174856004447E-5
	197: -3.1606017615989505E-4
	198: 1.0135271335969345E-4
	199: -3.755135200692353E-4
	200: 6.0844435407030115E-5
	201: -9.027473245660796E-4
	202: 3.540634671381665E-4
	203: 0.0021247024628685738
	204: 5.259935172033959E-4
	205: -0.0013265967708523535
	206: 0.0016034090899887797
	207: -2.4304004123584097E-4
	208: 0.001091232165909561
	209: 5.150655755871384E-4
	210: 0.001120531793634972
	211: 0.0027543260617187617
	212: 0.001132271488834415
	213: -2.783020630254441E-4
	214: -0.002856506385399377
	215: 0.004698479954143537
	216: 0.002576619569318914
	217: -8.409332544076026E-5
	218: 0.0034757760399978296
	219: -0.0023377299556530205
	220: -0.0011444541048303907
	221: -0.002349120914376515
	222: 0.001003285849951277
	223: -3.150448536662474E-4
	224: -0.0017947239729179728
	225: -0.0014984674545892647
	226: -0.0011426587933661902
	227: -0.0010169156845885063
	228: -9.518581707741903E-5
	229: 0.0010665836699435243
	230: -4.263463975302515E-4
	231: -9.482222629969895E-6
	232: 0.0011187293285605225
	233: -8.814842333279278E-4
	234: -0.002462058440844005
	235: -0.00232722795640128
	236: 5.38819582160688E-5
	237: -6.1551332074453E-4
	238: -0.0011170822667596289
	239: -0.0018403097597072726
	240: -3.710921582650398E-5
	241: -8.743576886715358E-4
	242: 5.829257503685098E-4
	243: 4.70455427395677E-4
	244: -0.0029255895601924863
	245: -3.012300746935988E-4
	246: 1.9570765556698418E-4
	247: 7.063148484047768E-4
	248: 5.698450035437571E-4
	249: -5.406415744459848E-4
	250: -1.0196209922479202E-5
	251: -2.775321351455901E-4
	252: -7.649655357361393E-4
	253: 0.003503068107507596
	254: -0.0010974192443527447
	255: -9.03868785228347E-4
	256: -0.0020357311210239233
	257: 0.001630971598531996
	258: 0.0028252469135560086
	259: 0.0012252875763880597
	260: -0.0010329696983428763
	261: -0.0018253334014331909
	262: 0.0011816806830774972
	263: 7.023689347530144E-4
	264: 5.474467580534287E-4
	265: 6.812193528908035E-4
	266: -0.0011584126433923489
	267: 6.619462479664938E-4
	268: -2.3395254786504676E-4
	269: 3.6945076107060097E-4
	270: 0.002040380344364366
	271: -0.0013690814846689483
	272: 8.270672218151027E-4
	273: 5.573143200614508E-4
	274: 8.79593738157454E-4
	275: -0.002274187942789347
	276: -0.0016178839432788846
	277: 0.0025375646659050776
	278: 0.0012541715955025337
	279: 0.0024979668387609608
	280: -4.706576167373795E-4
	281: -0.0019835266187072202
	282: -1.4210417345855375E-4
	283: 0.0016580633713334635
	284: 2.9392362071847464E-4
	285: -3.911600492689678E-4
	286: -0.0020490742638173925
	287: 0.0012701727335664309
	288: 2.8464991055923423E-4
	289: 1.4972072692289798E-4
	290: 7.28807844378345E-4
	291: -0.0019116637041485195
	292: 0.0010701311642519439
	293: -7.665442489289459E-4
	294: 5.903620386885116E-4
	295: 0.001501222384118538
	296: -9.962224915547617E-5
	297: -1.465494705105144E-4
	298: -6.970965591929085E-5
	299: -5.28895053626528E-4
	300: 0.0010570163549824027
	301: 0.0052452669875474554
	302: 4.903818926632801E-4
	303: 0.0010275569140327848
	304: 0.00338701618310799
	305: 0.001882924487163188
	306: 0.0011025334697058438
	307: 0.002866284186608282
	308: 0.0011395563708180819
	309: 0.0037011558345466738
	310: 0.003711143219361287
	311: 0.001456932539138635
	312: 0.0024094553598236683
	313: 0.004141850003439158
	314: 0.0012984764131167216
	315: 0.003456067403605304
	316: 0.0018846717182851686
	317: 0.002892873918582738
	318: 0.0019631196623287064
	319: -1.333356946329324E-4
	320: 6.343190045397926E-4
	321: -2.9099389391075655E-5
	322: 0.002604628867044337
	323: 7.211450953325879E-4
	324: 0.0027481235319596104
	325: 0.002285453956882408
	326: 0.0030942742433712955
	327: 8.68730130160672E-4
	328: 8.51640402565345E-5
	329: 0.0010542715291373928
	330: 0.001081674354533512
	331: 0.0018790882414313657
	332: 0.004319066244823068
	333: -0.0010634492780289377
	334: -8.284209257901194E-4
	335: -9.206824482896323E-4
	336: 0.0011212602114403273
	337: 0.001224203688718886
	338: -1.2486871822639955E-5
	339: -5.885385180965811E-4
	340: -0.0010841290490771287
	341: 0.0012012473155725782
	342: -7.296614914760696E-5
	343: -0.0011293035458026788
	344: 0.0014115320653887175
	345: 9.892907169135325E-4
	346: -8.327492108680091E-4
	347: -0.0013826191635229132
	348: 6.361961189562177E-4
	349: -0.0010212256332523934
	350: 4.6044212113011097E-4
	351: -0.0016110377828197878
	352: -7.487500414640235E-4
	353: 0.0017029434619170534
	354: -0.0047190708877211385
	355: -1.1662874240299522E-4
	356: 0.0031203997619200334
	357: 2.848342421266924E-4
	358: 0.0026532999116661094
	359: -3.8660644485853505E-4
	360: -0.001396499781278847
	361: 0.002319471775004295
	362: -2.992139293236023E-4
	363: 8.065688446089313E-4
	364: 0.0010048383879768844
	365: -0.0019837725498297308
	366: -3.4121157712498854E-4
	367: -0.002883988568826521
	368: -0.0019574465482480887
	369: -0.0024359162356775653
	370: -0.0016216449415748745
	371: -4.245258529011056E-4
	372: -0.0021743760433607425
	373: 2.8954948444846344E-4
	374: -8.82726177800043E-4
	375: -6.350412938321046E-4
	376: 0.0012176249130650735
	377: -0.0014619277005196028
	378: -4.0654389929968744E-4
	379: 4.595640523178102E-4
	380: 0.0011505493304886948
	381: -5.790541095880685E-4
	382: 3.243686083079056E-4
	383: -9.076569223007497E-4
	384: 3.21303803901383E-4
	385: -0.002558636505140506
	386: 2.96699051050084E-4
	387: 0.0012660165132898085
	388: 2.014682909489455E-4
	389: 0.0013229706438489342
	390: 1.0673496380622339E-4
	391: 0.0017063462938358956
	392: -0.0026620654225813565
	393: 4.2995110461642455E-4
	394: 3.286775268142763E-4
	395: 0.0010301196645961235
	396: -4.0981783626988145E-4
	397: 0.0026868528027373826
	398: -5.19026041018367E-4
	399: -0.0037384305161313365
	400: 0.0016855196155354418
	401: -0.0010559404022390379
	402: -0.004103339063374265
	403: -0.002382079815683203
	404: -0.0011318502170286624
	405: -8.909752737447403E-4
	406: -0.0026447653384736977
	407: -0.0010936829602008614
	408: -0.0021914421140178672
	409: -0.0028934288160004868
	410: 0.003072522138540026
	411: 0.002328476463561554
	412: -7.359442581507138E-4
	413: -3.16835669103414E-5
	414: -0.00334526420148676
	415: -1.879271636911875E-4
	416: -0.0011173268127296961
	417: -4.449644334405095E-4
	418: -0.002155616346856796
	419: 0.002062258103522437
	420: -0.0018881257423508473
	421: -8.051343131224724E-4
	422: -0.0025796080310144347
	423: 8.779405035746294E-4
	424: 0.0015897949489629857
	425: 3.993947580891371E-4
	426: -9.3343960747973E-4
	427: -0.0027997965495986715
	428: -6.251046421374651E-4
	429: 0.004155863685566637
	430: -1.1992912393245673E-4
	431: 7.186847253567891E-4
	432: -0.0020835912953294723
	433: 3.9926337438843666E-4
	434: 0.0019092855918793107
	435: -9.9792408277923E-4
	436: -5.729407470242193E-4
	437: 5.47403010234811E-4
	438: 0.0030892717973930776
	439: -0.0024004091596976965
	440: 4.3866233007533776E-5
	441: 0.0037194895357258125
	442: -0.0014239864915147147
	443: 0.0031709105259129567
	444: -0.0042442744453529205
	445: -0.0036101064560899255
	446: -0.00282789544930299
	447: 6.851214003953561E-4
	448: 5.949730345803497E-4
	449: -5.528110541012715E-4
	450: -0.0011288929604355584
	451: 0.0021203016675238736
	452: 0.002713057745243815
	453: -0.0037718228219854417
	454: -0.002286037554256491
	455: -8.105852882152297E-6
	456: 2.2234815597590378E-4
	457: 0.00490557886366326
	458: 2.951973724097378E-4
	459: -0.0016412910037372527
	460: -0.0011057363952659436
	461: -0.002961598994157286
	462: -0.0020411128719425476
	463: -2.5879892091538526E-4
	464: -0.0020731401684826742
	465: 4.569056829168849E-4
	466: 4.0632138486706965E-4
	467: -0.0019954832078144394
	468: -0.002512029635622561
	469: -0.003988564158876682
	470: 5.758064023030109E-4
	471: -0.0011500108870441013
	472: -0.002159281319860994
	473: -0.0011334509685489045
	474: 0.0023419141307860843
	475: -0.0014422393689713599
	476: -0.0022928935333312796
	477: -0.0026179587455588483
	478: -0.0010695791891369778
	479: -0.0030489239758977878
	480: -8.425665425769445E-4
	481: -0.002426114796301659
	482: -0.0017742094953689049
	483: -0.0011168620960757686
	484: -0.0020315759136415815
	485: -0.0028042490176352123
	486: -0.0038189784123592928
	487: 0.002062485821812903
	488: -0.001171116733450785
	489: 9.385665120902261E-4
	490: -0.0035014705229167355
	491: -9.185770879373759E-4
	492: -0.004366641248357802
	493: -7.189617527543918E-4
	494: -0.0017718035082192275
	495: -0.0027570320350529176
	496: -1.6106623840802918E-4
	497: -0.0019047369683547891
	498: -0.0022492649629130756
	499: -7.520408449793479E-5
	500: -6.084081316855336E-4
	501: 6.228815053844123E-4
	502: -0.0035951126340907054
	503: 0.0012703648785412412
	504: 9.653490731572291E-4
	505: -0.002098301551808065
	506: 8.686384530644863E-5
	507: -0.0025251827376349604
	508: 7.489787412118179E-4
	509: -8.03210801085733E-4
	510: -0.0018670745877961503
	511: -0.0018193773951422063
	512: -0.0015790821263939677
	513: 0.0013755691853212242
	514: -0.0026152645793375427
	515: 0.001627721486778966
	516: -7.861724675178102E-5
	517: -0.00294081502192315
	518: -0.003228909022239203
	519: -0.0020113379567586595
	520: 6.36856607977132E-4
	521: -9.675872015157699E-6
	522: 0.006333499726977839
	523: 6.685315632919806E-5
	524: -0.004104971455492595
	525: 0.0014348442864305134
	526: -0.0034404329051850504
	527: -0.0021139513632539905
	528: -7.64454001750037E-4
	529: 0.001327532943082545
	530: 4.137621762554029E-4
	531: 5.917927484075113E-4
	532: -0.001059809394119507
	533: 3.701533970419626E-4
	534: -8.908030745457102E-4
	535: -0.004299300638022909
	536: -0.0021132088290461387
	537: -0.00398354471198303
	538: 3.549405459296683E-4
	539: -0.002385816891132194
	540: -0.0017613668390214867
	541: -0.003497213203340265
	542: -0.0035552720956129307
	543: -9.057865547442773E-4
	544: -0.0010125819022904947
	545: -0.0013663724774659318
	546: -0.003695171000188516
	547: -9.409006792333146E-4
	548: -0.0016897205583624882
	549: 0.001321295273535489
	550: -0.0016386097504353491
	551: -0.0033675001995232367
	552: -0.0012137568364157696
	553: -2.6942149890319783E-4
	554: -1.9805692599169678E-5
	555: -0.0030460090578271408
	556: -0.001369231813315671
	557: 7.967084272624637E-4
	558: 6.146051553583852E-4
	559: -0.0018710818621746343
	560: -2.873914784259178E-4
	561: -0.0023878549453282823
	562: -4.7093218903107174E-4
	563: -0.0021706554540474017
	564: -0.0012397825026444164
	565: -0.002907040741424867
	566: -0.001651576162064111
	567: 0.0013709814236786768
	568: -3.6833003792793027E-4
	569: -8.355628107272098E-4
	570: -0.0011489305178965996
	571: -0.002564397591033164
	572: 0.002136882173548532
	573: -0.00237352603397061
	574: 0.0051100683251247316
	575: 0.0010361965158167735
	576: -0.004106805788850818
	577: -0.002788868765399393
	578: 0.0017193636604263796
	579: -0.003525725372682674
	580: 0.0038495659850283125
	581: -0.002184592271904676
	582: 0.0020243003368413197
	583: -0.002451636798504932
	584: 3.674035578428814E-4
	585: -0.0015634528934504912
	586: -0.0014899689842413826
	587: 8.484251079818577E-4
	588: -0.0012983392452720188
	589: -0.0032904169210485907
	590: 0.002414667407539411
	591: 0.002930344473426733
	592: -0.003335025573742196
	593: 0.0015067033323307164
	594: -0.002291956971053037
	595: -0.0022158028865085838
	596: -3.5110183605176117E-4
	597: -3.1168272504643964E-4
	598: -0.0024294502132473435
	599: 8.712822284187607E-4
	600: -0.0016147639160777633
	601: 0.001170606174221247
	602: 9.118392395219168E-4
