Anderson Cooperembedding:
	0: 0.20519240829383115
	1: 0.271281114757558
	2: 0.28394254749777303
	3: 0.2706204862313969
	4: 0.4860925590728844
	5: 0.4318747398220631
	6: 0.17592412856406606
	7: -0.21442883151349285
	8: 0.08499587139403914
	9: 0.16799378921888058
	10: 0.2585006983431872
	11: 0.1763531132153922
	12: 0.038185789241971024
	13: 0.07311803610400174
	14: 0.12749533632111185
	15: 0.18699391918803954
	16: 0.17122382727309254
	17: 0.21652124792677677
	18: 0.16034037235571305
	19: -0.12902529380025704
	20: 0.28451247948863534
	21: 0.22515807858942694
	22: 0.2095620530946981
	23: 0.008707569949179001
	24: 0.24964415391999015
	25: 0.21044140832322686
	26: 0.09755837802539438
	27: 0.34975483894454706
	28: 0.1432875832093817
	29: 0.2725453551561286
	30: 0.10589538724708222
	31: 0.23925858494408622
	32: -0.020574539578386574
	33: 0.11186177548241807
	34: -0.022028420147324805
	35: 0.1511418352718195
	36: 0.09514042679915174
	37: 0.11788388140981428
	38: 0.3964825258366626
	39: 0.05503174754680176
	40: 0.1364181182312028
	41: 0.13810921254905956
	42: 0.09229544856390455
	43: 0.13086651561953236
	44: 0.17507332228630426
	45: 0.05405169532188635
	46: 0.1450109676720776
	47: 0.10651418302257146
	48: 0.1838769631992998
	49: 0.1709547356372678
	50: 0.41401746785636023
	51: -0.09097844598027265
	52: 0.09300211296969955
	53: 0.1139725386644318
	54: -0.0697105411842726
	55: 0.26039680291249173
	56: -0.09242831102241107
	57: 0.1321945977271958
	58: 0.20479716824495917
	59: 0.21810531404459926
	60: -0.18316119691993948
	61: -0.11994582156371349
	62: -0.2394831835569486
	63: 0.3240634191868275
	64: 0.47836458472772214
	65: 0.04233333604739898
	66: -0.0309456545169546
	67: 0.06103639282205995
	68: 0.220801799641887
	69: -0.04855324665699428
	70: 0.1988896139014113
	71: -0.08329787604252499
	72: 0.23847633334045068
	73: 0.12333304201838811
	74: 0.20791667934256525
	75: 0.08326550819864324
	76: -0.19554865278241051
	77: 0.11882713690274563
	78: 0.0047078126639065795
	79: 0.013176412078431383
	80: 0.20070096610763402
	81: 0.20776944274725667
	82: 0.08931617410759249
	83: 0.15585283440316075
	84: 0.1280766938215487
	85: 0.10394117637846272
	86: 0.08995566422559025
	87: -0.15600820145678823
	88: -0.1740199905819795
	89: 0.15098677650821504
	90: 0.1703659937083674
	91: 0.128170022281551
	92: 0.19033948514273447
	93: 0.022764586567124524
	94: -0.010507436518690032
	95: 0.21146656267288041
	96: 0.107374039191389
	97: 0.10602052981538485
	98: 0.15230176015544367
	99: 0.1616253733263824
	100: 0.042251775272344576
	101: 0.31679397979347895
	102: -0.059100806090456925
	103: 0.3415653944880612
	104: 0.10595222394270976
	105: 0.32074713278109546
	106: 0.23857628370409334
	107: 0.4557443221453707
	108: 0.0615972007326856
	109: -0.08168553916448457
	110: 0.11719190547467531
	111: -0.058098692048984414
	112: -0.06370460963213095
	113: 0.25784285735374174
	114: 0.2692231097581834
	115: 0.1625533134578943
	116: -0.09575706297255082
	117: 0.3551180001448644
	118: -0.2815563336147802
	119: -0.10155851598412526
	120: -0.13967292514835838
	121: -0.16807486948714692
	122: -0.1760885074281615
	123: -0.33994408406094423
	124: -0.4082010720143955
	125: -0.049602555817100345
	126: 0.04597598321904566
	127: 0.19042452206908844
	128: 0.17166544167565057
	129: 0.20400805573927044
	130: 0.1318827666143925
	131: 0.23928794835827874
	132: 0.2647176908829401
	133: 0.19117217955508856
	134: 0.2076869873229563
	135: 0.12913234992603198
	136: 0.12941911756661023
	137: 0.1391805653404978
	138: 0.1957132911456721
	139: 0.29257183224815847
	140: 0.1704348294616098
	141: 0.15550215897272632
	142: 0.10684199020012754
	143: 0.13777117267837094
	144: -0.055825893632352436
	145: 0.20366376063847083
	146: 0.06134173646491297
	147: 0.025050769564719803
	148: 0.047267734094742005
	149: 0.1285691336639934
	150: -0.046856876222572716
	151: -0.08188944299086395
	152: 0.1056108124920906
	153: -0.02032865778163187
	154: 0.11304334372010208
	155: 0.04387751323679574
	156: -0.17321766965931967
	157: -0.03732327505052038
	158: 0.21873805703740015
	159: 0.1020387476547352
	160: -0.33608977405667084
	161: -0.05609524288707436
	162: 0.3127328284818316
	163: -0.46390224040751127
	164: 0.08773473048429757
	165: -0.12926114673301464
	166: 0.24832689423635754
	167: 0.13083770649090345
	168: 0.24523786036979484
	169: 0.11527291018172751
	170: 0.01900906515168589
	171: 0.02699755052187449
	172: 0.1953840360048188
	173: 0.3837806508502196
	174: 0.060957909999480926
	175: -0.015525352813336073
	176: 0.03501893039694011
	177: 0.006164915290485069
	178: -0.1885776109121421
	179: 0.28082778198934416
	180: 0.23180654875171064
	181: 0.07501783477360233
	182: 0.03527390616352096
	183: 0.009897002737322587
	184: -0.041873463882930236
	185: -0.22451389875160743
	186: -0.2508163401769369
	187: -0.21574168646505962
	188: 0.01922492004036472
	189: 0.008057102167295766
	190: 0.39173407346810857
	191: -0.007944499515134242
	192: -0.0277581506170313
	193: -0.2552338278667554
	194: 0.16737239154981837
	195: 0.04759579112937508
	196: 0.0404559561050044
	197: 0.11680563031100596
	198: 0.07780318040529939
	199: -0.24361746587677224
	200: 0.04042562465427318
	201: -0.15724240266706457
	202: -0.02484621654563156
	203: -0.0355826208001745
	204: -0.0751573925438111
	205: -0.3584592900412462
	206: 0.08527303348628146
	207: 0.24399340520427037
	208: -0.29350228494881764
	209: 0.047792017559964
	210: 0.10969467558575746
	211: -0.08306540050732263
	212: -0.006159869395291935
	213: -0.18989544352679996
	214: -0.1328063093775919
	215: -0.20659301432005103
	216: -0.09221986827535789
	217: -2.0270200517460589E-4
	218: 0.1584077776186786
	219: -0.22146151941143422
	220: -0.12110641669882427
	221: -0.11941239166612123
	222: 0.12235335103899751
	223: -0.15670778441013156
	224: 0.13016421178972384
	225: 0.09889769981408324
	226: 0.03441499140729059
	227: 0.3928070971239096
	228: 0.007290239489112805
	229: 0.04342284116607488
	230: 0.1054770729414828
	231: 0.05128126563605329
	232: 0.10930485607363166
	233: 0.03126015703358379
	234: -0.022933193344496044
	235: 0.09656636717162896
	236: 0.23920620011921176
	237: 0.17659669251704854
	238: 0.04540110846974292
	239: 0.06249041143014081
	240: 0.06387625137423618
	241: 0.2800787464088282
	242: 0.1675225340726749
	243: -0.3704541296659617
	244: 0.12339424100585493
	245: 0.09128479701670512
	246: -0.09192727915165433
	247: 0.07500903622492415
	248: 0.07476413170200714
	249: 0.13507718211297606
	250: 0.21664076119538406
	251: -0.013428909668151669
	252: 0.11264489207764981
	253: 0.1334828686438463
	254: -0.27271982825040125
	255: 0.08360679431111588
	256: -0.062299657413169
	257: 0.09074454592806029
	258: 0.11348046222109488
	259: 0.06452889984853304
	260: 0.11232402748523844
	261: 0.22589745138126122
	262: -0.017260961064548875
	263: 0.3521377026050041
	264: 0.20301796466423316
	265: -0.40649706669896524
	266: -0.2800879696039451
	267: 0.011359195245439536
	268: 0.3835314016667102
	269: 0.15533705996338065
	270: 0.20203237963436949
	271: 0.1915988098178097
	272: 0.14384774599341837
	273: 0.22296992850537442
	274: 0.1781422028567183
	275: 0.12685714604784762
	276: 0.175930073508038
	277: 0.1928942711750042
	278: 0.20166926063694676
	279: 0.2530462734443836
	280: 0.18835607121941556
	281: -0.09596923614010525
	282: -0.1331949275328395
	283: 0.27360122199850884
	284: 0.23062912653240736
	285: -0.010222390245417946
	286: 0.1752374781943982
	287: 0.1841627842923568
	288: 0.14000988125105343
	289: 0.13451370472177762
	290: 0.2212657389586657
	291: 0.06573876906674611
	292: -0.018805485724875958
	293: 0.14598722305985168
	294: 0.10534920796784039
	295: 0.18049395552063469
	296: 0.11834758672713788
	297: 0.18907812993776807
	298: 0.04317840686466418
	299: 0.08785618796255712
	300: 0.15753495467437464
	301: 0.18161731253732402
	302: -0.05282108633813822
	303: -0.04275165094523338
	304: 0.1992986221142681
	305: 0.16714413921361526
	306: -0.13953262668411962
	307: 0.2559867888121027
	308: -0.032548380317045135
	309: -0.003248750911338275
	310: 0.512936360432354
	311: 0.19346124800145906
	312: 0.12020065200298695
	313: 0.0799816427202071
	314: -0.06657887946658932
	315: 0.2006168330567472
	316: 0.22929546932129563
	317: 0.22181750199079878
	318: 0.24263394616262413
	319: 0.19426853149986045
	320: 0.1944811104477302
	321: 0.20509505491211275
	322: 0.16141896382995963
	323: 0.024215240960072305
	324: 0.20998164892613608
	325: 0.4100481935373589
	326: 0.2546483272356163
	327: -0.07742207755035976
	328: -0.4366432911787374
	329: -0.03983314646451048
	330: 0.14060541589288247
	331: 0.0812129841638808
	332: -0.1782074179592017
	333: 0.04546510785182523
	334: 0.0018428648859153
	335: 0.09069858412821231
	336: 0.09334912240659418
	337: 0.3036919296827848
	338: 0.06014550900397236
	339: 0.049203747486311226
	340: -0.16184795202199084
	341: 0.11720830043353382
	342: 0.010494215300849218
	343: 0.1175980292482165
	344: 0.024411560781950187
	345: 0.09953041671836753
	346: 0.20600369224864418
	347: 0.06193431002206231
	348: 0.18855543509952177
	349: 0.27551477851019945
	350: 0.1888327961575385
	351: 0.13280970288682062
	352: 0.1114091435177438
	353: 0.12665035999043256
	354: 0.02397024038343627
	355: 0.07995057052842065
	356: -0.10744012732181586
	357: 0.18780721674150988
	358: -0.0894500427208283
	359: -0.3736469310376688
	360: 0.08977194589152045
	361: -0.06632818717890379
	362: -0.04949063606620908
	363: 0.1327039238207593
	364: -0.027624428980944287
	365: 0.17229433403428665
	366: 0.21213905269411776
	367: -0.2222045376724308
	368: -0.1134513141978723
	369: 0.14083321171731494
	370: 0.02931229827770909
	371: 0.08329338009633822
	372: -0.2499834113488315
	373: 0.10961667186016562
	374: 0.01823936976485187
	375: -0.17392830184945635
	376: 0.16887262320204174
	377: -0.11078883906654456
	378: -0.11903214715242424
	379: -0.04164022871416821
	380: -0.0769615718011467
	381: -0.21969711552527227
	382: -0.14643943474298118
	383: 0.17020263223654322
	384: 0.22638298615172892
	385: -0.1863441273247958
	386: 0.1629124830659327
	387: 0.21456436545597193
	388: 0.1219396090794563
	389: 0.37057710548892236
	390: 0.32714528837281914
	391: 0.13521360224489604
	392: 0.3893458158592287
	393: 0.11054379251717837
	394: 0.43155129858275815
	395: 0.2922054039154631
	396: 0.20301629755872375
	397: 0.2095384341148509
	398: 0.012397954511648565
	399: -0.11163348417014722
	400: -0.0635783353146993
	401: -0.11405810455447998
	402: -0.06117242863285631
	403: 0.1342988155674501
	404: 0.1690389072661282
	405: 0.09265335060770875
	406: -0.08669724935297408
	407: 0.16813314544920055
	408: 0.12925536910113944
	409: -0.034588801462739446
	410: -0.03175167076826756
	411: -0.14137260796309695
	412: 0.09014242782684011
	413: 0.09070670817881207
	414: -0.4063637990953862
	415: 0.13434010983919425
	416: -0.09731045984604746
	417: -0.08614239869099755
	418: -0.12746010313841055
	419: -0.15427991248830814
	420: 0.016380701829811054
	421: 0.0882026671941292
	422: -0.13938323722450077
	423: 0.24014675145627495
	424: -0.05259779936927988
	425: 0.14585372547284722
	426: 0.23552685903288037
	427: 0.3270514997076955
	428: 0.22979688616242888
	429: -0.055147666568462546
	430: -0.07677199319610112
	431: 0.03091608285676251
	432: -0.06085276173863119
	433: -0.15482943849769834
	434: -0.2178301107951179
	435: -0.41476441265921465
	436: 0.06869759917707248
	437: -0.03140413630282671
	438: -0.1341848222644483
	439: -0.08603847511807483
	440: -0.06259666001793311
	441: -0.09101246808904193
	442: -0.17180484375219646
	443: -0.15188674147893805
	444: 0.001918271268575736
	445: -0.4754879571642609
	446: -0.10768396790837301
	447: -0.14375679697581056
	448: -0.16455578256465392
	449: 0.0919052689789783
	450: 0.23600844999240755
	451: -0.04642221194849272
	452: -0.13335895359959876
	453: 0.13265126279218964
	454: 0.17161099358089782
	455: -0.09946737865260233
	456: -0.05704197344148411
	457: -0.11508861576630132
	458: 0.2082273474729205
	459: -0.23162797261500312
	460: -0.04201526201084179
	461: -0.09933463026039613
	462: 0.0961502151745215
	463: -0.20571873671438928
	464: -0.09430446926140067
	465: -0.052264962973202544
	466: 0.50598255458176
	467: -0.4272645343075109
	468: 0.16088409568836942
	469: -0.18064495898067232
	470: -0.20909649567268712
	471: -0.005292461404263387
	472: -0.0456398219221128
	473: -0.04630494850730926
	474: -0.15740021001076251
	475: 0.1583379631259239
	476: -0.2481527957596503
	477: -0.17142316859871004
	478: -0.14924695861748835
	479: 0.019417848311619097
	480: 0.1580351364315076
	481: -0.187467595024987
	482: -0.18232154593626243
	483: 0.09275372325801884
	484: 0.03787994475158425
	485: 0.2600395424522554
	486: -0.09463707268061537
	487: -0.1619359741819985
	488: -0.13592770730219758
	489: -0.23838086348933238
	490: -0.18496691399099296
	491: 0.011283568541739328
	492: 0.04456582839508236
	493: 0.37617697420557855
	494: -0.03363473845281723
	495: 0.30899466101624107
	496: -0.04683375576798172
	497: 0.11824921276648659
	498: 0.4072034084517942
	499: -0.11123032876275728
	500: 0.2851867646151428
	501: -0.07856485496141599
	502: -0.31250457912257407
	503: 5.792141847534892E-4
	504: -0.14419459185743155
	505: 0.015626529823560727
	506: 0.40031333536541247
	507: -0.11073790724574599
	508: 0.2496771270566982
	509: -0.14271585351252125
	510: -0.028709936949587612
	511: 0.05695340714217192
	512: -0.26282440159310155
	513: -0.150014847492892
	514: -0.06277289671644493
	515: -0.13796857222968448
	516: 0.06492068334930239
	517: 0.15651216462707115
	518: -0.055045805039797883
	519: 0.06401939099276038
	520: -0.14890253162797498
	521: 0.06117663580242315
	522: 0.023993667360223195
	523: -0.14442489819778304
	524: 0.07374197686102243
	525: 0.06816106577268773
	526: 0.27343531401946364
	527: 0.1397784152157402
	528: 0.0021551470149016715
	529: -0.1369812484250331
	530: -4.037859043010952E-5
	531: -0.10248438559287518
	532: 0.2129093832731075
	533: -0.020560283334837705
	534: 0.13372316141143165
	535: 0.09367680101163124
	536: 0.03162817137587963
	537: 0.09669468574849006
	538: 0.049627840659750115
	539: 0.017058547522827757
	540: 0.04137062995536676
	541: -0.1204502491884656
	542: -0.14856553603547612
	543: -0.16294447453406857
	544: 0.1170672951838754
	545: -0.11146235078914654
	546: 0.09547801622009104
	547: 0.13496647261531916
	548: 0.39635303086180546
	549: -0.007745563597543149
	550: -0.08977510358658053
	551: -0.3634128035464628
	552: -0.2506357874053174
	553: 0.1563495386558248
	554: 0.17695705379557095
	555: 0.177790830398086
	556: 0.3856525517650217
	557: -0.18177035386372553
	558: -0.11163603122220633
	559: -0.1724946432744215
	560: -0.02254067430821139
	561: -0.06855057171416419
	562: -0.2100103736650431
	563: -0.2462678625341956
	564: -0.12499368031112865
	565: 0.18356981648552653
	566: -0.3290103400017309
	567: -0.019215419712468908
	568: -0.19481147187980885
	569: 0.14793564152157518
	570: -0.09027407815322541
	571: 0.007451030101926574
	572: -0.046300785588121146
	573: -0.06742606738242533
	574: 0.41684091878400975
	575: -0.09186920905544071
	576: 0.10587651417376465
	577: -0.14165065846125144
	578: -0.3416496214742561
	579: -0.04484414460873746
	580: -0.0849335950348276
	581: 0.11431817885945336
	582: 0.016129334928232864
	583: 0.10177551559598381
	584: -0.160344090169777
	585: -0.16296275443573952
	586: 0.13347764966956732
	587: -0.1539040573989271
	588: -0.15571328670284335
	589: -0.16137136271793157
	590: -0.15784698622777069
	591: -0.11012772655721556
	592: 0.12702091305381497
	593: -0.1231140202036432
	594: -0.10680246476983354
	595: 0.11201906212353704
	596: -0.13784541153407495
	597: 0.07684477164864341
	598: 0.5038553188678743
	599: 0.07377024858439565
	600: -0.15183598144038285
	601: -0.12474620812493069
	602: -0.033954660104766374
	603: 0.16607733958232773
	604: -0.21047748754979836
	605: -0.2553413935524115
	606: -0.1004182918272394
	607: 0.3150096588243434
	608: -0.0879852931857902
	609: 0.07103735113455924
	610: -0.14553931370986453
	611: -0.14025313438367712
	612: -0.2529269030621614
	613: 0.03355276407495025
	614: -0.12486701008551308
	615: -0.09874027541844445
	616: -0.36463207761534255
	617: -0.113628653498797
	618: -0.061407125441329445
	619: -0.11428498808170207
	620: -0.059865642997758886
	621: -0.007229668711654413
	622: -0.14116655111260754
	623: 0.026818112984026882
	624: 0.23643214624138784
	625: 0.06645404210055997
	626: -0.12732853144627487
	627: 0.1470320168866093
	628: 0.09128700949385113
	629: -0.2376182259095725
	630: 0.11897100608493885
	631: -0.12310251654152782
	632: -0.0538341010313333
	633: -0.06558228046761827
	634: 0.09205991526364946
	635: -0.06177202815406525
	636: -0.13208143948198856
	637: 0.2267674691862339
	638: -0.20383866038487194
	639: -0.20621923851306212
	640: -0.01511548753825326
	641: -0.10917224223944959
	642: 0.19603990630085505
	643: -0.08147509298265754
	644: 0.09857017467623283
	645: -0.1414638930814053
	646: 0.1168307374333003
	647: -0.10574604055899262
	648: 0.14683435866020839
	649: 0.24091032264699389
	650: -0.10503296755804564
	651: 0.06366967316202908
	652: -0.12211426572590653
	653: 0.31928198722879847
	654: 0.30587541454154055
	655: -0.2793564655076482
	656: -0.04190835712988553
	657: 0.17183815431078517
	658: -0.09051883410482534
	659: 0.33664912310947837
	660: 0.07947622339429027
	661: 0.156466454344377
	662: 0.28748213794794025
	663: 0.12839208450562944
	664: 0.0754994560436786
	665: -0.05550924977991352
	666: 0.0634950300667922
	667: -0.12306804389314913
	668: 0.08472481493073374
	669: 0.11961383023316235
	670: -0.0544208920253898
	671: 0.14086438670642748
	672: 0.15542233275465592
	673: 0.15149672192625074
	674: 0.08284060944857526
	675: 0.35836924269509185
	676: -0.31444373497621214
	677: 0.0675980676371986
	678: -0.18552163687307302
	679: -0.37620347005862104
	680: -0.16471943784743223
	681: -0.12046256142483128
	682: 0.10032536311394286
	683: -0.08273647092235852
	684: -0.06587483552045617
	685: 0.3983379615989511
	686: 0.36323541822068
	687: -0.02957503463773744
	688: 0.04011405862284504
	689: -0.0363453895066012
	690: 0.15483661392913523
	691: -0.10544013926248717
	692: -0.16586675214862473
	693: 0.04267666318712687
	694: 0.07781772239008289
	695: -0.46500699500640613
	696: -0.1577017007556514
	697: -0.1000235281325116
	698: 0.1153056205050498
	699: -0.15838513496975273
	700: -0.11491211748166355
	701: -0.28326953201729294
	702: -0.18045058892977456
	703: 0.019037563974449005
	704: 0.007022469132292311
	705: 0.1564256972645483
	706: 0.10859338399809867
	707: -0.025119924706555153
	708: 0.26747130808748487
	709: -0.22759794448416665
	710: -0.09348498151877266
	711: -0.1988763616913053
	712: 0.10454704296656994
	713: 0.2474757247262969
	714: -0.09426841579793961
	715: 0.018926314097814395
	716: -0.13223224092300145
	717: 0.11339465921944403
	718: -0.1340632252739416
	719: -0.12471901184445454
	720: -0.059999351109993965
	721: -0.15558182886840735
	722: -0.1507248938132045
	723: -0.1316605666200115
	724: 0.08917568793772011
	725: -0.10682424056292021
	726: -0.017468233829871758
	727: 0.14560503971915625
	728: -0.05916760355304336
	729: 0.22772703744580577
	730: 0.14333100218604464
	731: -0.15686779533940784
	732: -0.2178145094550756
	733: -0.2524789093543292
	734: 0.14051831388168473
	735: -0.14570672480061636
	736: 0.14421650417641926
	737: -0.11769197160131824
	738: -0.12295814495344114
	739: -0.06373419359422541
	740: -0.1437518907353022
	741: -0.24003794691354668
	742: 0.1010038983633665
	743: 0.27606615972348897
	744: 0.16719703196025615
	745: -0.007866523746438581
	746: -0.1308126030633037
	747: -0.10315179595841212
	748: -0.5076838445741223
	749: -0.08173286492494095
	750: -0.05987595245088175
	751: 0.1975804490385946
	752: -0.01596349481256671
	753: 0.2246929803656937
	754: 0.16794356274166033
	755: 0.13896878741582533
	756: 0.14892115640291329
	757: 0.12544428717356954
	758: -0.338204997550659
	759: 0.032176044150300176
	760: -0.16051363280707032
	761: -0.09964366724626135
	762: -0.14298948125681515
	763: -0.10778999802064688
	764: -0.023400098896168803
	765: -0.21902538815199138
	766: 0.45087734271961105
	767: -0.07344926219626344
	768: -0.09260500546055718
	769: -0.12271517634619449
	770: -0.04036319433611578
	771: 0.20122896925286646
	772: -0.18601779785687775
	773: 0.015761573525043336
	774: -0.3441219281249374
	775: -0.2981727563849402
	776: -0.047081957623047954
	777: 0.16415773744270717
	778: -0.13247482975929858
	779: 0.22076728851016758
	780: -0.11857021746289029
	781: 0.5097242357633047
	782: 0.18791253186020826
	783: 0.18778799153754744
	784: -0.12637255326487512
	785: -0.23022328827612262
	786: -0.2595831694015368
	787: -0.01164492193596367
	788: -0.3655677848986154
	789: -0.06953633140957459
	790: -0.33242836372205703
	791: -0.3825972528851856
	792: -0.059841251212345174
	793: -0.14042885046432502
	794: -0.21472453376515224
	795: -0.016004821386815977
	796: -0.11475086658357928
	797: 0.029753208589481956
	798: 0.008775674401610643
	799: 0.3848675563108224
	800: -0.3416056068761496
	801: -0.16840261674125354
	802: 0.12713772693248473
	803: 0.12968551228070085
	804: 0.19095680532893858
	805: -0.08268716584503823
	806: -0.1686854527559025
	807: 0.5781310209591071
	808: -0.15227182912839074
	809: -0.01606628669090751
	810: 0.07419584111835693
	811: 0.1568018767226993
	812: 0.10372264034385467
	813: -0.14203853595843344
	814: 0.005746145531023428
	815: 0.07703579294014949
	816: -0.2109951251551952
	817: 0.18282574501579016
	818: 0.05037405623868448
	819: -0.10647607973050206
	820: 0.1589438493300856
	821: 0.11956902289433574
	822: 0.27148661529691603
	823: -0.08534764483926698
	824: -0.16362252631350438
	825: 0.08284419922165309
	826: -0.10905139612375038
	827: 0.23333569808408167
	828: -0.106556085409234
	829: 0.1032083900128623
	830: 0.06004395567749889
	831: 0.11997735842562471
	832: -0.058472207718163
	833: 0.16650378112061776
	834: -0.10989290028968984
	835: 0.13075245518238876
	836: -0.1271031988672183
	837: -0.12145979996244873
	838: -0.20933973755118654
	839: -0.040612435547008656
	840: -0.38921566622960957
	841: -0.12328813893325291
	842: -0.15576174727018072
	843: -0.2428900746060823
	844: 0.04324499721791695
	845: -0.1633285161431516
	846: 0.16553044878204914
	847: 0.12344576310783617
	848: -0.050395170026335916
	849: -0.22366256414790758
	850: -0.1600067544414945
	851: -0.04230925427961938
	852: 0.16816669439669052
	853: -0.062244548848932386
	854: -0.03337190639828156
	855: -0.1110030633953179
	856: 0.11515651257748193
	857: -0.31517509214490097
	858: -0.2832065073780044
	859: -0.15719218209950123
	860: -0.059153090434400195
	861: -0.21691512628438497
	862: 0.04619672654706799
	863: -0.08627396328561517
	864: 0.1487141231223649
	865: -0.2579488915135597
	866: -0.12826952345386833
	867: 0.1119139122954057
	868: 0.026921672774774478
	869: -0.08911407652089445
	870: -0.26641789388037923
	871: 0.13577935694845192
	872: -0.005382660586497917
	873: -0.16358767366388047
	874: 0.12789199564226086
	875: -0.2250010076572707
	876: -0.501100877273811
	877: 0.018906464699562205
	878: 0.14681096124131035
	879: -0.21480488085005242
	880: -0.2563688555573568
	881: 0.0641602921773633
	882: -0.1485153557398546
	883: -0.018862365453180624
	884: -0.019195434144023298
	885: -0.10461774823182653
	886: 0.0821492962787766
	887: -0.003457195375345713
	888: 0.10291645322572679
	889: -0.055999766959078184
	890: -0.0010753529329689264
	891: -0.15496930329968636
	892: -0.25330912196938443
	893: -0.2012225559860391
	894: -0.02994320037187212
	895: 0.06737973562400239
	896: -0.06451137018402368
	897: -0.11333452443376694
	898: -0.1760908578950164
	899: -0.12101167974617077
	900: 0.4342710526449448
	901: 0.2597353068975788
	902: -0.10371433656787216
	903: -0.16919829362091457
	904: 0.06903659144373175
	905: -0.24915960447934002
	906: -0.09166659272265186
	907: -0.012113957087894214
	908: 0.2313100152861049
	909: 0.09426338610262486
	910: -0.12872752572559215
	911: -0.13148124159291102
	912: 0.20640268706786807
	913: -0.03129648949650352
	914: 0.08189789447268482
	915: 0.138468552533243
	916: -0.1948654455902
	917: 0.032179997958648975
	918: -0.11886347811429314
	919: 0.4324367712797335
	920: 0.08722659907081452
	921: -0.027239573440247754
	922: 0.02338933989478516
	923: 0.0384667500379555
	924: 0.24076026752138432
	925: 0.01724708055723061
	926: 0.15197902056278026
	927: 0.4379143925667457
	928: -0.16783128229858738
	929: -0.17695731360696051
	930: 0.09073403709052263
	931: 0.10666910265569514
	932: -0.3290363785479108
	933: 0.016763701687467533
	934: -0.4065385886115881
	935: 0.20248695626763036
	936: -0.17329423281052045
	937: -0.013503593750979122
	938: -0.005957766317494151
	939: 0.08697527470681399
	940: 0.142406068301035
	941: 0.1279077725418938
	942: -0.06613221287238151
	943: 0.21176174690582708
	944: 0.1574251369330429
	945: 0.11014875493124171
	946: 0.09867489831718279
	947: 0.01033764242838604
	948: 0.07151035582110639
	949: -0.022965183818602884
	950: -0.04142998703412136
	951: 0.2303388363870179
	952: 0.1621130570820556
	953: -0.1553270804310583
	954: -0.11333317193003438
	955: 0.16346685061478922
	956: 0.06194673993983532
	957: 0.03326089381930098
	958: -0.3000960209692518
	959: -0.04374245471327342
	960: -0.3028613522136828
	961: 0.325176364784719
	962: 0.019174929526274375
	963: 0.05025292199761015
	964: 0.2053615664256514
	965: 0.3406512314066927
	966: -0.08370590185171665
	967: 0.15130003087992375
	968: -0.036395408994745755
	969: -0.17226756919792544
	970: 0.18803238750437204
	971: -0.21469508260104295
	972: -0.09658199513127007
	973: -0.04106507955788156
	974: -0.0325842880311828
	975: -0.12897321436164427
	976: -0.012780944169447691
	977: -0.3161735914027175
	978: -0.2460385469077193
	979: 0.13294530861425513
	980: 0.310079626769944
	981: -0.007751005328561909
	982: -0.1286866168236368
	983: -0.35593030633132117
	984: -0.02246256015698179
	985: 0.2633063619918921
	986: 0.24247399802298114
	987: -0.15519182649036609
	988: 0.19275018077120504
	989: 0.15550883692660245
	990: 0.04654434572117602
	991: 9.456048988072526E-4
	992: 0.1839865361927974
	993: 0.2765169459686605
	994: 0.09873436975881592
	995: 0.1162299904441636
	996: 0.043384685173861896
	997: 0.05413533366181974
	998: -0.09373225678726484
	999: -0.11819674897600395
Miley CyrusBIAS:
	0: -0.11165038035077701
Scarlett JohanssonBIAS:
	0: -0.15109352939155662
BIAS:
	0: 1.0
Daniel CraigBIAS:
	0: -0.17740301762371874
Miley Cyrusembedding:
	0: -0.24103974000437045
	1: -0.2902821787536363
	2: -0.15398837079972041
	3: -0.23494251866506122
	4: -0.3268420799394088
	5: -0.3838532707314743
	6: -0.30545874119586813
	7: 0.23588057639215126
	8: 0.08745091656556546
	9: 0.15096288750222456
	10: -0.06900642282141735
	11: 0.09360599240311546
	12: 0.010879452728458578
	13: 0.1373617984133509
	14: 0.08935185208070953
	15: 0.05519538927343086
	16: -0.01649976957836583
	17: 0.05842283655566642
	18: 0.18278744427209742
	19: 0.09090423299360902
	20: 0.16669235457621842
	21: 0.11782688890143052
	22: 0.06929648284877729
	23: 0.04511703618854186
	24: 0.052444295201975445
	25: 0.17033122665230874
	26: 0.25728855459402783
	27: -0.14426965143994178
	28: -0.012900227901620556
	29: -0.10101887627648455
	30: 0.12685040343676823
	31: 0.2778092491918911
	32: 0.17595252706354095
	33: -0.017929488356550075
	34: 0.07271966343389866
	35: 0.1979089639597934
	36: 0.029441830067450922
	37: 0.12672945273672165
	38: 0.05348251255739563
	39: -0.0010276844433441423
	40: 0.18690428032793238
	41: 0.27671777284664034
	42: 0.18441449446731312
	43: 0.41452920279106237
	44: 0.2721273553754977
	45: 0.15433989108939614
	46: 0.2719221430283143
	47: 0.2805169225392483
	48: 0.14989370324989099
	49: 0.14639685533418162
	50: -0.14534687340334596
	51: 0.09605058316142942
	52: -0.10108336348395676
	53: 0.05193658106773799
	54: 0.2810728719355975
	55: 0.34504293191991614
	56: 0.3198679670291651
	57: 0.34329930046542456
	58: 0.24332537276852245
	59: 0.08099881390971761
	60: 0.2551255919528328
	61: -0.06590027060668795
	62: 0.26630201684872284
	63: 0.11249674478034366
	64: 0.18172384855133888
	65: 0.19152066445476293
	66: 0.10054792709568734
	67: 0.58906396478446
	68: 0.2083274642257584
	69: -0.07899675501225797
	70: 0.09184347603045888
	71: 0.3426705606295686
	72: 0.3135708013693046
	73: 0.25607709717193766
	74: 0.1821263337133934
	75: 0.37736639807690014
	76: 0.3784788088867718
	77: 0.5485970268074124
	78: 0.25140304938204006
	79: -0.05368732473821834
	80: 0.09910049474307489
	81: 0.06689984566647326
	82: 0.018309661182230787
	83: 0.08661158840173105
	84: 0.14997897868544308
	85: 9.970710373291799E-4
	86: -0.07573065254830659
	87: -0.34308244869520294
	88: 0.07381278784329888
	89: 0.10618153085377048
	90: 0.15144385480035505
	91: 0.15622405851883106
	92: 0.09762724361807332
	93: -0.14776648893738192
	94: -0.1328506034685415
	95: 0.1083536247463144
	96: 0.26497345230515956
	97: 0.06324894970278351
	98: 0.08248911218393618
	99: 0.10903093332721166
	100: 0.1534836125238698
	101: -0.08699275773120509
	102: 0.024221786234296286
	103: -0.1776647202407535
	104: 0.040971712889412516
	105: -0.5971729818396088
	106: -0.2506609370122726
	107: -0.11499843667549087
	108: 0.13850401902684945
	109: 0.028635544431163406
	110: 0.10760848424076407
	111: 0.49273847224304
	112: -0.1790910399843077
	113: -0.07287726672175177
	114: -0.20819331210924008
	115: -0.03294554364955653
	116: 0.026824635618226157
	117: 0.013530509612500186
	118: -0.020996075146900012
	119: -0.007722020585058148
	120: 0.05130400386082999
	121: -0.0503141714395319
	122: 0.09761522395671117
	123: -0.04834050380102179
	124: 0.10567112694800535
	125: 0.1312649596880523
	126: 0.021124636602802647
	127: -0.05202557601795988
	128: 0.11190811102497558
	129: 0.18375122980561795
	130: 0.08758023953649197
	131: 0.11038399996104668
	132: 0.14931213801792592
	133: 0.13059493539268355
	134: 0.0955561178898482
	135: 0.04818425006289171
	136: 0.11987086986927394
	137: 0.13038111766286703
	138: 0.07428469985155285
	139: 0.13578775834946272
	140: 0.0806811491327648
	141: 0.060003436520473984
	142: 0.06590904873100228
	143: 0.11479495021731091
	144: -0.10409301714571252
	145: 0.12067881445087306
	146: -0.06790338232126027
	147: 0.03098347934363892
	148: 0.08673988608979749
	149: -0.2038026389280943
	150: -0.0486722593759707
	151: -0.14477217098989792
	152: 0.19593125037314865
	153: 0.07713825642184786
	154: 0.0629728175325506
	155: 0.011202556087506883
	156: 0.13591251823573994
	157: 0.31468818058000153
	158: -0.02301358349407539
	159: -0.16160692094382295
	160: 0.19093607458158776
	161: 0.26528801660676954
	162: -0.21743465066659273
	163: 0.22516229833139537
	164: 0.09911815064816368
	165: 0.2794344953069283
	166: 0.08496645078840567
	167: 0.16545796843982674
	168: -0.2584058308017053
	169: 0.05412234467081574
	170: 0.08227121042255625
	171: -0.23485552654322212
	172: -0.07272753822447413
	173: 0.10886987790007938
	174: 0.1396966303853304
	175: 0.09386326581006231
	176: 0.11151232800632098
	177: 0.08395480324949067
	178: -0.28825336680771335
	179: -0.13116133747016467
	180: -0.1754349886199615
	181: 0.05978204677489357
	182: 0.005416300489948664
	183: 0.4009413435703565
	184: -0.13787935964560244
	185: -0.23254326330365754
	186: 0.3444442167223514
	187: 0.0021053478701815705
	188: 0.11851244500565954
	189: 0.05917175295657468
	190: -0.227484365835066
	191: 0.08316448059342446
	192: -0.10081449817805063
	193: 0.12101698138976771
	194: 0.06476363456410536
	195: -0.294893234843362
	196: 0.04063508377726606
	197: 0.17549803541199266
	198: 0.03748948204662578
	199: 0.13234117627173747
	200: 0.19416329981579605
	201: 0.4113483989991244
	202: -0.1911892707517507
	203: -0.06970004671315512
	204: -0.12555813062130453
	205: 0.19580610299357665
	206: -0.17540445960958026
	207: -0.1971379729082746
	208: -0.5125427366624297
	209: -0.2755968002787124
	210: 0.16985752747132285
	211: -0.21561904829003312
	212: 0.16403880552728764
	213: 0.4620424021857307
	214: 0.5820590324530563
	215: 0.16568272841703363
	216: -4.8026577842139365E-4
	217: 0.10496185579001402
	218: 0.14471874086421754
	219: 0.44780014588989014
	220: 0.5499904140615913
	221: 0.30477040669707584
	222: 0.08686626688931803
	223: 0.0014854905806884376
	224: -0.07324066541521404
	225: 0.06888280252119368
	226: 0.15738342394457414
	227: -0.07679840894906823
	228: 0.12277721001079518
	229: 0.16828280091180067
	230: 0.20872663787850637
	231: 0.20980848767133278
	232: 0.1926272883995858
	233: 0.09077061123540262
	234: 0.3562314826659401
	235: 0.048511859737195115
	236: 0.06385938149952282
	237: -0.0920203663186657
	238: 0.3814742261239039
	239: 0.21956234241772812
	240: 0.3121725470869081
	241: 0.4941172155323552
	242: -0.06427839707651017
	243: -0.3697974424168868
	244: 0.22115209776642974
	245: -0.27424037242834026
	246: -0.208244394846696
	247: 0.07695565153389909
	248: 0.04013884180158265
	249: 0.060925305473621745
	250: 0.05051681700941802
	251: -0.21252183820551546
	252: 0.1947061188860259
	253: -0.2145658630473286
	254: -0.26762535218737676
	255: 0.12368871421774251
	256: 0.012479004387051419
	257: 0.03715318137220758
	258: 0.12457963534328115
	259: 0.014288468290573914
	260: 0.007630758562290658
	261: 0.0987654684115911
	262: 0.0985525615718445
	263: -0.12253830679056696
	264: 0.17284645261575027
	265: 0.2632908489002768
	266: 0.2964474076941851
	267: 0.03727724533340473
	268: -0.22909437154327925
	269: 0.05630891695548076
	270: 0.08615404873972607
	271: 0.10716029878514748
	272: 0.08233566933621271
	273: 0.17288384186668246
	274: 0.09103865633039535
	275: 0.1420715515315007
	276: 0.051567047873574134
	277: 0.05251550650171644
	278: 0.08575905934438664
	279: 0.10297202591807855
	280: 0.13785714936855267
	281: -0.1843220448120951
	282: -0.18459601334373293
	283: 0.05708833318646095
	284: -0.24948429561978205
	285: -0.19160753827841892
	286: 0.11763821587487983
	287: 0.07530480799394101
	288: 0.10147075280293756
	289: 0.101021125415424
	290: 0.12926704290079227
	291: 0.03670128558715348
	292: -0.1657702737706928
	293: 0.06644315568146056
	294: 0.11281707509501357
	295: 0.10839924594142475
	296: 0.09108746901608446
	297: 0.128738859705644
	298: 0.06322080645999176
	299: -0.11603745509612964
	300: 0.27808502409100794
	301: 0.07719548268254327
	302: 0.3783632846430666
	303: 0.5704746080758984
	304: 0.15907796796411627
	305: 0.2673000410673914
	306: -0.04712506143019589
	307: 0.2007037958709944
	308: 0.5323664541361673
	309: 0.16263893877761498
	310: -0.05789655804955348
	311: 0.1575804015104112
	312: 0.009399829720697021
	313: 0.08850984994358681
	314: 0.23878678426441233
	315: 0.17255947078838152
	316: 0.16565346727271166
	317: 0.11148346715368866
	318: 0.1493766941742997
	319: 0.2128849664964853
	320: 0.2725741622722311
	321: 0.19029582641290052
	322: 0.06335022560730232
	323: 0.2671606782613933
	324: -0.03148394441014537
	325: -0.12319078845876266
	326: 0.12668396868786502
	327: 0.15571330144682205
	328: 0.3993015353115489
	329: -0.09107220494749078
	330: 0.1208659910673558
	331: 0.10689735849498039
	332: 0.022229420748835233
	333: -0.0889336695011854
	334: -0.0076787980524646105
	335: 0.08705558216431337
	336: 0.1108773885761356
	337: -0.22710002963138498
	338: 0.11990973531476873
	339: 0.3700275015351501
	340: -0.09867225918031244
	341: -0.15374689970966357
	342: 0.006418530368537537
	343: 0.03403437981569174
	344: 0.11238031623185384
	345: 0.14838139701606556
	346: 0.12730177740745455
	347: 0.13868301050862025
	348: 0.1231148693260181
	349: 0.10961165678935682
	350: 0.10362762223145469
	351: 0.07752421261876542
	352: 0.13508281857595797
	353: 0.2512508743987688
	354: 0.49699754148072695
	355: 0.06342243340849417
	356: -0.17338236934712847
	357: 0.1778530473599529
	358: -0.21440314701031074
	359: 0.16048564402170049
	360: 0.1132371898884719
	361: 0.0063566526948773605
	362: -0.21761585536495825
	363: -0.2821921368615745
	364: 0.03099454520625657
	365: -0.11633735748414092
	366: 0.12267524851167887
	367: 0.3667228629766228
	368: 0.13957175105136627
	369: 0.2829802731856859
	370: 0.13177225937258152
	371: 0.13619859452461464
	372: 0.04208876015348499
	373: -0.05595823291715975
	374: 0.28053629685385045
	375: -0.015258148640978794
	376: -0.10303199518159531
	377: 0.26225285905694423
	378: 0.31431110446365457
	379: 0.24868776905904547
	380: 0.2790301769766602
	381: 0.5586601586725516
	382: 0.04848467578289103
	383: 0.11061369197128944
	384: 0.1314872935676565
	385: 0.05463905776237089
	386: 0.09718171882532375
	387: 0.14614872790306627
	388: 0.13310462188192274
	389: -0.41310224001997053
	390: -0.1550547284011081
	391: -0.6316949602763645
	392: -0.13148168900255508
	393: 0.1541517242873866
	394: -0.4113347188658164
	395: -0.3307014425637094
	396: 0.03696825973261265
	397: -0.4046409837335334
	398: -0.022243139054462
	399: -0.09992909849002593
	400: -0.12776917380255645
	401: -0.09012442883540468
	402: 0.2180332553325215
	403: 0.10502000326397465
	404: 0.13735716053151545
	405: -0.008575590011017539
	406: 0.4711586553197378
	407: 0.1381577392460657
	408: 0.12057071884670378
	409: -0.12084796697383185
	410: -0.42742577241965457
	411: -0.1631690391755309
	412: -0.32329391908745425
	413: 0.10726304439042349
	414: -0.04742317456873797
	415: 0.010665741443294656
	416: -0.0088640723328384
	417: -0.12754209953435555
	418: 0.039396402506916055
	419: -0.09212054647231985
	420: -0.14346593060386173
	421: -0.41746918243577436
	422: -0.08641000399648496
	423: -0.4069735164339865
	424: -0.23480260390911273
	425: 0.029733604019494236
	426: -0.26057463694867133
	427: -0.20927204783934547
	428: -0.15685501104331584
	429: -0.09473801686574633
	430: -0.11137523267561115
	431: 0.31724369006352865
	432: -0.09225629032718384
	433: -0.13806275240678137
	434: -0.11180971973455399
	435: -0.04262831252774035
	436: 0.028451271023011152
	437: -0.03374016361798318
	438: -0.48461415881645165
	439: -0.0927870895363631
	440: -0.1879662246532456
	441: -0.48891865481039287
	442: -0.28711857152278425
	443: -0.1292383343301062
	444: 0.5187228653149055
	445: 0.045538384652877996
	446: -0.1662628122141902
	447: -0.088429579556139
	448: -0.05859153426144485
	449: 0.08696455018798566
	450: 0.376543108123565
	451: -0.029587677730361375
	452: -0.14558047477912697
	453: -0.1471373776893387
	454: 0.052445093149059395
	455: -0.044170395437979744
	456: 0.04502616236762176
	457: -0.13602311831018735
	458: -0.010150768199358336
	459: -0.10311083955039532
	460: 0.011895405649445214
	461: -0.18773755769292508
	462: 0.22751886674832095
	463: -0.16499860310516565
	464: -0.029589303748917915
	465: -0.08212661305589092
	466: -0.1874519988335656
	467: 0.2508131660133581
	468: 0.16681195970241686
	469: 0.018018199273662994
	470: -0.07378678055811921
	471: -0.10555613539342928
	472: 0.0512007410712177
	473: -0.141847086575302
	474: -0.07227752584864185
	475: -0.1154520774541156
	476: 0.08112553286969103
	477: 0.28415964813235545
	478: -0.16123756258358854
	479: 0.09110490720485666
	480: -0.3964648865910463
	481: -0.07400841065853896
	482: -0.14507204426327341
	483: 0.09773865893935238
	484: 0.1441045735470301
	485: -0.048125462616916054
	486: 0.1654124745233657
	487: -0.0995269915031625
	488: -0.047254640449199144
	489: 0.45057501124871796
	490: -0.041894875086776265
	491: 0.011945381715626055
	492: -0.026838974230328688
	493: -0.14238666072961897
	494: 0.047097861185756984
	495: -0.09508496222082896
	496: -0.21883167511419685
	497: 0.5359285749760695
	498: -0.5311963749726581
	499: -0.14164398430455985
	500: -0.0959527041651444
	501: -0.12400084599635741
	502: 0.5568027948148377
	503: -0.10191783743145696
	504: -0.18772665818483183
	505: 0.03295225697158253
	506: -0.10818605145803556
	507: 0.2860720793810385
	508: -0.43719331895758196
	509: 0.44713138502783134
	510: 0.04121429678461023
	511: 0.14694013344421208
	512: 0.17439107856980282
	513: 0.17027410228445072
	514: -0.13391797800330058
	515: -0.13409107012423344
	516: -0.13380383350975603
	517: 0.18706207440131462
	518: -0.20067197679867058
	519: -0.397510139807511
	520: -0.16483649616161497
	521: -0.46607141047535966
	522: -0.06664363914298226
	523: -0.06073404050276713
	524: -0.06779958752211153
	525: 0.10270702441059754
	526: -0.23928977630696965
	527: -0.48772621806928895
	528: -0.027639390495648727
	529: -0.09917341701086888
	530: -0.3097826386693898
	531: -0.15146911224556214
	532: 0.14296756552611262
	533: -0.1996907483252939
	534: -0.32401646165464615
	535: 0.13638037846885043
	536: 0.10713738110959822
	537: 0.32812909804175716
	538: 0.04804646332569934
	539: -0.2539081275350025
	540: 0.07341720645066975
	541: 0.1733378956892855
	542: -0.12150065371578761
	543: -0.11373469215696555
	544: 0.12126416658566436
	545: -0.08737253486977457
	546: 0.24174812597722858
	547: 0.09834072587531745
	548: -0.09539002094430644
	549: -0.15308371735908188
	550: -0.151133616305528
	551: -0.0869433145396634
	552: -0.08665414427271763
	553: -0.49727075453299635
	554: 0.16511274925523609
	555: 0.24971859228742707
	556: 0.021331739767549745
	557: -0.34207377242660064
	558: -0.14080557903671065
	559: -0.29093689509813103
	560: -0.24742868298251608
	561: -0.06780595694365393
	562: 0.46389049016195893
	563: 0.05031059466676835
	564: -0.09851034381051123
	565: 0.13125339701427563
	566: 0.04430958618852707
	567: -0.5475040470600668
	568: -0.15225176033985557
	569: 0.13273120172050748
	570: -0.14467157769330657
	571: 0.35377967301775926
	572: -0.1827164151846432
	573: 0.6024763655379001
	574: -0.26846529822211473
	575: 0.10056605530237057
	576: -0.027189730611120108
	577: 0.03790976227116076
	578: 0.072992368114091
	579: -0.25467262708724187
	580: 0.049475711585363624
	581: 0.12076731809421301
	582: 0.36581485522245855
	583: 0.08964676313850059
	584: -0.07652539330157059
	585: -0.12030298701342963
	586: 0.11069491289420318
	587: -0.16058651210705494
	588: -0.09381081193007737
	589: -0.017072550388646378
	590: -0.09060933023817502
	591: -0.12337971058389784
	592: -0.12253373353543669
	593: -0.1448184397654425
	594: 0.0629544025858898
	595: 0.14428756256536107
	596: -0.16036776730050809
	597: 0.09954313465382743
	598: -0.08471578510207717
	599: 0.2461100918799786
	600: -0.050334160818915376
	601: -0.2708086104772672
	602: -0.018930665123318834
	603: 0.11055327354689327
	604: -0.11860433108487443
	605: -0.08027280773215999
	606: -0.2027866236054552
	607: -0.08248572419846774
	608: -0.10218770112850235
	609: 0.13285704538702153
	610: -0.10339104348378438
	611: -0.08377729766852167
	612: 0.24486407485013748
	613: -0.08218249785675769
	614: -0.16984882752099412
	615: -0.024033557301057454
	616: 0.18800147926756602
	617: -0.09505186710860744
	618: -0.16204990839761127
	619: -0.06734050346766596
	620: -0.11460695561186866
	621: -0.03932945426188174
	622: -0.17300714825505284
	623: -0.022379834400338725
	624: 0.3194572727507267
	625: 0.16502037055842098
	626: -0.18485844799992268
	627: 0.07127909658568327
	628: 0.12102893845316884
	629: -0.12065380700859546
	630: 0.32225894451161036
	631: -0.0786192348893661
	632: 0.015230136604398273
	633: -0.14246350049686263
	634: 0.08156673359921486
	635: -0.022044697028083426
	636: -0.13965150506397875
	637: -0.42885299350117095
	638: -0.0964247772039768
	639: -0.1048238562867694
	640: 0.007392101104656173
	641: -0.11686939017399851
	642: 0.05337511891329025
	643: -0.1235466044179257
	644: -0.5107204931014093
	645: 0.41522683597278637
	646: -0.17818817581515004
	647: -0.5422878557812707
	648: -0.2573702915748164
	649: -0.20864936032480674
	650: -0.14128033310671745
	651: -0.3711608392434881
	652: -0.17750134356943126
	653: -0.4190241536122827
	654: -0.032183157164761056
	655: -0.11844475633021456
	656: 0.03341937281546239
	657: 0.15540640478411816
	658: -0.06785752448704382
	659: -0.3457516988551471
	660: 0.0029611414307176972
	661: 0.07669261886237151
	662: -0.18804199017576267
	663: 0.098426693275914
	664: -0.26705653227654547
	665: 0.21105384417751782
	666: -0.04317947069074675
	667: -0.1324819424744972
	668: 0.06952762803245803
	669: -0.19634259436137355
	670: 0.18917979444051314
	671: 0.5164918115086944
	672: 0.2997817894823898
	673: -0.33347904744452544
	674: -0.3750411787015044
	675: -0.06992182173491678
	676: 0.23560761143877543
	677: -0.17854341400478735
	678: -0.1136660614862807
	679: 0.12701933799558468
	680: -0.10728899160052817
	681: -0.17639837076331677
	682: 0.17814573812719453
	683: -0.08024815111558854
	684: -0.15594797264992596
	685: -0.0930483352312625
	686: 0.02065145268897669
	687: -0.11878490562235809
	688: 0.053765437772918485
	689: -0.189320311845335
	690: 0.12929089675881866
	691: -0.14048537178611356
	692: 0.01801534031797899
	693: -0.10891543545469601
	694: 0.11973530611420137
	695: 0.38473277780883686
	696: -0.10159043808848636
	697: -0.10997471698431739
	698: 0.14924579884041192
	699: -0.1545412840521068
	700: -0.13048992817904395
	701: 0.13116673022742242
	702: -0.015155288524922272
	703: -0.004175933130463682
	704: -0.1348302005791593
	705: 0.09506905858215277
	706: 0.1386586890334323
	707: -0.027055021402030845
	708: -0.4224681217179148
	709: -0.1762498731144979
	710: -0.19128147420174196
	711: -0.12262513614614491
	712: -0.16286322641801182
	713: -0.23102710306458202
	714: -0.15004615293798526
	715: -0.2893427761113644
	716: -0.14584921841866144
	717: 0.11194715341039198
	718: 0.02295530053734316
	719: -0.2198271207417587
	720: -0.34097978683387475
	721: 0.03377419646152144
	722: -0.10117921272340821
	723: -0.06226688404517648
	724: 0.20327774558583436
	725: -0.16175896250563668
	726: -0.16098032009637886
	727: 0.4529127097481446
	728: -0.17108581939336004
	729: 0.018046637029427905
	730: 0.17637493386678202
	731: -0.11648586886298669
	732: -0.13265027172016905
	733: -0.15361063082982004
	734: 0.14067886257553378
	735: -0.13782024117069497
	736: 0.17653514620383326
	737: -0.13643872166497686
	738: -0.09201434600745155
	739: 0.24196788420720178
	740: -0.1663940537374882
	741: -0.04918288931301538
	742: -0.34447823026530544
	743: 0.0038255071071165107
	744: 0.44419150115235567
	745: 0.06581265794988418
	746: -0.06276592040341818
	747: -0.054150767121449034
	748: -0.004831438202357262
	749: -0.10368820772499501
	750: -0.1837216358088071
	751: 0.14275713376409657
	752: -0.06641080591047946
	753: -0.5085084001320722
	754: 0.11215697422481942
	755: 0.009289868061292068
	756: -0.17655755448372154
	757: 0.1520355749455972
	758: 0.17143946490295245
	759: -0.01897515283471943
	760: -0.16922774264748894
	761: -0.10252964724025357
	762: 0.2047918977465209
	763: -0.08249015139595449
	764: -0.031441302303773525
	765: 0.1046430997550952
	766: -0.2581714389741157
	767: -0.015160237014931379
	768: -0.09368542092451931
	769: -0.10180743930614922
	770: 0.07551081595268304
	771: -0.08998136990918124
	772: -0.07143387592361991
	773: -0.15727091113936129
	774: 0.45181270611399216
	775: -0.12193287011535578
	776: -0.05977100807325795
	777: -0.10838664624379067
	778: 0.0032645432665027382
	779: 0.2515474176731613
	780: -0.11953027738668988
	781: -0.11657090437828549
	782: -0.19132630094505867
	783: 0.0959876503191894
	784: -0.13092269744378857
	785: -0.14318880561598735
	786: 0.33466737537696234
	787: -0.2430131033721316
	788: 0.2409730996621049
	789: -0.10697149707959099
	790: 0.33077874271810354
	791: 0.22789340835023233
	792: -0.17625568213656068
	793: -0.1536588857100682
	794: -0.03978055392350197
	795: -0.09272398813997103
	796: 0.016803931878320782
	797: -0.08466985673388708
	798: -0.11967083870392059
	799: -0.08652473105757306
	800: 0.3435978732818824
	801: -0.09349353103921873
	802: 0.07520771636631807
	803: 0.13841242840920204
	804: -0.4328210524624066
	805: -0.030045543638748323
	806: -0.09447861965788225
	807: -0.10247645036954511
	808: -0.07794456650671772
	809: -0.18180623183495717
	810: -0.5378300671183556
	811: -0.44586463442701174
	812: 0.12034159496527394
	813: -0.19830074087697136
	814: 0.010896407155616964
	815: 0.32039866971164593
	816: 0.5229331474117458
	817: 0.11028490363435366
	818: 0.05860779113659886
	819: -0.12601141412883823
	820: 0.07491146746471547
	821: 0.14866246589814358
	822: -0.07753702539545343
	823: -0.08715833429232325
	824: -0.135573193070165
	825: 0.1478429458540378
	826: -0.08146411369686771
	827: -0.34643490209226885
	828: -0.24778166371935187
	829: 0.16509006147921124
	830: -0.19394912848236545
	831: -0.1206561484842517
	832: -0.149371933136349
	833: 0.14847158914093217
	834: -0.12970114264634108
	835: 0.1882499159483248
	836: -0.07212561679501758
	837: -0.07727971809600527
	838: -0.12127125676535795
	839: 0.18157364666157835
	840: 0.16079626894764937
	841: -0.07672413853354638
	842: -0.14934311744370282
	843: -0.13777315399651632
	844: -0.3152083442191859
	845: -0.13865289624904226
	846: -0.34119540562179596
	847: 0.0902318055295399
	848: -0.08791080052222816
	849: 0.24008323838374065
	850: -0.026099861408455067
	851: -0.10791755403588782
	852: -0.10268188970181034
	853: 0.11849307749373875
	854: -0.05450934111116709
	855: -0.011497539008010683
	856: 0.12974854252640214
	857: 0.16298610809076658
	858: -0.19616333360435156
	859: -0.26519683010107625
	860: -0.02080158030365056
	861: -0.10931133884323907
	862: -0.25950327363731707
	863: -0.05648640220407146
	864: 0.13570951063021902
	865: 0.26553534790165767
	866: -0.08650230204508208
	867: 0.09770422245477299
	868: -0.024171682938241682
	869: -0.15491282602690223
	870: 0.303704856866225
	871: 0.10389810012250542
	872: -0.04931040791868356
	873: -0.20943890701702902
	874: 0.12809973535988833
	875: 0.10344501863100743
	876: -0.025157855643951555
	877: -0.38892594964674604
	878: -0.06646236160028242
	879: -0.11561862188504082
	880: 0.3058729778574363
	881: 0.02305348991462869
	882: 0.2184347910841787
	883: -0.07212818526927693
	884: 0.19220278411359437
	885: -0.1283338109429696
	886: -0.0691072747132808
	887: -0.1001858316448412
	888: 0.16730686822308732
	889: -0.13950882706155443
	890: -0.22953808625282335
	891: 0.13790873530305073
	892: 0.24469060574065285
	893: -0.16307640407677376
	894: 0.09206039747856543
	895: -0.03780627350478989
	896: -0.20042795869852548
	897: -0.1453001976240476
	898: -0.10880147132779021
	899: -0.12738013701743997
	900: -0.2500819208920019
	901: -0.3471027229878891
	902: -0.10404523324353858
	903: -0.1157213306554439
	904: 0.07117301892616523
	905: -0.0944124644457138
	906: -0.12488339981493324
	907: -0.1668563190498383
	908: -0.24396224933607327
	909: -0.19852042595815525
	910: -0.15364293194878215
	911: -0.08471728520358136
	912: -0.2370428195960844
	913: 0.017276894579251814
	914: 0.12011288123390083
	915: 0.23707059513462758
	916: -0.09904207540922287
	917: -0.1243838735627054
	918: -0.5497333533570486
	919: -0.1749048703467413
	920: 0.14270828253972848
	921: -0.10314479031116058
	922: 0.2988396929260453
	923: 0.13878012896557215
	924: 0.07167110400696523
	925: 0.18048498869106092
	926: 0.032995693568150734
	927: -0.2330824724949378
	928: -0.10397673493895224
	929: -0.1325940805321666
	930: 0.06757757330076293
	931: -0.14488414559555612
	932: 0.07982660402700598
	933: -0.06534168359009601
	934: -0.27813824159138717
	935: -0.07246441595815338
	936: 0.05158276031123718
	937: -0.5311769008252499
	938: 0.17553916975722633
	939: -0.3759281533018488
	940: 0.09866437514826439
	941: 0.0990666044977659
	942: 0.09735586465241469
	943: -0.11517537377342213
	944: -0.1743417545323742
	945: 0.2183777962478748
	946: 0.291345770947356
	947: 0.17943433234603948
	948: -0.15608262530572123
	949: -0.05808027854965855
	950: -0.09546066246537717
	951: -0.14307679664530107
	952: 0.17814142065257751
	953: -0.16278622563817566
	954: -0.32955040341997477
	955: -0.0993093021054251
	956: -0.01810108951263209
	957: 0.13212189010635925
	958: 0.06432352421108391
	959: 0.15458671148376996
	960: 0.029917779639940918
	961: -0.338756402513739
	962: 0.031866948169312424
	963: -0.1030425562889964
	964: -0.20645626312215531
	965: -0.36803603064645674
	966: -0.1724849368194128
	967: -0.4888354508513007
	968: -0.19555895878287116
	969: -0.537785821294387
	970: 0.09575963133337545
	971: -0.12847848970884684
	972: 0.06985856390798376
	973: 0.02904031389077227
	974: 0.03595429927750908
	975: 0.03164848679601692
	976: 0.005498259124545228
	977: 0.2167052679712703
	978: 0.27703765553177895
	979: 0.1502029107539315
	980: -0.0790199525523976
	981: -0.10551894522543008
	982: -0.13216483785081018
	983: 0.0655961427215271
	984: -0.07572703074113718
	985: -0.28421780525927187
	986: 0.15062026192806188
	987: -0.1519951697160413
	988: 0.36470582004157004
	989: 0.23187068677480702
	990: 0.08860314051801757
	991: 0.13135097453621541
	992: 0.17409130420273528
	993: 0.009088951825065694
	994: 0.23040489999762884
	995: 0.18702071871830422
	996: 0.2608278464432644
	997: -0.34055962498108794
	998: -0.14507119934757104
	999: -0.09854583926466311
Scarlett Johanssonembedding:
	0: -0.08352049762775435
	1: 0.06744322006805402
	2: -0.34341529340865196
	3: -0.09235284875163029
	4: -0.2384515187522046
	5: -0.11941856407678843
	6: 0.16904087113264443
	7: 0.24069925244870086
	8: 0.35300792168606565
	9: 0.08416165331111056
	10: 0.11032073579584158
	11: 0.17838727847533373
	12: 0.16108647997378867
	13: 0.09766271382639308
	14: 0.2286005983930233
	15: 0.17700214609314494
	16: 0.1014140528005465
	17: 0.10129269687374236
	18: 0.00885534321824882
	19: 0.3176547868460313
	20: 0.0256831177436807
	21: 0.11002348562988415
	22: 0.21003371725443393
	23: 0.3467134638333937
	24: 0.175305592940641
	25: 0.19623435760537125
	26: 0.15220358754923716
	27: -0.10920962861452366
	28: -0.24982484950749864
	29: -0.03564471167056561
	30: 0.281658541030313
	31: 0.04084641780380024
	32: 0.12037597372487707
	33: 0.15977796985246864
	34: 0.00964710960839252
	35: 0.11170323195691247
	36: 0.22785112187532022
	37: 0.20243495106511405
	38: -0.24028460602299428
	39: 0.26465766282829684
	40: 0.2606277851142955
	41: 0.17467013399666922
	42: 0.09014589793017717
	43: 0.13254081546465832
	44: 0.1684954806325882
	45: 0.1357726537875237
	46: 0.20988721382802986
	47: 0.13646518438062344
	48: 0.12004776755602921
	49: 0.12881327359098454
	50: -0.197617338565389
	51: 0.4403261344314199
	52: -0.15444093733877262
	53: -0.2927094819792688
	54: -0.06073020933028784
	55: 0.15818397929433106
	56: -0.25433737652795224
	57: 0.13907449230398383
	58: 0.13688714550301304
	59: -0.3382814682004194
	60: 0.026278697795382094
	61: -0.16127192970303533
	62: 0.12103213474974289
	63: -0.32649260118567686
	64: -0.1151302672238216
	65: 0.0883375183182287
	66: 0.18189686624257456
	67: -0.054389214998948256
	68: 0.12539581712751527
	69: 0.20121537892061941
	70: 0.251856554741957
	71: -0.22224418488320788
	72: 0.1089170740165433
	73: 0.15402908915859304
	74: 0.14770038579137593
	75: -0.03443059060162689
	76: -0.19969379552375097
	77: 0.1510044941094242
	78: 0.00977515368446391
	79: -0.3104936981739396
	80: 0.10866326581026138
	81: 0.1541023462334254
	82: 0.18459770487002006
	83: 0.18826653787519168
	84: 0.1658796794232861
	85: 0.2356725774233833
	86: 0.31594137013380097
	87: 0.2941435884656973
	88: 0.3650880618384086
	89: 0.19367059837669146
	90: 0.21800761526697185
	91: 0.17121595774544904
	92: 0.1251190282393296
	93: 0.4565640843103662
	94: 0.7067619957504351
	95: 0.133293940809117
	96: -0.004269032034841131
	97: 0.1570467994662067
	98: 0.08856116772807368
	99: 0.10828423629265883
	100: 0.1392157274423687
	101: -0.18104999818069945
	102: 0.2810850551466073
	103: -0.49180471787481894
	104: 0.15277672875193446
	105: 0.20567537647112177
	106: -0.04070270697315407
	107: -0.12573313517322685
	108: 0.274946463992903
	109: 0.3419840037148944
	110: 0.284427301222509
	111: 0.0571875731452792
	112: -0.060134090634349324
	113: 0.19679886611148656
	114: -0.018921125389335172
	115: 0.31572211479813733
	116: 0.20125584372455407
	117: 0.09396680272485078
	118: 0.17830420193901675
	119: -0.12677639830215623
	120: 0.14643477627771978
	121: 0.300912241249661
	122: 0.07367070382098247
	123: 0.2664739825924517
	124: 0.11931595041646942
	125: 0.14247305694225593
	126: 0.023029188312666787
	127: 0.1901705797780508
	128: 0.11453773471645673
	129: 0.05647287823485711
	130: 0.2839207470686803
	131: 0.13142012010604812
	132: 0.08353369132615805
	133: 0.20939432681719858
	134: 0.11073121298730434
	135: 0.3183172420431814
	136: 0.11957149024990041
	137: 0.09551320899794478
	138: 0.15431072987039496
	139: 0.09522013336670068
	140: 0.09928375051553076
	141: 0.16649405628215852
	142: 0.23481802854222752
	143: 0.12038296662124598
	144: 0.4999663379548747
	145: 0.053058261944531525
	146: 0.20738624499343764
	147: 0.07293621841854307
	148: -0.09090868024949772
	149: -0.09208925576444929
	150: 0.04403127347050677
	151: -0.10194486673066924
	152: 0.071644148271795
	153: 0.20245280560446147
	154: 0.11045776039053083
	155: 0.04261567994514445
	156: 0.002676029268848606
	157: -0.2833627179461743
	158: -0.27920448668462694
	159: -0.17337785347347767
	160: 0.3356544751842212
	161: -0.28431347675042057
	162: -0.35250318110698975
	163: 0.1993828629721283
	164: 0.07572194736923779
	165: 0.11955030962754687
	166: 0.030425466169697473
	167: 0.04796755151152462
	168: -0.12561623366765776
	169: 0.07075224582630248
	170: 0.1535457888024358
	171: -0.09707689821612689
	172: -0.04190057574310365
	173: 0.002672392022206529
	174: 0.061699385670653
	175: 0.14845562098184978
	176: 0.15735974664592356
	177: 0.031656535687784544
	178: -0.019502862196505898
	179: -0.31346640380213103
	180: -0.1494622852956845
	181: 0.056413659012534666
	182: 0.13925481220605998
	183: 0.09865371718776111
	184: 0.21247098615551052
	185: 0.45920428804849966
	186: -0.17058590678619187
	187: 0.20217348689586812
	188: 0.12129318822427593
	189: 0.0552753532411455
	190: 0.016226905932608705
	191: 0.19238973375599427
	192: 0.2887566721250543
	193: 0.017308959659303576
	194: 0.1524781019838741
	195: 0.19515150770602951
	196: 0.033433695862102736
	197: -0.006821312082837385
	198: 0.10282011861852147
	199: 0.11397576699815887
	200: 0.20534192113851465
	201: 0.09114203796709842
	202: 0.17966490530944987
	203: 0.115010663792498
	204: -0.024120010023374373
	205: 0.09044516455070356
	206: -0.1728980377283442
	207: 0.07977630776629038
	208: 0.04007047817281092
	209: -0.09680408373170034
	210: -0.008027587061799128
	211: -0.28804710458805405
	212: 0.030060397967849206
	213: -0.14548414892564593
	214: -0.3454452465158523
	215: -0.00411535516962975
	216: -0.026238966706838847
	217: 0.16209268387069634
	218: 0.029464042529017638
	219: -0.03958948925956426
	220: -0.13861941258066815
	221: 0.11489716957940123
	222: 0.11104433128303438
	223: 0.009024410200073473
	224: 0.024232067038654815
	225: 0.10569718535069565
	226: 0.06266256174921639
	227: -0.24798028310520337
	228: 0.10300632470918597
	229: 0.11356805299413057
	230: 0.004595491159684766
	231: 0.06827280907219933
	232: -0.0668005731040278
	233: 0.1060975931750297
	234: -0.18507050064035308
	235: 0.11681515511670337
	236: -0.46510278648707304
	237: -0.48848183538021955
	238: -0.06087581474411513
	239: -0.07580253479065167
	240: -0.1749872228063187
	241: -0.015007087434919977
	242: 0.1706626447240102
	243: 0.6639252974540224
	244: 0.18071814531397384
	245: 0.05056029230049394
	246: 0.34523567410339995
	247: 0.1275648442863111
	248: 0.024585468630755773
	249: 0.04081171291119326
	250: -0.004126367264219523
	251: 0.45311992924955524
	252: 0.057151777149688755
	253: -0.4897609290025934
	254: 0.3902511636641147
	255: 0.12798816654576214
	256: -0.017355158400606484
	257: 0.15280690516655196
	258: 0.16819722662390646
	259: 0.27062580647448725
	260: 0.09020659101768136
	261: 0.11911635601489258
	262: -0.17635422444521132
	263: -0.08270960766321254
	264: 0.022175452710765136
	265: -0.1852808064280994
	266: -0.1381163810047783
	267: 0.026003995702365817
	268: -0.25260978378739896
	269: 0.07531471165289604
	270: 0.10446675030066084
	271: 0.14214135208338677
	272: 0.1533125138079027
	273: -0.07201436284222854
	274: 0.1392033379101725
	275: 0.12202034869746704
	276: 0.03832935503065441
	277: 0.1386803010409807
	278: 0.1412112847346764
	279: 0.07729345622264434
	280: 0.08787545299638228
	281: 0.3306873463796631
	282: 0.4521447843921832
	283: 0.06251236938985841
	284: 0.20248145898374667
	285: 0.23062002295421308
	286: 0.036296859674814747
	287: 0.03749200350677803
	288: 0.14682053033791856
	289: 0.14049286235503058
	290: 0.09429070617463602
	291: 0.16826408904630966
	292: 0.6170332941806828
	293: 0.08940964430691395
	294: 0.08657002554606426
	295: 0.06842134929387467
	296: 0.09766288119505367
	297: 0.10704693049861744
	298: 0.1937352605532502
	299: 0.31530914483591155
	300: 0.11753170185280631
	301: 0.13712661369307189
	302: -0.11053921174912706
	303: -0.011850306793983561
	304: 0.15036619385076383
	305: 0.04574427080865376
	306: 0.02524616053898713
	307: 0.1183299239060621
	308: -0.03817239162264067
	309: 0.026678144862238528
	310: -0.06216620298292289
	311: 0.20304957504367732
	312: 0.38913388369882973
	313: -0.32975648235900795
	314: -0.10649530724996552
	315: 0.0033248467952485183
	316: 0.2116694522735147
	317: 0.3658945674921551
	318: 0.19461558365843193
	319: 0.12929484765887925
	320: 0.10809095524568874
	321: 0.15034185004469766
	322: 0.35181870696212
	323: 0.07528595497831088
	324: 0.21346961575015355
	325: 0.12453601280304696
	326: 0.1590447800463217
	327: -0.4021041288062269
	328: -0.031695896352838926
	329: 0.2520548171858583
	330: 0.11325649273685513
	331: 0.12800852661425371
	332: 0.07865290879729535
	333: -0.05777511805342161
	334: 0.3849577571198566
	335: 0.17252505985717267
	336: 0.13388621168007234
	337: -0.038415593752427216
	338: -0.3156528641733921
	339: -0.03338479893959701
	340: 0.5241747692498382
	341: -0.29101103445889037
	342: 0.20202855454290816
	343: 0.16881272015670504
	344: 0.09365463911076528
	345: 0.07562303318906519
	346: 0.11037261051151337
	347: 0.08809593587886981
	348: 0.0980458257737856
	349: 0.08412980533813151
	350: 0.07955989195142414
	351: 0.15250251557136088
	352: 0.24476726493481657
	353: 0.04584464154284701
	354: -0.10493948860231869
	355: 0.047560258291567896
	356: -0.12814558959063785
	357: -0.02512692774461481
	358: -0.03664921752650035
	359: 0.10154742993985878
	360: 0.058890807033421755
	361: 0.04386601499189186
	362: 0.4186549998832485
	363: 0.19553356058948643
	364: 0.24135768963973878
	365: -0.15127926209620662
	366: 0.017820108120321348
	367: 0.0023225172775517455
	368: 0.26402374339978796
	369: -0.047050809466605496
	370: -0.02281138917220986
	371: -0.015070736860997901
	372: -0.047257210194269275
	373: -0.21561279179026102
	374: 0.02558041533057577
	375: 0.3083069192039006
	376: -0.12489582677335323
	377: 0.11008813882219066
	378: -0.5578462072937215
	379: 0.06323560769807626
	380: 0.09824915664018935
	381: -0.1939774198128323
	382: 0.20841560555286556
	383: 0.1012076975989246
	384: 0.11111485498112572
	385: 0.40898534033598594
	386: 0.11489322614448784
	387: 0.09232654704697114
	388: 0.08614276244319656
	389: -0.24963184884599193
	390: 0.00523320951423689
	391: 0.03371497094391196
	392: -0.02922813528065301
	393: 0.24639631108583065
	394: -0.14525843739509006
	395: -0.09351551444289338
	396: 0.2666368221128833
	397: -0.047371283439488855
	398: -0.2505321521062452
	399: -0.13909046719382256
	400: -0.1104587570580687
	401: -0.29758127800542544
	402: 0.12327911376939128
	403: 0.07741612947123706
	404: 0.0658077704495053
	405: -0.05691468251532503
	406: -0.020485500014223813
	407: 0.047646055550311525
	408: 0.10401053460751301
	409: -0.10173707092901776
	410: 0.40283028131849913
	411: -0.05613651243942035
	412: 0.08713077536271716
	413: -0.4769510873220734
	414: -0.03461612089710989
	415: -0.31659439914906856
	416: -0.11261190109490454
	417: -0.06580391029267309
	418: -0.23972196695802633
	419: -0.13529109274291143
	420: -0.2585954732948472
	421: 0.08764606375217486
	422: -0.07495214997606284
	423: -0.20640220872495552
	424: -0.2627911570211821
	425: 0.2051920353928098
	426: -0.019793561140409425
	427: -0.13488958804787926
	428: 0.1953073950731666
	429: -0.18095819479957642
	430: -0.13479048461021603
	431: -0.39722669883730244
	432: -0.22333859175949328
	433: 0.007047464533414293
	434: -0.11631303621283386
	435: -0.050231413360971186
	436: 0.20009405506450245
	437: 0.16547842816498456
	438: -0.03600401482202868
	439: -0.25162814620978924
	440: -0.13099296710390795
	441: -0.08511309607490508
	442: 0.5508237039712374
	443: -0.08851757882999302
	444: -0.12016172215959822
	445: 0.02909132190431631
	446: -0.05946504998474006
	447: -0.15000961937506618
	448: 0.20873214468605786
	449: 0.11816306387902083
	450: -0.010568183326032364
	451: -0.21059312292978033
	452: -0.028915466648752053
	453: 0.01305030075292948
	454: -0.2362596715625058
	455: -0.14242962036645082
	456: -0.2360408115166309
	457: -0.1468127553388849
	458: 0.14209787514980354
	459: -0.0748514502831871
	460: 0.07457300146585216
	461: -0.053173992881834484
	462: -0.2506284120164639
	463: -0.049437546847663855
	464: -0.2314745670653365
	465: -0.30686132470054545
	466: -0.3110656718994395
	467: 0.16384270018323455
	468: -0.022965176854523036
	469: 0.3909253930567535
	470: -0.1311126900320608
	471: 0.40565046237969804
	472: 0.0688760775565523
	473: -0.3365498713047421
	474: -0.14903281401060414
	475: -0.31315738320273384
	476: 0.08283517540302418
	477: -0.024234174615551305
	478: -0.14453780593165724
	479: 0.038233542976185766
	480: -0.0963459631015902
	481: -0.160777250708904
	482: -0.02393271354680942
	483: 0.15031226315899107
	484: 0.10902391791099678
	485: -0.23240195793415191
	486: 0.115063788690142
	487: -0.1270785856506192
	488: -0.13441310256684894
	489: -0.10793580727163882
	490: -0.13352550106248495
	491: -0.09549136229972194
	492: -0.031866809250600994
	493: -0.08030831709790028
	494: 0.09156240026856338
	495: 0.19041304677021223
	496: -0.09228699932526112
	497: 0.12498743714232027
	498: 0.0912573474919281
	499: -0.1324195753056725
	500: -0.04180905778449323
	501: -0.10769806316911355
	502: -0.13063440459339132
	503: -0.18342580485111443
	504: -0.10246847960935204
	505: -0.0813456107115163
	506: -0.11691216657887153
	507: 0.3340543542107607
	508: -0.26983902233607376
	509: -0.08507067808390319
	510: 0.03664654379134205
	511: 0.055911524422665206
	512: 0.0054167999298682466
	513: -0.14237022184550574
	514: -0.12965612397732107
	515: -0.08752993964247033
	516: -0.04248884092759783
	517: 0.049078764129276094
	518: 0.03214352432053028
	519: 0.21341735525930103
	520: 0.020511807371618028
	521: 0.1499308336720208
	522: -0.38658031155224554
	523: -0.15250224760770845
	524: -0.1565181149545012
	525: 0.10546873507176034
	526: 0.18023170109397993
	527: 0.12994469234234915
	528: -0.14108377219692858
	529: -0.06496420256777206
	530: 0.1585263867908911
	531: -0.05750793727693328
	532: 0.08725414090371403
	533: -0.19794167672673227
	534: 0.06950595756656239
	535: 0.07629111237188343
	536: 0.04673394298267965
	537: 0.1034659287171857
	538: 0.26152192166509475
	539: 0.11035014629381673
	540: 0.0724825637227835
	541: -0.014193007189591045
	542: -0.10971848583203692
	543: -0.16676639176765273
	544: -0.10478431908241663
	545: -0.14819074271880683
	546: -0.0016163830422899336
	547: 0.12165577844089846
	548: -0.12058446234119338
	549: -0.1121401343954175
	550: 0.4554272615803585
	551: -0.12523910781441025
	552: -0.0792840244855187
	553: 0.11485135536068167
	554: 0.01852316372707364
	555: -0.04910006962982117
	556: -0.19798346510307083
	557: 0.47244713664206256
	558: -0.1209073424426264
	559: 0.1625708684304476
	560: 0.04338442870443928
	561: 0.4171284286702315
	562: 0.12304238623846951
	563: 0.11518818935556477
	564: 0.47625832248660693
	565: 0.0550125152477687
	566: 0.14567592241819116
	567: -0.12684276076250667
	568: -0.06798259954724467
	569: 0.0678569346076208
	570: -0.17367123357880387
	571: 0.25432847474881015
	572: -0.10707842082028979
	573: -0.20836232526010012
	574: -0.1170361586790796
	575: -0.18005642442370356
	576: -0.2817121990582871
	577: -0.1402747215679215
	578: 0.18186081298567333
	579: -0.04754249048893003
	580: 0.12958905831628595
	581: 0.03479577230021151
	582: -0.2192964313103775
	583: -0.016365674177612703
	584: -0.11166554206031525
	585: -0.09500357664595212
	586: 0.08470732588193254
	587: -0.11714176095857876
	588: -0.1434205180854898
	589: -0.0998560427199869
	590: -0.17414661282442484
	591: -0.09267925713376192
	592: -0.06737585911126123
	593: -0.10049870762007043
	594: -0.005561743339050073
	595: 0.08031745944058573
	596: -0.08749834871162071
	597: -0.24342689047977054
	598: -0.279668899698401
	599: -0.3549604816050972
	600: -0.06072431517507335
	601: 0.10168411076602973
	602: -0.01201523852746959
	603: 0.10583994194795658
	604: -0.07083694265891764
	605: -0.15205388793410868
	606: -0.1605566841187446
	607: -0.1085220323303616
	608: -0.22753000903554027
	609: 0.08998631719021656
	610: -0.10565044694315467
	611: -0.17847524616415916
	612: 0.23635630267698762
	613: -0.26951179976200756
	614: -0.1034794430930102
	615: -0.3012828886569507
	616: 0.111313539681856
	617: -0.18322310105060655
	618: -0.0945472772715454
	619: -0.060437254888092935
	620: -0.18628411328820227
	621: 0.38376887043013463
	622: -0.05925992297919049
	623: -0.21239619973034332
	624: -0.5839399593491219
	625: 0.030603367685599233
	626: -0.0879618362733167
	627: -0.44205988323421874
	628: 0.0445850016282396
	629: -0.06731558905257443
	630: -0.045832025951461595
	631: -0.09820685176581768
	632: -0.33951773889734815
	633: -0.12060811299122824
	634: 0.08618964007225904
	635: -0.02053637346190291
	636: -0.09854304880231232
	637: 0.12839123808344155
	638: -0.09214904370943439
	639: -0.06598168312642069
	640: 0.12488822610745523
	641: -0.09007533405629013
	642: -0.16059500461696846
	643: -0.09732113869473444
	644: 0.06463796150854495
	645: 0.08014336055657925
	646: -0.07074958253698503
	647: -0.07190315851718262
	648: -0.007614077130648166
	649: -0.28318411161277574
	650: -0.09643783448228124
	651: 0.21887544998947336
	652: -0.10421601223875598
	653: 0.011361089072509925
	654: -0.26915835498427043
	655: -0.09600912683371371
	656: 0.07230543216060553
	657: 0.012085127245774143
	658: -0.16759982318552297
	659: -0.1220125228709826
	660: 0.2276501903273769
	661: 0.13689846279324622
	662: -0.15913051200584372
	663: 0.16453599743954073
	664: -0.07539681946790674
	665: 0.45401772581480954
	666: 0.31077034456150415
	667: -0.1094771657137214
	668: 0.21801147396814605
	669: -0.2141977868356063
	670: 0.3771597585209736
	671: 0.08653841837807687
	672: -0.189826409538109
	673: 0.024651095802902
	674: 0.08586923801416844
	675: -0.16220428144711427
	676: 0.0716142151215985
	677: -0.004813213709685188
	678: -0.10879376921843499
	679: 0.11816898431732935
	680: -0.10157504029059422
	681: -0.14364386244652655
	682: 0.13319824498294705
	683: -0.16362561584116173
	684: -0.0927374163428087
	685: -0.11735771495164195
	686: -0.2510133241785654
	687: -0.16482492688641717
	688: 0.17389765968799975
	689: -0.013132623124265587
	690: 0.09861113304243677
	691: -0.19955789358656453
	692: -0.2686401903025601
	693: -0.1888652446983912
	694: 0.07702331099842001
	695: 0.23193179371408204
	696: -0.15242052583828022
	697: -0.09803689658388814
	698: 0.15463326189959276
	699: -0.10343465386629891
	700: -0.1416330682710969
	701: 0.06280017199996189
	702: -0.025969648003647438
	703: 0.049595036684475534
	704: -0.18032928812722235
	705: 0.102739991850685
	706: 0.10265522377984639
	707: -0.16670820437479425
	708: 0.18092686448374493
	709: -0.13110410559704408
	710: -0.19642116274405022
	711: -0.07991516867993771
	712: -0.3999641292373693
	713: 0.031197947220585928
	714: -0.10353401957564104
	715: -0.047647690429593145
	716: -0.04179328026037661
	717: 0.10574173753564553
	718: -0.013307212944776485
	719: -0.05139444207688715
	720: -0.14841309063591204
	721: 0.007265885509279194
	722: -0.13882836400560547
	723: -0.09820605193616022
	724: 0.07277959289667496
	725: -0.02245916376591569
	726: 0.3979584299080741
	727: -0.06999600810213273
	728: -0.07223456050215392
	729: 0.0680999022289305
	730: 0.08318298009831827
	731: -0.11299170394080307
	732: -0.08196464050753535
	733: 0.049179924977932506
	734: 0.06651184291547846
	735: -0.06678525867586191
	736: 0.09483019526156256
	737: -0.10109018310782954
	738: 0.6160676925820989
	739: 0.17385262382226926
	740: -0.12940266880854243
	741: -0.27424009653919573
	742: 0.15097609434452522
	743: -0.2759829185303035
	744: -0.06999024280078937
	745: -0.08312392276254556
	746: -0.1641144107196426
	747: -0.26347977093957187
	748: -0.0013232560852176913
	749: -0.11496927220013321
	750: -0.0676126356615828
	751: 0.04129353365752441
	752: -0.1528290457155219
	753: -0.04478027608023656
	754: -0.05610372869964394
	755: 0.00798298666573906
	756: 0.48914462813557147
	757: 0.05812332893293073
	758: -0.033540947721011745
	759: -0.14740769138476034
	760: -0.1980892018008415
	761: -0.14937548748631202
	762: 0.18887911054526899
	763: -0.17674082121125312
	764: -0.25871709537782495
	765: 0.3900174986801542
	766: -0.08725234058963223
	767: -0.20516473450986125
	768: -0.09849920032431082
	769: -0.13047543960870975
	770: 0.20095528222619954
	771: -0.0234167626865089
	772: -0.1123643494631502
	773: -0.11455828666754976
	774: 0.11268747583538039
	775: -0.05122082078346145
	776: -0.28198473782713074
	777: -0.21710919856214528
	778: -0.2586414386906188
	779: -0.3360242334871049
	780: 0.14495088829418953
	781: -0.3091255737403245
	782: 0.1564889425024121
	783: -0.37632718991316955
	784: -0.14802182759852817
	785: -0.10495908735565682
	786: 0.13350733039027535
	787: -0.13517117621578428
	788: -0.19876576997729714
	789: -0.048889209770685046
	790: 0.014379825504682774
	791: 0.18850687091705712
	792: -0.03454846811432017
	793: -0.07731747767110342
	794: -0.14810824127008365
	795: -0.1978890047671289
	796: -0.26984878578810606
	797: -0.20481077044779677
	798: -0.2435156922487408
	799: -0.27342677726452636
	800: 0.10209535951787362
	801: -0.066126414494893
	802: 0.07202004256507802
	803: 0.08422422602693799
	804: 0.17436873849630247
	805: -0.08632370373267625
	806: -0.11186252252517472
	807: -0.22512115208175787
	808: -0.12819545546300495
	809: -0.32359080395238315
	810: 0.029830313192800672
	811: -0.029789943563489223
	812: 0.05176394073220515
	813: -0.06489102273659603
	814: 0.07299006252546811
	815: 0.20997800132336367
	816: -0.2260860935327621
	817: 0.08757645985226559
	818: -0.10903474647132047
	819: -0.1286655546107182
	820: 0.12373618168024154
	821: 0.10697356023435178
	822: -0.27933793620543534
	823: -0.1206724759372486
	824: -0.08978008060694997
	825: 0.12595478274131167
	826: -0.14403237984038067
	827: 0.29239900885917736
	828: -0.02226413312571163
	829: 0.07395573414586668
	830: -0.16094368811982945
	831: 0.18239856497368534
	832: 0.37948301931626977
	833: 0.05701411605180831
	834: -0.1706800391163541
	835: 0.21900321873466713
	836: -0.15317382957853032
	837: -0.13211453211841556
	838: -0.08449692297420398
	839: 0.09569651724046235
	840: 0.07893719673991847
	841: -0.1715240604547109
	842: -0.11265630848676043
	843: -0.01862481492167372
	844: 0.1811562386687495
	845: -0.08097085204681777
	846: 0.2106782303000732
	847: 0.1354886522752762
	848: -0.11455160271176085
	849: 0.19098176282793256
	850: 0.03636787344726645
	851: -0.2525113930597394
	852: -0.39592133576673283
	853: 0.16021714162563216
	854: -0.13059192535273687
	855: -0.19241522630847874
	856: 0.07850663292567334
	857: 0.37718834051881905
	858: 0.5168414111222687
	859: -0.05605453120236159
	860: -0.2955752033601026
	861: -0.09277439666437642
	862: -0.13383295984053017
	863: 0.3765155913910134
	864: 0.08310048265854515
	865: 0.17117189703882676
	866: 0.4089518686377085
	867: 0.0907754525097039
	868: -0.07025170119280169
	869: -0.10498614559724649
	870: 0.23792234960850075
	871: 0.10273095530969678
	872: -0.10542804258202601
	873: 0.5221794837711118
	874: 0.11452429402543583
	875: -0.0414993558330169
	876: -0.05961702894574566
	877: -0.09788470904387864
	878: -0.05456177546657995
	879: -0.09403268187503404
	880: 0.15144956123699993
	881: -0.35719909268345745
	882: -0.06128740144258438
	883: -0.13079025877768818
	884: 0.03744480691896369
	885: -0.08409495403797095
	886: -0.05474109460707911
	887: -0.1277741167633087
	888: 0.08469820278262466
	889: -0.15076430777800107
	890: -0.010014077769798074
	891: 0.23432785164157416
	892: 0.0657455173702224
	893: -0.08937777940127964
	894: -0.150693776358189
	895: -0.024708046335281463
	896: 0.20679711572247492
	897: -0.12384923744422034
	898: -0.11502954224790865
	899: -0.09144483252649772
	900: -0.20082036896789932
	901: 0.1717353352366014
	902: -0.11797730263086138
	903: -0.062346647184677875
	904: -0.571286097198308
	905: -0.16352674732435554
	906: -0.17793846745186953
	907: -0.11308873927696408
	908: -0.13265924325901318
	909: 0.44749358523825716
	910: -0.08826544421127419
	911: -0.1336187377502228
	912: -0.3839604596684164
	913: 0.09457003523928754
	914: 0.08563586638192922
	915: 0.20175586574838342
	916: -0.06408534510578724
	917: -0.24987072966173926
	918: -0.16521560314452027
	919: -0.0424487678831572
	920: 0.06748649878344823
	921: -0.18387695626235565
	922: -0.61922528196647
	923: -0.23058945239114828
	924: 0.1944804577537104
	925: 0.08845910892815244
	926: 0.10360128342863646
	927: -0.3068465569222607
	928: -0.08918564310308207
	929: -0.06397356803766889
	930: 0.02994312938580273
	931: 0.011534596512145386
	932: 0.1221436478432126
	933: 0.2056814683809673
	934: 0.154582944236061
	935: 0.06540296096509958
	936: 0.22422328126813104
	937: 0.37059433182594936
	938: -0.4517278380913727
	939: 0.1825544003395395
	940: 0.32533678456869747
	941: 0.13184573359537302
	942: 0.23016719955542034
	943: -0.3693037586378316
	944: 0.5775110682569143
	945: 0.08938498654130561
	946: 0.16303774024348863
	947: 0.23150879214430817
	948: -0.31338822953854656
	949: 0.0030534243285667475
	950: 0.19836031335708174
	951: 0.23065884512639787
	952: 0.08505112843038039
	953: -0.017342099725951084
	954: -0.09379805150272409
	955: -0.11729802782357948
	956: -0.15337057299701295
	957: 0.06410168897447838
	958: 0.06557236509741526
	959: 0.26873556712558144
	960: 0.03168852402989069
	961: -0.1691222341871115
	962: 0.09685869345586762
	963: 0.0343561791316646
	964: 0.07472571374080317
	965: -0.23737233556234139
	966: -0.05217977602509428
	967: 0.18636640819937964
	968: -0.10537965574399623
	969: -0.06835533651572023
	970: 0.03437082661080933
	971: -0.05664088812644297
	972: 0.06874914385942003
	973: 0.27903409506126076
	974: 0.0999354600339053
	975: 0.1923125998466955
	976: 0.08757659085722408
	977: -0.3493429928296761
	978: 0.03784573133496463
	979: 0.1278384502275217
	980: -0.09972719057339266
	981: -0.1324260910291594
	982: -0.08772014411414267
	983: 0.1298029208147341
	984: -0.2780110791429983
	985: 0.4456415554940767
	986: 0.27901729437178413
	987: -0.0023470910374117897
	988: 0.1598345582902226
	989: 0.21799436843678507
	990: 0.16545621205411717
	991: 0.3622684063922381
	992: 0.1693059628905501
	993: -0.12169654440618122
	994: 0.2501687660433753
	995: 0.18624921842468398
	996: 0.06517281241666248
	997: 0.15103830028991613
	998: -0.1331198412393128
	999: -0.14678664690005444
Daniel Craigembedding:
	0: 0.5408035192221019
	1: -0.14895832363428807
	2: -0.08969966983385017
	3: -0.18797359599300492
	4: 0.29420598169445283
	5: -0.2981994059687276
	6: -0.015424549745264618
	7: 0.1102748898166246
	8: 0.011766801128435252
	9: 0.17528125602306419
	10: 0.16897222115740537
	11: 0.15527484832543087
	12: 0.31237101923606203
	13: 0.25393356053794214
	14: 0.15457465524598799
	15: 0.19603911748989916
	16: 0.20957038107975032
	17: 0.2179798386142188
	18: 0.2070730606559381
	19: 0.006980169910614725
	20: 0.33265897336445716
	21: 0.2859332411902042
	22: 0.2756903039921204
	23: -0.30215771001480507
	24: 0.10846161358363456
	25: 0.04752585818346954
	26: 0.09913074609587078
	27: 0.18165388184459394
	28: -0.259886081094242
	29: 0.11545680259919966
	30: 0.07089542132920106
	31: 0.009081568544846833
	32: 0.12045619049588319
	33: 0.025515941543347742
	34: 0.15239831573677898
	35: -0.06445731491427718
	36: 0.11228903204054307
	37: 0.13363138863363086
	38: 0.127681412024995
	39: 0.19219935518079756
	40: 0.2054750474913335
	41: 0.056920169342151966
	42: 0.1538163105327367
	43: -0.2712001604156588
	44: 0.25837154252599254
	45: 0.08261779911936988
	46: 0.19194082611645666
	47: -0.13719003413208894
	48: -0.06835189683246753
	49: 0.13478946423273813
	50: 0.3405196305925913
	51: 7.975234371947384E-4
	52: 0.3805221595047192
	53: -0.145502173054463
	54: 0.191453378849991
	55: 0.13599945079349493
	56: 0.2910172479391385
	57: 0.2613645180960331
	58: 0.2618698314943703
	59: 0.038551785407340125
	60: 0.11601515832051149
	61: -0.2392470627633731
	62: 0.02563714385964544
	63: 0.03308090249408975
	64: 0.15429693202257352
	65: 0.20329634813970623
	66: 0.21200797866250415
	67: 0.0489610136157521
	68: 0.09437729123794654
	69: 0.26719204814384845
	70: 0.3141674915024397
	71: -0.3052291714537094
	72: 0.10258508964754363
	73: -0.04082318593244326
	74: 0.3255520850679116
	75: -0.027801416108907837
	76: -0.050584540052838994
	77: -0.27877145524343355
	78: 0.3868738726981249
	79: -0.11152695633426736
	80: 0.1567983459530232
	81: 0.3847947467928311
	82: 0.15832191009230587
	83: 0.13082931551487378
	84: 0.16391982344264788
	85: 0.1768493535210501
	86: -0.1551578233187451
	87: 0.22735803029385176
	88: -0.33583591000425933
	89: 0.3035737934454895
	90: 0.2974546315590608
	91: 0.18166236134531685
	92: 0.18248228843438258
	93: 0.12513102406669663
	94: -0.03985106893880918
	95: 0.36943231293041073
	96: -0.020180429080597806
	97: 0.2272636129548438
	98: 0.2603002930666435
	99: 0.3431376280905747
	100: 0.21632588476786938
	101: 0.10185109405479893
	102: 0.2644786819378339
	103: 0.30702386788421165
	104: 0.456359625065618
	105: 0.22354112164972947
	106: 0.2962026901858695
	107: -0.437594618071051
	108: -0.3543796001846979
	109: 0.25343645309043766
	110: 0.12261465064271795
	111: -0.010905938883837419
	112: -0.06573598421355353
	113: 0.2790280676879385
	114: 0.3014244810765734
	115: 0.16389170419003057
	116: 0.13713411111806795
	117: -0.248591620111803
	118: 0.02670592256042879
	119: -0.02867202969176209
	120: 0.26201674818433773
	121: -0.18476863627294762
	122: -0.1942643410454803
	123: -0.17413667807110447
	124: -0.007788561935445479
	125: 0.1196836723614342
	126: -0.2706938180208158
	127: 0.09098617822679088
	128: 0.141247901511531
	129: 0.14123488948748256
	130: 0.3389646472692856
	131: 0.34131291866742125
	132: 0.2913112141924585
	133: 0.08862641299728917
	134: 0.38576521408956826
	135: 0.31070689418687164
	136: 0.17659260679407207
	137: 0.2102907930510189
	138: 0.38580696892450644
	139: 0.10690752314862703
	140: 0.233390874400708
	141: 0.22034869740162633
	142: 0.20267317316554562
	143: 0.21390842128758583
	144: 0.19343250201398274
	145: 0.16186852592247575
	146: 0.24490186553337068
	147: 0.14967300146170864
	148: 0.2448614735647536
	149: 0.4048163771553018
	150: 0.294393961975166
	151: -0.06902457380202558
	152: 0.07241318054155382
	153: 0.11830015273203814
	154: -0.08638230202916665
	155: 0.026327445240708326
	156: 0.07426694398410623
	157: 0.3548737229612637
	158: 0.3355208074700196
	159: 0.0057170043806784405
	160: -0.2709759468750607
	161: -0.19660198870589887
	162: 0.21080015279377784
	163: -0.29779516745645973
	164: 0.04853780684170807
	165: -0.24947092410806124
	166: 0.5076984042045122
	167: 0.44069274180059437
	168: -0.14981574232240522
	169: -0.07974783626541805
	170: 0.06789483479870999
	171: -0.2068087130096145
	172: 0.1684923864368235
	173: 0.2909621612714996
	174: 0.26489991335416
	175: -0.22220825380394343
	176: -0.12342211062681466
	177: 0.09203831348302143
	178: -0.0859587499369599
	179: 0.32622482056904156
	180: 0.2371443608738678
	181: 0.6332281876566319
	182: 0.2769256897157966
	183: 0.12216477739681812
	184: -0.0636903673586663
	185: 0.2831764241613363
	186: 0.2318980666353707
	187: -0.3670487069009543
	188: 0.45704110840124507
	189: 0.16123600129175045
	190: 0.09864548528067665
	191: 0.04254760253721939
	192: -0.22828463180370925
	193: 0.010669787153903999
	194: 0.026219282593000038
	195: 0.1285212912436528
	196: 0.09456291468847329
	197: 0.026834149475852748
	198: 0.26304359787190235
	199: 0.005642552598297615
	200: -0.3484479322257039
	201: -0.5710362748610671
	202: 0.1462712113159564
	203: 0.35698189761803595
	204: 0.11005544436142826
	205: -0.4137255188195618
	206: 0.327546045755105
	207: -0.34611150232638777
	208: 0.2660545071224954
	209: 0.15523007990965593
	210: 0.41435163929887253
	211: -0.029206292814179847
	212: -0.06411773683235285
	213: 0.05771824140763794
	214: -0.1290606841431629
	215: 0.097188129362889
	216: 0.0807765404094899
	217: -0.34912977254683597
	218: 0.3927413745624949
	219: -0.44714257733187684
	220: -0.5165192184732933
	221: 0.201440550287927
	222: -0.11064514344816558
	223: -0.1311505200589726
	224: -0.013746483656958774
	225: 0.10162180008059497
	226: 0.02058995246072076
	227: -0.32656616062199156
	228: 0.020935474609991706
	229: -0.02186313145732543
	230: -0.005483887128989855
	231: 0.16643909521902905
	232: 0.19829411912923067
	233: 0.04383189161081743
	234: -0.14532122125987534
	235: 0.05362318944924863
	236: 0.13621716498872735
	237: -0.4160629012701426
	238: 0.11080215015104948
	239: -0.019953164658903212
	240: 0.03074397879353929
	241: -0.05467748263220553
	242: 0.18576068483107594
	243: 0.1511996107615951
	244: -0.21249932244646502
	245: -0.07372892647055677
	246: -0.04953680963217128
	247: -0.02253927016372479
	248: 0.018404690674007244
	249: -0.23389813985043098
	250: -0.035549072314465725
	251: -0.255597698281622
	252: -0.0450521944049788
	253: 0.25212931370133196
	254: 0.09491007602747524
	255: 0.008586164229064762
	256: 0.16075220926045583
	257: -0.010263017884553617
	258: -0.1288265597004599
	259: -0.11554194916291305
	260: -0.1743068822721678
	261: 0.01912489625156198
	262: 0.5211028109909009
	263: -0.18033686577344482
	264: 0.15196111565882978
	265: -0.002239979279723009
	266: -0.2812441902349553
	267: 0.07275235029999691
	268: 0.07233798447553132
	269: 0.20884834777711597
	270: 0.2072233130140476
	271: -0.031894671657642815
	272: 0.19527869677057014
	273: 0.20644915987455323
	274: 0.20886734900846635
	275: -0.02774511556167951
	276: 0.022037118912527794
	277: 0.45883624968821585
	278: 0.18172517398243865
	279: 0.19803451025815128
	280: 0.18088848918946104
	281: -0.2300719788920841
	282: -0.04881855309546413
	283: 0.054655318127333416
	284: -0.1535682277305398
	285: -0.25465284970996355
	286: 0.10308407166969963
	287: 0.19758510753307007
	288: 0.22437294253663664
	289: 0.21769817917159276
	290: 0.1573550758657087
	291: -0.24419769934269034
	292: 0.34823276051796853
	293: 0.038835277740348534
	294: 0.3055173095027526
	295: 0.20511401072361313
	296: 0.2653194029043586
	297: -0.03043909877906251
	298: 0.21230207183890049
	299: -0.10061563572734475
	300: 0.3494240981653073
	301: 0.31812108475941886
	302: 0.11642406354671947
	303: 0.11147776171617152
	304: 0.30487788013577727
	305: 0.25099963112983276
	306: -0.1433178767519337
	307: 0.2519777525971436
	308: 0.05542533010778084
	309: 0.26030635416841436
	310: 0.04863173446176841
	311: 0.3215585588210616
	312: 0.0022027057686389794
	313: -0.08731590748768024
	314: -0.09945467773974219
	315: 0.13237557713477355
	316: 0.2606754770089564
	317: 0.22862979630382996
	318: 0.2728450414420017
	319: 0.11179733722196782
	320: 0.27940101497851316
	321: 0.11879218866055397
	322: 0.31301788715070544
	323: 0.08771998258628251
	324: 0.3228156726991514
	325: 0.24614971301440894
	326: 0.2941132013662855
	327: 0.19942634087321404
	328: -0.10938157378029903
	329: 0.07011726512354968
	330: 0.21133039223400807
	331: 0.4445888209532859
	332: 0.10525640272489248
	333: -0.21485663865404722
	334: 0.02357902742689148
	335: 0.03665073282100585
	336: 0.2134969489259531
	337: 0.33452921913958383
	338: -0.22329903202279033
	339: -0.1145646732352772
	340: -0.0044411740835058715
	341: 0.49818506691664743
	342: 0.2854013143759068
	343: 0.012360652021457367
	344: 0.29145402492841815
	345: 0.2616166583071645
	346: -0.01871940197784586
	347: 0.061813601687183924
	348: 0.1088172550399353
	349: -0.06391008170336963
	350: 0.17957405949757863
	351: 0.00479725287430173
	352: -0.09341042957300932
	353: 0.16098888020460483
	354: 0.001348772093648764
	355: -0.3074498155292463
	356: -0.04034191765534391
	357: 0.20351037209875927
	358: -0.0766073524365512
	359: -0.47236826953095457
	360: 0.06620620572609393
	361: 0.3200243745189079
	362: -0.31726323907291915
	363: 0.18055811652003337
	364: -0.044460413283011854
	365: -0.16476551310396123
	366: -0.010993264413438036
	367: -0.21079290459194652
	368: 0.0491073826192806
	369: -0.006831341665927327
	370: 0.09552294662928146
	371: 0.10948125460966023
	372: 0.3184494887370567
	373: 0.3930682162500976
	374: 0.009846020425262414
	375: 0.07247704177283668
	376: 0.29459204055525945
	377: 0.03297789533146849
	378: 0.3010737015994066
	379: 0.24963090723381245
	380: 0.35685209958529673
	381: -0.20219148355189479
	382: -0.05780871753611603
	383: -7.517555289423077E-4
	384: 0.15811690949140175
	385: 0.19300821304628488
	386: 0.20546156057376755
	387: 0.1941678667694067
	388: 0.22689069545337864
	389: 0.2915063609303938
	390: 0.18627110627833646
	391: 0.3339839364173322
	392: -0.05548064361099743
	393: 0.10300770074679087
	394: 0.011004813698146067
	395: 0.06944159858911976
	396: 0.09650065904599282
	397: -0.07660978742197908
	398: -0.22319361354751363
	399: -0.1933198058314755
	400: -0.03838062048112699
	401: -0.06961181646016089
	402: -0.08729551751420138
	403: 0.10265625841654091
	404: 0.016356243022910954
	405: 0.09936217402264233
	406: -0.20962698773304947
	407: 0.04400680853342183
	408: 0.04932938827244916
	409: -0.08327966653233447
	410: 0.23212391683026007
	411: -0.02083293701973539
	412: -0.07411892025039536
	413: 0.040082084604824174
	414: -0.062275239112497154
	415: -0.14812474099082387
	416: -0.427538349715581
	417: -0.23301233331490726
	418: -0.3950210955610538
	419: -0.008477068256631488
	420: -0.17469254790433492
	421: 0.16687692340848534
	422: -0.3214697975829343
	423: 0.39797249217037917
	424: 0.277486678826017
	425: 0.21285799477347855
	426: -0.14324936001902847
	427: 0.1759423720118682
	428: -0.03898599124436019
	429: -0.08540257359403156
	430: -0.2071654531436989
	431: -0.07189928734043322
	432: -0.1799799636949333
	433: -0.21925160420101092
	434: 0.024055757078027915
	435: -0.2881781103054629
	436: 0.09465356670471811
	437: 0.40850162164159093
	438: 0.05073454292264584
	439: -0.34677754646569425
	440: -0.03469096490060605
	441: 0.0195196985549079
	442: 0.19137420158599674
	443: -0.008785515940891078
	444: -0.19624714576408755
	445: -0.11632741362944993
	446: -0.07390708077192937
	447: -0.029643137459392222
	448: 0.20711041025829702
	449: 0.2795735967985843
	450: 0.03148825237075493
	451: -0.03409494371444516
	452: -0.08707977261949786
	453: -0.020165246478490467
	454: -0.21886351969268475
	455: -0.23287817672294767
	456: -0.2826056740638752
	457: 9.03809429875945E-4
	458: -0.06725772488382889
	459: -0.20420882175830737
	460: 0.2258754602105796
	461: -0.22715115915185227
	462: -0.34418371169438505
	463: -0.20139537849094563
	464: -0.2049771950519046
	465: 0.11747453782379065
	466: 0.20325447207121664
	467: -0.326512220792427
	468: 0.030179999787615167
	469: -0.2736917825701585
	470: -0.14561969269785208
	471: 0.023813196790341603
	472: 0.2649662003458006
	473: -0.37807884892630533
	474: 0.007626720830892717
	475: -0.1199052782574474
	476: -0.2326513860413827
	477: -0.16146701481381895
	478: -0.35156134756207236
	479: 0.16359056237398065
	480: 0.15925381666117722
	481: -0.06779858638204464
	482: 0.024013374395744944
	483: 0.05885871096711889
	484: 0.09340601212208739
	485: 0.1162179996716354
	486: -0.4371332521270677
	487: 4.3488137640084997E-4
	488: -0.24778419400848126
	489: 0.2913939025212732
	490: -0.3657103877098031
	491: 0.05024605858098785
	492: -0.2600212358795324
	493: 0.20969328390561612
	494: -0.4133707301158003
	495: -0.08336814689763494
	496: -0.2025657100700694
	497: -0.18396049951876292
	498: -0.002623557511880637
	499: -0.18923751611978
	500: 0.0063054986879437
	501: -0.2454015770929018
	502: -0.12246823800374496
	503: -0.06986549950159665
	504: -0.039661484950929006
	505: -0.33996541723125795
	506: 0.07106407352978017
	507: -0.06930539884112454
	508: 0.37788915802652523
	509: -0.054226599887985255
	510: 0.24115446416333486
	511: 0.1453773835095121
	512: -0.44248599605085737
	513: 0.006097127249744375
	514: -0.14597645420404978
	515: -0.03527587095792084
	516: -0.2987359570051369
	517: -0.001160401881732226
	518: -0.47251836052359647
	519: 0.14344181194960928
	520: -0.05908375998658694
	521: -0.2035077853877468
	522: -0.10001282565778541
	523: -0.21020420806021523
	524: -0.5721215219136385
	525: 0.3145724737326284
	526: -0.03698632111259202
	527: 0.18891108391597244
	528: -0.30889466655927283
	529: 0.00403564675339307
	530: 0.27821190430426246
	531: 0.3482041332602184
	532: -0.04599625289982681
	533: -0.00837901101855612
	534: 0.11063569310606497
	535: 0.050619130562024356
	536: 0.14812190831943126
	537: -0.28974433714162723
	538: 0.26463291018059637
	539: -0.20164309269658276
	540: 0.19463129711807725
	541: -0.20377391721985755
	542: -0.2007360946268737
	543: -0.16946613257349225
	544: 0.21303148504576028
	545: 0.20794775564101312
	546: -0.27888022285705666
	547: 0.03915307087996121
	548: -0.0019238469629625004
	549: -0.028858493597594858
	550: -0.20837011964267538
	551: -0.3440037334226858
	552: -0.21578226344505405
	553: 0.3797398214470782
	554: 0.23450270540460638
	555: 0.020951109431082613
	556: -0.02506797479563576
	557: 0.23501967067194365
	558: -0.20092279092111628
	559: -0.4062311126622725
	560: -0.24120685462628363
	561: 0.04330135907438337
	562: -0.023340153025335948
	563: -0.4345934257266464
	564: 0.04093490093536286
	565: 0.04338591788529594
	566: -0.204828377277722
	567: 0.20586909026464223
	568: -0.1776568850886506
	569: 0.03852802121955728
	570: -0.21185416218870556
	571: -0.2517120827885256
	572: -0.05421189207821625
	573: -0.17180181208436712
	574: 0.06411282095514258
	575: 0.5771030662217582
	576: -0.22638614413361186
	577: -0.31633789764404185
	578: -0.028359318540945092
	579: -0.03726520891201606
	580: 0.43707525477513504
	581: 0.1103049364529283
	582: 0.3084594894578335
	583: 0.12144029987563351
	584: -0.25302578725358976
	585: -0.2270489860661487
	586: 0.06204320350130543
	587: 0.024628540270434183
	588: -0.15007200675640534
	589: -0.4942062284233834
	590: 0.05967338933067126
	591: -0.04299288373393567
	592: 0.013692353141020762
	593: -0.03719095879502955
	594: -0.349751612524259
	595: 0.05987695205415832
	596: -0.2124328051179685
	597: -0.07331566343155033
	598: -0.058911296707436805
	599: 0.007548188072674883
	600: -0.18885257268148523
	601: -0.006484780138914483
	602: -0.021785033754344298
	603: 0.03298848719433699
	604: -0.2199631260839649
	605: -0.1784733659983986
	606: -0.3163514153837846
	607: -0.1259163373057124
	608: -0.12943340696593758
	609: 0.06672438669680941
	610: -0.21831647720448275
	611: 0.01247603923403527
	612: -0.18311039128503645
	613: -0.17968832263932752
	614: -0.18659271524702006
	615: -0.02077747773344591
	616: -0.3141241984500135
	617: -0.011569569600547364
	618: -0.009895199715597425
	619: -0.5549869704738577
	620: 0.18075478893513444
	621: 0.3659796596268741
	622: -0.035192887360704375
	623: -0.46275623191306287
	624: 0.2516046117209588
	625: 0.13266933080139506
	626: -0.020968668432853638
	627: 0.0852968070182793
	628: 0.34971521774846925
	629: -0.2026892828488919
	630: -0.09863587933301024
	631: -0.05866489514613084
	632: -0.10579861057718476
	633: -0.2356665923560317
	634: 0.1175424845738396
	635: 0.27917169481997034
	636: -0.19050028160528168
	637: 0.29539932390629287
	638: -0.1618729935708982
	639: -0.41233125470288357
	640: 0.38752221076959714
	641: -0.2769321908264874
	642: 0.0050684474693931305
	643: -0.2953310346093241
	644: 0.20211720513782966
	645: -0.13197888161082408
	646: 0.6621287373777327
	647: 0.20349125833178314
	648: 0.09180352996723853
	649: 0.24360508775878445
	650: -0.20538579659531378
	651: 0.2234761266328003
	652: -0.143339041171839
	653: -0.11473641208556616
	654: 0.22280711097650163
	655: -0.10410880097024842
	656: 0.33896612005086413
	657: 0.28925357843917476
	658: -0.04964020982274318
	659: -0.07550295384553628
	660: 0.28385937900263586
	661: 0.027524854595989842
	662: 0.02218104460247618
	663: -8.450007321432434E-4
	664: 0.22196173185283333
	665: -0.15598525282745127
	666: 0.13436393218477571
	667: -0.005939607143926148
	668: 0.02742423373671673
	669: 0.18311132668994426
	670: -0.12227260374736106
	671: -0.20551346515334543
	672: -0.6365642895731222
	673: -0.12164404537626604
	674: -0.3024944597034736
	675: 0.24726064537472098
	676: -0.20509328625187548
	677: 0.28572415111606253
	678: -0.17608358891432083
	679: -0.05403964674006643
	680: -0.04552609434096987
	681: 0.028757145125061293
	682: 0.3738938723427028
	683: -0.2051677346525394
	684: -0.014712782535690735
	685: -0.006427400427236442
	686: -0.04473451871041174
	687: -0.11423867028390343
	688: -0.11618758781031835
	689: -0.21642784859567624
	690: 0.029433962332422237
	691: -0.16584083256966115
	692: 0.10657612904760302
	693: -0.37088527392896103
	694: 0.10623764559994334
	695: -0.24883085026786667
	696: -0.18582446540054648
	697: -0.02314430801576656
	698: 0.1660983012995174
	699: -0.16236537176024948
	700: 0.009336441373840584
	701: -0.1479284991871759
	702: 0.019800776491267547
	703: 0.10481049210593417
	704: -0.15272107708445598
	705: 0.023930842089048575
	706: 0.23148003257396996
	707: 0.04396441581140052
	708: 0.27585773390890755
	709: -0.24873940066898698
	710: -0.4465134070719896
	711: -0.2841217718006206
	712: 0.17182552662403028
	713: 0.13152927773536763
	714: -0.197370528229576
	715: -0.21330472060039593
	716: -0.04860434070204345
	717: 0.029321014090379
	718: 0.40871984978922254
	719: -0.010143659826723038
	720: -0.10193343124841843
	721: -0.1591045633766926
	722: -0.007384819686755258
	723: -0.09157906480763102
	724: 0.11358416323006537
	725: -0.12151132481630332
	726: 0.0987921851330511
	727: 0.014242983634483642
	728: -0.06565213116463724
	729: -0.0026921268386376237
	730: 8.115937244684963E-4
	731: -0.19872987520452282
	732: -0.44114090650647314
	733: -0.16030359551591877
	734: 0.050118624956482526
	735: -0.19594913133794506
	736: -0.18174213448780457
	737: -0.012094616574593766
	738: 0.39038528735514816
	739: -0.0019400920136671196
	740: -0.17529042511068244
	741: 0.09545293286107093
	742: 0.16457325994386104
	743: 0.08628255399246183
	744: 0.04828277553022727
	745: -0.22836493645652264
	746: -0.4085822463791811
	747: -0.32535228506205643
	748: -0.02600545021173014
	749: -0.29845793076814703
	750: -0.005444044367692337
	751: 0.024314469348124177
	752: 0.2150510383153862
	753: 0.07638300233597942
	754: 0.038143868590310555
	755: 0.5876643653618319
	756: 0.3069532775305582
	757: 0.02537836889249938
	758: 0.17480537538603008
	759: -0.30801188049072414
	760: -0.3249033666775308
	761: 0.007061537611931737
	762: -0.26459941534249753
	763: -0.2218234608276702
	764: -0.14678741157605726
	765: -0.14794128485403926
	766: 0.030755037199791373
	767: -0.41836857906257247
	768: -0.013523139356898166
	769: -0.2288449248915997
	770: 0.19213528747087988
	771: 0.028565786577940892
	772: -0.21586157947340992
	773: -0.1487694173137895
	774: -0.23120295712208208
	775: -0.11798278622661479
	776: -0.21024963458451432
	777: -0.18146689455719245
	778: 0.35125294653599315
	779: -0.08219421941777996
	780: 0.1132650795401031
	781: 0.4622578891694667
	782: 0.07570376890580638
	783: 0.18594340413128185
	784: 0.007929190893211674
	785: -0.1652419733853886
	786: -0.17742084464600155
	787: -0.34742106396696315
	788: -0.2340569681896224
	789: -0.2585864555533338
	790: -0.03330222828194102
	791: 0.040034460097928756
	792: -0.25753505182015896
	793: -0.014868198185247724
	794: -0.2154506794307546
	795: -0.18733312346328385
	796: -0.4384421811885729
	797: -0.3153190801847476
	798: 0.3254624966811487
	799: 0.25508712368914993
	800: -0.09252537771605424
	801: -0.38699215168566703
	802: 0.0823127078338201
	803: 0.22531619277510526
	804: -0.17466830392891564
	805: -0.026774207889277507
	806: -0.3377795192858322
	807: 0.09343794831455242
	808: -0.23175946250863222
